1367 100
vernisage1-20 0.051877 -0.083038 -0.336231 -0.332676 -0.011195 0.087515 0.355008 -0.478475 0.692641 -0.342069 -0.054438 0.289971 -0.022494 -0.125884 0.550860 -0.184406 -0.282194 -0.272052 0.174127 0.296592 0.210255 0.059767 -0.132334 0.109846 -0.431591 -0.298279 -0.109678 -0.595122 -0.112377 0.053159 -0.489175 0.383390 0.300699 -0.131920 0.231842 -0.074774 0.308100 0.395557 0.044510 -0.006971 -0.006711 0.359796 0.198569 -0.324545 0.231593 -0.263249 -0.443678 0.080963 -0.132164 0.797509 -0.020260 0.257559 0.058373 -0.052188 -0.436412 -0.061365 0.528144 0.045252 -0.364014 0.651379 -0.208076 0.091240 -0.100723 -0.069556 -0.197343 0.359446 -0.290644 0.008645 -0.663417 0.164790 0.076497 0.162673 0.214330 -0.131744 -0.235369 -0.034056 0.148132 -0.339055 -0.211285 -0.016025 -0.033149 0.211742 0.162480 -0.401282 0.183460 0.262237 -0.051178 0.311405 -0.206497 0.433192 0.253477 -0.300597 0.167477 -0.221235 0.089543 -0.027382 -0.084055 0.595567 -0.557154 -0.383926
afifichestclini -0.027156 0.014324 -0.194585 -0.031496 -0.209897 -0.404593 0.317521 0.470266 0.398467 0.291318 -0.255692 0.099497 -0.202267 0.244139 0.017612 0.420032 -0.069439 0.260445 -0.006542 0.112348 0.060819 -0.208029 -0.021469 0.383064 0.050039 -0.219802 -0.237284 -0.101587 -0.027047 0.538937 -0.126721 0.091521 -0.034785 0.200403 0.027331 -0.344093 -0.833017 -0.244082 0.027627 -0.029022 0.298434 -0.153828 0.336455 -0.526418 0.179700 0.263461 -0.047575 -0.157758 0.020061 0.037652 0.036661 0.340498 -0.092744 -0.008802 0.264520 -0.010213 -0.188611 0.409577 -0.373947 -0.572133 0.158647 0.471054 0.102632 -0.088935 -0.040895 -0.046032 -1.011169 0.515215 0.345783 -0.143556 -0.263741 0.135123 0.245112 0.063644 0.043150 -0.290480 -0.010835 -0.046297 0.598032 0.390646 0.173296 0.171450 -0.305072 -0.167577 0.371978 -0.222665 0.037905 0.191984 0.361894 -0.222448 0.597755 -0.056076 -0.016800 0.188415 -0.058235 -0.177837 -0.377941 0.219604 -0.021769 0.088044
geospart 0.124615 0.102946 -0.163850 -0.137390 0.315470 -0.455690 0.024264 0.201573 0.276238 -0.276222 0.175362 0.098412 0.048457 -0.515021 0.212409 -0.139619 0.851255 0.023934 -0.468616 -0.164667 0.001439 0.418057 0.254137 -0.373325 -0.304830 -0.468902 -0.111870 0.077528 -0.048676 0.467402 -0.258001 -0.003556 -0.047938 0.404224 -0.273104 -0.229399 -0.038721 0.338604 0.560443 -0.085298 0.512858 0.108854 0.043534 -0.097568 0.334628 -0.157757 0.484176 0.109226 0.096851 0.187562 -0.627223 -0.221049 0.144243 -0.228243 -0.079122 -0.072793 0.161062 -0.110168 -0.410612 -0.420568 -0.118983 -0.057054 -0.067877 -0.082193 0.195962 -0.130444 0.134329 -0.231823 -0.112776 0.074493 -0.113245 0.394338 0.006404 0.350098 -0.404277 -0.110708 0.073285 0.231383 0.459589 0.515694 0.163622 -0.177211 0.609975 -0.219747 0.134215 -0.063276 0.220806 0.110658 0.339478 -0.233613 -0.025063 -0.187795 0.210779 0.163478 -0.191469 -0.749840 -0.390775 0.289692 0.047825 -0.096377
diydanna 0.296745 0.090820 -0.338231 0.310438 0.100746 -0.168424 0.047701 -0.263830 -0.248199 0.162926 -0.036626 -0.145517 0.386045 -0.044731 0.067292 -0.202244 -0.168782 -0.324831 -0.026700 0.099020 0.592532 0.136194 -0.107008 -0.264614 -0.015604 0.072281 -0.300589 -0.341521 -0.666971 0.106852 -0.357241 0.190584 -0.472314 -0.065693 -0.592607 -0.269497 -0.429085 -0.264099 -0.139415 0.217305 0.348598 0.168022 -0.065544 -0.583083 -0.247103 -0.368380 -0.188327 -0.130516 0.168838 0.190376 -0.016453 0.183399 0.373080 -0.515439 -0.099364 -0.546641 -0.258666 -0.192769 -0.373107 0.173822 0.276490 0.016415 0.200876 0.083314 0.056456 0.225187 -0.462962 -0.131658 0.335506 -0.201957 0.758770 0.245022 -0.240967 0.132366 -0.022541 0.107270 -0.004736 0.206737 -0.026491 0.278435 0.506322 -0.130307 0.362525 0.146908 -0.171896 -0.116189 -0.508171 0.140813 0.045757 0.213243 0.336611 0.422003 0.342167 0.117650 -0.470000 0.200003 -0.242206 -0.228291 -0.241163 0.200114
marinascomics 0.123745 -0.020208 0.262940 0.013263 -0.090900 -0.485143 0.678881 -0.072303 -0.341157 -0.181979 -0.334758 0.089182 0.152482 0.141798 0.487614 0.417255 -0.362305 0.479731 -0.026641 -0.386591 0.089401 -0.062907 -0.014028 0.215547 0.505762 -0.678461 0.247738 -0.055209 -0.304360 0.536326 -0.048120 0.161188 -0.075358 -0.040187 0.095476 -0.549145 -0.318534 -0.128859 -0.058296 0.074837 0.462133 -0.228657 -0.046863 -0.225788 0.277947 -0.217982 0.552199 0.264798 0.205650 -0.114859 0.014764 0.159201 0.285345 -0.144255 0.381499 0.219286 -0.041712 0.223497 0.184193 -0.047071 0.397202 0.415328 0.299363 -0.113037 -0.222330 -0.134755 0.329430 0.344832 -0.120979 -0.441337 -0.142259 0.067195 -0.106480 0.126794 -0.031878 -0.002946 -0.285475 -0.155794 -0.146908 0.493864 -0.048476 -0.318272 0.204027 -0.230111 0.204229 -0.034982 -0.051113 -0.200525 -0.425798 -0.691965 0.304802 -0.148825 -0.084591 0.355433 -0.177060 -0.350901 -0.441071 0.486264 -0.155944 0.239310
rikanauck -0.193766 -0.261742 -0.204009 0.381488 0.334252 -0.428202 0.097413 0.111103 0.451985 0.704864 0.181719 -0.237245 -0.595825 -0.096777 0.204524 -0.268305 -0.168122 0.284131 -0.211195 0.617951 -0.159744 0.060237 -0.057347 0.215625 -0.571656 -0.536672 0.687159 -0.631761 -0.193307 -0.129140 -0.430994 -0.129281 -0.281804 0.066217 -0.100089 -0.522565 0.239415 -0.037643 -0.269842 -0.064967 -0.414469 -0.130266 0.181515 0.221773 0.297006 0.043757 -0.354969 0.497674 0.295158 0.499228 -0.327898 0.581144 -0.043910 -0.149055 0.322611 -0.032084 0.161022 -0.052523 0.228953 -0.172939 0.340932 0.302723 -0.517842 -0.014454 0.050189 -0.125557 -0.398762 0.081240 -0.054259 -0.563158 0.098704 0.711830 -0.152576 0.084913 0.190372 0.138352 -0.028546 0.038832 -0.405317 -0.305543 -0.100785 -0.009333 -0.090796 -0.092216 -0.110796 0.016928 -0.030902 -0.316374 0.353762 0.044527 0.365604 0.118282 0.302325 0.024231 -0.042769 0.158711 0.006073 -0.176692 0.132541 0.089642
finraz -0.112061 -0.128263 0.025500 -0.474868 0.069125 0.177688 0.354878 -0.094494 -0.344982 0.303925 0.249010 -0.590694 -0.219800 0.198080 -0.409457 -0.191570 -0.100660 -0.073353 0.324227 0.264376 0.120198 -0.221730 0.328083 0.229586 0.264074 -0.506781 -0.021777 -0.025725 0.292815 0.309759 -0.033745 -0.069861 0.000588 0.076396 -0.092059 -0.251139 0.098012 -0.047064 0.226339 0.125886 -0.087776 0.035386 -0.231749 -0.110440 0.461476 -0.088423 -0.325002 -0.531418 0.132576 -0.016062 0.253792 -0.070508 0.384290 -0.517879 -0.326033 0.137809 -0.124413 0.666338 0.283059 -0.667105 -0.106264 0.194374 -0.394823 0.245484 -0.040822 -0.253701 0.125359 -0.195424 -0.136186 -0.309686 0.049967 0.140428 0.023349 -0.134543 -0.683064 0.380062 0.353366 -0.354460 0.121789 -0.289514 -0.060100 -0.193666 0.264682 0.473285 -0.275867 0.069383 -0.051099 -0.534225 0.203077 0.328270 0.344209 -0.014991 -0.480058 0.045758 -0.299343 -0.076730 0.123610 0.520917 -0.228064 -0.780491
sacred-doll -0.016226 0.393012 -0.616028 -0.176280 -0.298853 0.327692 0.145319 0.465570 0.164345 0.321471 -0.262142 0.033304 -0.183471 0.057232 0.240508 0.403939 0.406650 -0.540602 -0.203879 0.079844 -0.125992 0.313763 0.206908 -0.219900 0.330630 -0.351514 0.021019 0.419307 -0.136028 0.349678 -0.044712 -0.161449 -0.247825 0.296250 -0.049048 -0.316033 -0.104354 0.268535 -0.080385 -0.011819 0.233194 -0.378096 -0.603252 0.284538 -0.498615 -0.084523 -0.152975 0.274399 0.392802 -0.385734 0.309466 -0.177011 0.195792 0.251208 0.075045 0.261173 0.321489 0.275150 -1.028303 -0.085546 0.040543 -0.096003 0.047981 -0.031225 0.337241 0.408453 0.094562 0.448753 -0.057212 -0.261338 -0.011464 0.265047 0.305797 -0.331415 0.000807 -0.235410 0.098051 -0.401732 0.029943 0.185823 -0.272905 -0.114158 0.252310 -0.073331 0.077810 0.111052 -0.847612 -0.100640 0.036710 -0.447334 0.209346 -0.034601 -0.222497 0.011835 -0.526883 -0.107200 0.081158 -0.110066 -0.088440 0.323870
amhnews -0.283554 -0.350638 0.050652 0.148090 0.009097 -0.120086 0.808753 0.280842 -0.039043 -0.072196 0.264108 0.074334 0.287218 0.159653 -0.532171 0.333442 -0.183176 -0.021603 0.099713 -0.013094 -0.025463 0.334774 0.286428 -0.013378 -0.581649 0.117678 -0.095081 0.285457 0.166145 -0.327563 0.024035 -0.177809 0.367506 -0.199529 -0.157558 -0.021494 -0.242049 -0.362883 -0.235092 -0.334551 -0.034501 -0.161671 -0.194321 -0.186745 0.289818 -0.532959 -0.355307 0.201141 -0.107036 0.290252 0.037813 0.173479 0.221873 -0.077701 0.075076 0.315725 -0.095693 -0.418332 -0.702744 0.169999 -0.223501 0.294966 -0.410843 0.142986 -0.042795 0.223346 -0.075543 0.484128 -0.283337 -0.168424 0.106383 -0.009312 -0.266956 -0.265928 -0.079945 0.116104 -0.419831 0.096152 0.521060 0.453121 -0.065400 0.181184 0.319422 0.143190 -0.146685 0.197105 -0.548737 -0.510493 0.076911 0.094738 0.743995 0.099970 0.001752 -0.122546 -0.388370 0.100556 -0.093453 0.117031 -0.342436 0.406200
vasil 0.355791 0.269795 -0.084160 -0.247085 0.044234 -0.388980 -0.070850 0.123884 -0.003835 0.155017 0.146813 0.434065 -0.537268 -0.079158 0.032879 -0.201246 -0.766832 -0.135657 0.339695 -0.673377 -0.134733 0.067825 -0.098286 -0.348366 -0.210472 0.082551 -0.147558 -0.376424 -0.118550 0.214245 -0.389348 0.186241 0.479839 0.157744 0.541779 -0.204419 -0.686690 0.081298 -0.062128 0.002884 -0.312369 -0.245961 -0.018706 0.126915 0.033198 0.102883 -0.373209 -0.117466 0.022000 -0.431994 -0.071975 0.423365 0.006504 -0.131126 -0.147398 -0.383873 -0.700783 0.154920 -0.561762 0.173138 -0.309081 0.378835 0.225338 -0.247183 0.032243 -0.128408 0.576398 0.409723 0.142223 -0.221389 -0.329531 0.317310 0.016543 -0.318037 -0.116998 0.523828 0.169662 -0.259972 -0.004254 0.033439 -0.042226 -0.293020 -0.071365 -0.069140 -0.030364 0.094282 -0.282447 0.076408 0.367655 -0.234562 0.097520 -0.043343 -0.285052 0.132202 0.414363 0.107733 0.423683 0.029419 -0.274282 0.374737
lenoraclaire 0.296268 -0.292726 0.100993 -0.646882 0.181987 -0.057372 -0.468342 0.153586 -0.124270 -0.298177 0.446636 0.350344 0.128420 0.165279 0.051479 -0.221692 -0.224951 0.140753 0.302825 -0.138404 0.306208 -0.306464 0.096446 0.263123 -0.667495 -0.441598 -0.437862 -0.209517 0.117830 -0.409609 0.210002 0.376137 0.000318 0.104458 -0.380065 -0.528972 -0.438435 -0.345268 0.225860 -0.091194 0.121855 0.194872 0.313017 -0.247792 0.013310 -0.194505 -0.428274 -0.168600 -0.179510 0.498157 0.062665 0.327181 0.731716 0.059212 0.005586 0.151722 -0.140601 -0.152839 -0.390270 0.194410 -0.137582 -0.285862 0.306363 0.574106 0.197449 0.386665 0.269059 0.143420 -0.041680 -0.472111 -0.079591 -0.039406 -0.451094 -0.163995 -0.600930 0.449365 -0.072907 -0.174498 -0.197216 -0.109504 -0.033824 0.098504 0.136582 -0.384104 0.116862 -0.091002 -0.027932 -0.206409 0.004887 -0.002091 0.220875 -0.258677 0.081137 0.353612 0.322419 -0.191606 -0.253566 0.266454 0.109710 0.202555
mimbari 0.052740 -0.297303 -0.021679 -0.015764 -0.235905 -0.025758 0.072199 0.507645 0.006087 0.619109 0.099736 0.236075 0.019570 -0.351056 0.125949 0.145628 0.038890 -0.366687 0.116372 0.045331 0.179251 0.396693 0.108645 0.466414 -0.131032 -0.358421 -0.174128 0.099770 0.177082 -0.019623 -0.304153 0.347617 -0.352860 -0.107675 -0.014505 0.166221 -0.230152 -0.071060 0.124325 0.153774 0.579481 0.255019 0.599268 -0.409598 0.372759 0.025939 -0.325883 -0.491153 -0.210757 0.347718 -0.297762 -0.061074 0.451239 -0.067471 0.039515 0.168896 0.404916 -0.185325 -0.050462 0.144287 0.169430 -0.585579 0.173362 0.134400 0.085853 0.250424 0.303143 0.639089 -0.491433 -0.479102 0.452233 0.158745 -0.391246 0.109183 -0.089807 0.242885 -0.233401 0.374602 0.158346 -0.120270 -0.043659 0.013972 0.057724 0.453272 0.323938 0.320767 0.051004 -0.301682 -0.094978 0.450728 0.443518 0.289162 -0.050917 0.503238 -0.185065 -0.503164 0.391431 -0.114748 -0.033125 0.337368
doutorelias -0.308717 0.014905 -0.274370 -0.077355 -0.425405 0.127153 -0.277214 -0.005321 0.446945 -0.287101 0.096714 0.243210 -0.050325 -0.124899 -0.205314 -0.412315 -0.169995 0.170862 -0.099600 0.088470 -0.289322 0.533614 0.679890 0.709390 0.161497 -0.083673 0.425361 0.300425 -0.353079 0.219020 -0.047113 -0.221109 -0.602299 -0.330716 0.079641 -0.715839 -0.320817 -0.179059 0.121396 -0.158304 0.162287 0.253194 -0.457699 0.003269 0.307788 -0.268045 -0.259325 -0.087064 0.162533 -0.288153 0.137131 0.084903 0.473904 0.026794 -0.110035 0.373466 -0.114015 0.069863 -0.251244 -0.115680 -0.762717 -0.233832 0.712962 0.109010 -0.318192 -0.291841 -0.218674 0.136358 0.379100 0.258600 0.262307 0.416831 0.006493 0.310263 -0.251689 -0.209261 -0.159346 -0.242317 -0.135613 0.098334 -0.424103 0.014824 0.534407 -0.176780 -0.283981 -0.234154 -0.118321 -0.469427 -0.291759 -0.235451 0.370940 0.172237 -0.239447 0.179021 0.112614 -0.067883 0.145699 -0.140692 -0.089289 0.135950
chato 0.199356 0.123068 0.540593 -0.105967 -0.032509 -0.221077 -0.075081 0.032997 -0.139004 0.555305 -0.137930 -0.286717 -0.200511 -0.284447 -0.001535 0.154043 -0.320796 -0.561485 0.116686 0.396299 0.304181 -0.453239 -0.316801 -0.176493 -0.043120 -0.182140 -0.101781 -0.268343 -0.265176 0.183809 0.338215 0.117597 -0.332943 -0.322378 0.144987 -0.461493 -0.143666 -0.050186 -0.170457 0.272268 0.229629 -0.360639 -0.240954 0.002296 -0.348709 -0.223112 -0.133513 0.162286 -0.025272 -0.205516 -0.324327 -0.173333 0.015226 0.195514 -0.380077 0.181655 -0.267599 0.345091 0.219923 0.191983 -0.086962 0.463513 -0.185811 0.060747 0.100022 0.177795 -0.158454 0.054761 -0.523734 0.036170 0.992907 -0.132700 0.282267 -0.017510 -0.227083 0.167095 -0.119333 0.194764 -0.096356 0.165557 -0.093595 0.271473 0.463209 -0.032915 -0.063320 -0.054053 -0.695378 -0.501529 0.026922 -0.020044 0.696974 -0.111488 0.031008 0.264230 -0.601797 0.059733 -0.690403 0.209987 -0.163895 0.086241
jasonwert -0.502079 0.120910 0.003033 -0.049139 0.046491 -0.005872 -0.011981 -0.413695 -0.195757 -0.083042 0.266617 0.028801 -0.245488 0.042887 -0.257409 -0.192498 -0.272006 0.226499 -0.243399 0.910583 0.288740 0.136024 -0.180861 0.436567 -0.307338 -0.395311 -0.221126 0.475875 -0.075267 0.368097 -0.044229 -0.093777 -0.237576 0.291472 0.298923 0.280405 -0.061757 -0.304475 -0.216351 -0.045651 0.671231 0.146384 0.108638 0.068795 0.252698 -0.363176 -0.339575 0.145158 0.055482 0.520555 0.074515 0.153210 0.347164 0.227321 0.055326 -0.408120 0.083912 -0.067964 0.081622 -0.383844 -0.152456 0.004296 0.724478 -0.500036 0.499572 0.168684 0.366420 -0.042680 -0.426602 0.035729 -0.304610 -0.058456 0.196499 -0.393799 -0.219188 0.179583 0.005826 0.182744 -0.100667 0.110572 0.212182 -0.094386 0.518297 0.405558 0.005595 -0.009978 -0.483570 -0.335522 -0.206868 -0.231129 0.221748 -0.026965 0.124411 -0.359056 -0.278556 -0.151066 0.312743 0.207806 0.155590 0.604082
princeton-jw 0.293873 0.630891 -0.121900 -0.321284 -0.668611 0.167018 0.133057 -0.107393 0.079195 -0.051783 -0.357375 0.900878 -0.361232 -0.193480 0.217135 0.050895 0.050657 0.711534 0.303472 0.083693 0.211246 0.510901 0.096828 -0.023610 0.160418 -0.113342 -0.056235 -0.312869 0.308890 0.016655 0.045971 -0.238703 -0.154279 0.670496 0.261712 -0.078802 -0.406628 0.087999 0.448454 -0.231639 0.218888 0.253854 -0.049487 0.048471 0.166913 -0.131053 -0.149109 -0.328056 0.538740 -0.154793 0.083721 0.103419 0.567033 -0.214716 0.214563 0.026108 -0.058844 0.434802 0.149121 -0.346897 -0.110286 0.027409 0.318108 -0.436508 0.343972 0.307329 0.302253 -0.233252 -0.610786 -0.013310 -0.022486 0.243669 -0.077788 0.132668 -0.442787 -0.154307 -0.182095 0.011755 -0.167915 0.517779 0.054070 0.124140 0.377367 -0.149311 -0.166488 0.293867 -0.313494 0.128615 0.097720 0.082981 0.189891 -0.029407 -0.154001 -0.055528 -0.284627 0.241908 -0.200904 0.279660 -0.231708 0.162462
kittyannemarie 0.239104 0.236509 -0.233761 -0.234286 -0.329347 0.015855 -0.136915 0.310582 -0.246564 0.333880 -0.119680 0.960977 -0.477383 -0.195580 -0.309594 0.104775 -0.528873 -0.071120 -0.139650 -0.448471 0.606668 0.189497 0.279320 0.098814 -0.480832 0.243145 -0.531451 -0.040032 0.022725 -0.064726 0.130588 -0.121836 0.104687 0.060628 -0.435962 -0.413614 0.145775 0.558683 -0.044099 -0.538191 0.138550 0.158227 0.282999 -0.423000 -0.092412 -0.009289 0.379056 0.348441 0.177242 -0.321284 0.290361 -0.062580 -0.480089 0.591309 0.130173 0.355867 -0.096723 -0.053954 -0.425850 -0.292390 -0.684849 0.334908 0.351602 0.037474 0.126506 0.339357 0.272257 0.195147 -0.118799 -0.128587 -0.101755 0.207186 0.001058 0.317026 -0.118280 0.040675 0.288615 -0.252671 0.268315 0.114004 0.249475 -0.030072 0.478894 0.159280 -0.147985 0.067758 0.111109 -0.178833 0.024083 0.096059 0.432096 0.154099 0.031974 0.131268 -0.171763 -0.510641 -0.171128 0.076829 -0.403988 -0.039219
valentineni -0.015392 -0.377512 -0.430100 -0.665206 0.276249 0.003768 -0.505253 0.083692 0.027714 0.371491 0.138850 0.388301 -0.187307 0.350646 0.130457 0.226273 0.044334 0.175717 -0.003959 -0.066191 0.030158 0.058841 -0.019505 -0.255316 0.117097 0.075569 0.337804 0.011680 -0.202495 -0.239891 -0.367888 -0.553956 -0.067524 -0.438298 0.022418 -0.558295 -0.627550 0.451585 0.235827 0.042989 0.399093 -0.471774 -0.099772 -0.049723 -0.132601 -0.554621 0.295017 -0.385698 0.169018 0.339195 0.407906 -0.035433 0.025767 0.600746 -0.386488 0.553147 -0.301335 -0.311234 -0.157336 -0.400983 -0.069140 0.359278 -0.528238 -0.039472 0.128898 -0.143041 -0.117613 0.178316 -0.283905 -0.136697 -0.149274 0.070397 -0.366534 -0.242421 -0.181446 0.018331 0.339038 -0.141298 -0.236831 0.039912 0.094632 -0.276599 0.157502 0.130399 0.231190 -0.170315 -0.209531 -0.059538 -0.300360 0.122459 0.085758 0.107963 0.330690 -0.165203 -0.765264 -0.267011 0.101133 -0.028380 -0.121394 0.066614
brandeks 0.234154 -0.152268 0.208135 -0.531754 0.105623 0.022864 -0.141526 0.667394 0.015979 0.364883 0.017208 0.175825 0.062529 -0.002749 0.186412 0.076254 -0.299132 -0.141366 -0.226250 0.102366 0.099536 0.286858 -0.191542 0.316559 -0.413784 -0.390653 -0.228218 0.276930 0.067288 0.705338 -0.028423 0.552717 0.448198 -0.015660 -0.530068 0.104075 -0.199042 0.225938 0.135238 -0.514029 0.102456 -0.078736 0.046205 0.138478 0.523363 -0.134327 -0.040995 0.274886 0.571001 0.242092 -0.022506 0.348435 -0.017216 -0.156480 0.062422 -0.363634 -0.136448 0.238645 -0.500696 0.142983 -0.381092 0.148191 0.219316 -0.419611 -0.284772 0.248086 0.268608 0.272221 -0.155614 0.264235 0.011737 -0.059733 0.118776 0.130342 -0.030469 0.026975 -0.424876 -0.199018 -0.019978 -0.084460 0.038678 -0.103869 0.356393 -0.245342 0.038697 0.638219 -0.403553 0.029381 -0.213038 0.248674 -0.176362 0.166482 0.128763 0.044436 -0.430014 -0.289240 -0.328355 0.254301 -0.295919 0.105049
scytrin -0.349106 -0.173918 -0.608696 -0.099233 0.023895 0.220259 0.066716 0.247679 -0.204625 0.107154 0.176013 0.040911 -0.121117 -0.494319 0.261024 0.294425 -0.519189 -0.038680 -0.544688 -0.121053 -0.209711 0.104089 -0.074128 0.123046 -0.445136 -0.181133 0.036054 -0.485345 -0.100720 0.185884 0.387354 -0.209345 -0.044768 -0.227329 -0.185060 -0.314451 -0.102947 -0.008766 -0.111769 0.266863 0.142598 0.116442 0.063626 -0.246152 0.192685 -0.279082 -0.068198 -0.339429 0.178492 0.157235 0.348227 0.066522 0.245306 -0.033143 -0.142286 -0.037769 -0.192937 -0.128763 -0.622281 -0.361499 0.357498 0.031626 -0.387472 0.343864 0.274083 -0.043663 -0.192082 -0.354937 0.399090 0.341649 0.293854 0.816336 0.511075 0.208247 -0.003672 0.223712 0.273971 -0.311213 -0.206700 0.029298 -0.748486 -0.359297 0.282675 -0.338559 0.015729 0.082009 0.534682 0.300565 0.282486 0.070679 0.003767 -0.119832 0.145110 0.193757 0.090559 -0.748189 -0.126434 0.481041 -0.196175 0.069051
brad 0.158782 0.015420 0.159975 0.046885 -0.110070 0.174806 0.072375 0.015137 0.713346 -0.083459 0.054601 0.079332 0.085198 -0.051632 -0.177078 -0.476183 0.123962 0.508184 0.011097 0.543950 -0.324226 0.355896 -0.146156 0.021490 -0.036526 -0.225138 -0.190985 0.400151 -0.040180 -0.304730 0.045468 -0.103069 0.439375 0.111753 -0.116184 -0.779783 -0.204070 0.025581 0.222505 0.275528 0.407021 -0.054981 0.214028 0.026458 0.141647 -0.274787 -0.563500 -0.082182 -0.312451 -0.290132 -0.364399 0.265102 0.099739 0.372284 0.119277 0.126438 -0.008724 -0.398884 -0.570712 0.072887 -0.323298 0.346743 0.035228 0.003909 -0.242150 0.480410 -0.267978 -0.277726 -0.146074 -0.090864 0.448079 0.250934 -0.010305 -0.394514 -0.385233 -0.242580 0.560595 0.356638 -0.168015 -0.097183 -0.045359 -0.658311 0.391101 0.249833 -0.079359 -0.094686 0.092676 0.415629 -0.256514 0.285433 0.400937 0.004159 -0.230922 0.291857 -0.054705 0.441784 -0.155272 0.339402 -0.137146 0.132406
chrissmari -0.218777 -0.228996 -0.397738 0.256635 -0.251120 0.462312 -0.406311 0.258412 -0.024583 0.238906 0.034101 0.228721 -0.182838 0.479278 0.168305 -0.515096 -0.137760 0.261613 0.056019 0.016908 0.123922 -0.098294 0.296114 0.118581 -0.180534 -0.568995 -0.275660 -0.308713 -0.385421 0.319462 0.127694 -0.183907 0.110468 0.318614 0.557678 0.002027 0.102693 0.369389 -0.069631 0.092056 -0.032884 -0.264131 -0.275330 0.079629 0.692380 -0.389830 0.566379 -0.116866 -0.271217 -0.274105 0.459983 0.535585 -0.181098 -0.103433 0.222583 0.316854 -0.191846 0.019911 -0.180251 -0.468981 0.027278 0.351563 0.213491 0.169726 0.375245 -0.071583 0.226675 0.136995 0.113172 -0.347795 0.217243 0.027259 -0.225069 0.077509 0.161528 0.529932 0.213649 -0.132020 0.082327 0.107928 0.500441 -0.221612 0.610125 0.178468 0.263897 -0.034412 0.145883 0.124047 0.126839 -0.505961 -0.581827 -0.396325 -0.047031 0.097704 0.065142 -0.261575 0.196849 0.284359 -0.263266 0.041822
solo-kun 0.664389 0.083992 0.047669 -0.337922 -0.055488 -0.083564 0.334295 -0.325566 0.127509 0.463123 -0.367963 -0.061539 -0.707629 -0.041184 0.160329 0.185406 0.177539 -0.046103 -0.192191 -0.118743 0.066471 0.492307 0.142770 -0.139376 0.140333 0.242674 -0.171399 -0.158939 0.259790 0.301772 -0.546849 -0.007579 0.026217 -0.284601 0.737363 -0.463275 0.174275 -0.403628 -0.064992 0.039538 0.048027 0.132264 0.101580 -0.565098 0.270219 0.061203 -0.165240 -0.111604 0.538324 0.332893 -0.078600 -0.131812 0.067154 0.207982 0.077866 0.569744 0.346584 0.100492 0.239063 0.028377 0.336767 0.687981 0.169966 0.238881 0.103503 0.182056 -0.072774 0.070589 0.106125 -0.137469 0.162356 0.149967 0.247344 -0.482107 0.081166 -0.198540 0.497921 0.304491 -0.745220 -0.143228 0.047310 0.089844 0.231261 -0.061347 -0.158562 0.409151 0.466757 0.130566 -0.374699 0.100850 0.319468 0.074077 0.154065 -0.262758 0.141726 -0.245382 0.337902 0.274732 -0.503898 -0.186389
vees 0.128207 -0.144994 -0.471326 -0.342577 0.160624 -0.295018 0.274112 0.418274 -0.343138 0.227903 0.540726 0.440743 -0.086743 0.137865 -0.232704 -0.314296 -0.294767 0.262423 0.301368 -0.212517 -0.032725 0.265726 0.313019 -0.511759 -0.641371 -0.416640 0.130379 -0.244865 -0.213033 -0.073392 -0.194649 -0.279515 0.233589 -0.529718 0.198998 -0.151994 -0.207797 0.326925 0.650160 0.180167 -0.045756 -0.373329 -0.273600 -0.168462 -0.091682 -0.515775 0.285990 -0.400667 -0.025926 -0.212796 -0.341484 -0.009268 0.365073 0.017758 0.377634 0.541938 0.357332 -0.113024 -0.536667 -0.160476 -0.321611 -0.550162 -0.133436 0.371735 0.352840 0.227233 -0.115596 -0.191602 0.248035 -0.567626 0.037288 -0.018007 0.166628 0.205864 -0.267075 -0.276918 0.344581 0.227532 0.115074 -0.479728 -0.254928 -0.170114 -0.087221 0.195900 -0.384365 0.005952 0.027786 -0.049974 -0.061653 0.123540 0.100615 0.079471 0.031682 -0.079101 0.124688 -0.241891 -0.382469 -0.202312 -0.443038 -0.099282
dykzei 0.255071 0.475712 -0.559399 0.164347 0.161361 0.251358 0.155788 -0.239702 0.001319 0.551013 -0.341407 -0.174726 0.068208 -0.136936 0.086095 -0.283533 -0.502716 -0.186866 0.115180 -0.156827 -0.179254 0.098945 0.437424 0.367068 -0.390530 -0.435307 -0.184442 -0.307303 0.064489 -0.137723 -0.308592 -0.278214 -0.190589 -0.063285 0.048261 -0.526387 -0.170650 0.402092 -0.129966 0.032747 -0.195965 -0.162157 -0.526376 -0.456570 -0.028073 -0.107022 -0.068444 -0.227840 0.045982 -0.015654 -0.049888 -0.444724 -0.162187 0.351374 -0.480427 -0.221681 -0.123914 0.357359 -0.094697 -0.122821 0.097141 0.434962 0.432239 0.524513 0.019848 0.063718 -0.142606 -0.174047 -0.544230 -0.304510 -0.082071 0.036081 -0.340877 0.041530 0.150271 0.279242 0.211424 0.312054 0.279250 0.258409 0.221546 -0.291620 0.323411 -0.812499 0.293052 0.274730 0.232234 0.310047 -0.111688 0.196515 -0.187462 0.007909 0.460242 -0.572248 0.019987 0.031905 -0.075563 0.376217 0.056740 0.069445
majorsamfan 0.143792 -0.214739 0.147498 -0.099088 -0.485000 -0.070545 0.234671 0.119908 0.056663 0.414809 -0.478709 -0.135484 -0.351760 0.121265 0.408812 -0.035865 0.090276 0.123143 -0.037686 0.577288 -0.138321 0.058900 0.464219 -0.161895 -0.283135 0.042550 -0.420042 -0.267346 0.018908 0.264887 -0.504728 0.098782 -0.241782 -0.005891 -0.009908 0.309610 0.069500 0.112177 0.252863 -0.468383 -0.004254 0.069202 0.471082 -0.142383 0.203387 -0.223585 0.087664 0.166248 -0.412705 0.204633 -0.161816 0.240240 0.176104 -0.134443 0.157014 0.472730 -0.030110 0.379683 0.088407 -0.012378 -0.374267 -0.008426 -0.080643 -0.421819 -0.521669 0.012039 -0.710248 0.229093 -0.461386 0.031584 -0.080959 0.372014 0.127086 -0.073470 0.103839 0.381206 0.126340 0.117159 0.212553 0.130426 -0.297602 0.062555 0.529030 -0.501587 0.484800 -0.128505 -0.141583 -0.005746 0.273192 -0.440233 0.614733 -0.117312 -0.507571 0.569397 0.052522 -0.019166 0.112373 0.413819 -0.517993 -0.121905
kaishen -0.156439 -0.100909 0.141627 0.010014 -0.166961 0.201824 0.090632 -0.020127 -0.211409 -0.012917 0.025871 0.292527 -0.409134 0.164489 -0.364395 -0.650753 -0.094246 0.133331 0.109944 0.612712 0.286326 -0.402759 0.065360 -0.382008 -0.163258 -0.042453 0.027090 -0.083205 -0.561118 0.330815 -0.132375 0.119569 -0.249847 0.038644 -0.276636 0.056292 -0.268363 0.173260 -0.560876 -0.149251 -0.049352 -0.285643 -0.418271 0.524366 0.610909 0.112859 -0.303767 0.598215 0.329170 -0.295887 -0.333683 -0.086637 0.226888 0.229303 -0.300768 -0.118783 0.517241 -0.195743 -0.551678 0.032915 -0.355658 0.114783 0.260933 0.586716 0.029448 0.665593 -0.096541 0.041967 -0.161193 0.008162 0.011385 -0.142284 -0.074172 -0.216296 -0.322769 0.513792 0.444571 0.309893 -0.456401 -0.009789 0.195822 -0.292732 0.600328 0.244765 -0.105783 0.164595 -0.415196 0.026421 0.112563 -0.054982 -0.123373 -0.464666 0.283512 0.310067 0.164568 0.185249 0.074660 -0.189495 -0.277330 -0.057991
aungtun 0.681862 0.077466 0.032295 0.117760 -0.182870 -0.034530 0.075835 0.103876 -0.059262 0.128555 0.053306 0.110459 -0.344392 -0.586852 -0.082105 -0.475293 -0.057473 -0.172730 -0.266018 0.613174 0.361506 0.537366 0.633790 0.162746 -0.413622 -0.285686 -0.075799 0.117128 -0.410946 0.222217 0.297698 -0.153481 0.103526 0.238806 0.234839 -0.374295 -0.367326 0.001586 -0.401756 -0.068810 0.095717 -0.263497 -0.201501 -0.510336 0.204658 -0.081450 -0.137280 -0.053960 -0.468475 0.364077 0.471268 0.029121 0.205848 -0.200262 -0.096207 0.955037 -0.182701 0.231585 -0.028672 0.182617 0.393227 -0.171517 0.083993 0.435925 -0.299258 -0.062508 0.194358 -0.404386 -0.020131 -0.379143 0.262680 0.178938 -0.373434 -0.068977 -0.099833 -0.172795 0.328418 0.177531 -0.094454 -0.018427 0.650576 -0.041648 0.244685 0.037943 -0.364619 0.510583 0.022407 0.075928 -0.344245 -0.125923 0.328759 0.143736 0.030845 0.249215 0.073214 0.124791 -0.181418 0.059674 -0.120155 0.045913
authorcynthia27 -0.361109 0.016804 0.055242 -0.205734 0.380602 0.029614 0.400025 -0.027771 0.354422 0.277793 -0.282507 -0.402303 -0.690468 -0.121202 0.329479 0.001146 -0.170565 -0.186783 0.162176 0.279056 -0.204524 0.292350 0.510393 -0.485145 0.028441 -0.443110 0.294231 0.652136 -0.478160 -0.291012 -0.392424 0.272152 0.077288 0.157704 -0.105376 -0.828573 0.009719 0.243134 -0.345355 -0.060451 0.126630 0.301490 0.588993 0.267015 0.175611 -0.505178 0.250537 -0.175076 -0.090869 -0.074315 -0.050584 0.256365 -0.200922 -0.241799 0.087918 0.152738 -0.220023 0.185294 -0.162551 -0.077687 -0.261492 0.010281 -0.167075 -0.011469 0.217574 -0.018080 -0.151448 0.043765 -0.459910 -0.366394 0.196617 0.211436 -0.081992 -0.215075 0.474660 0.335225 0.126989 -0.227571 0.134956 0.445857 -0.143526 -0.554528 0.265934 -0.071615 -0.242622 0.349203 0.174318 0.094874 -0.394776 -0.183504 0.105367 -0.239213 -0.296982 0.173807 -0.009379 0.132795 -0.105859 -0.160338 0.010081 0.007096
sparrowsmith 0.018190 -0.359671 0.170441 -0.003158 0.097943 0.080296 -0.228660 -0.039321 0.418621 -0.505560 0.018213 0.358130 -0.814349 0.331241 -0.215949 -0.536242 -0.295328 0.099033 0.043475 0.293427 0.312652 0.194184 -0.240397 -0.492737 0.243880 -0.873744 -0.032662 -0.472393 0.046369 0.013047 -0.291413 -0.063935 0.075056 0.105526 -0.410112 -0.009851 0.161189 0.136688 0.052881 -0.395985 -0.224296 0.379005 -0.035464 0.016376 -0.214973 -0.235000 0.266991 -0.401015 -0.110726 0.209035 0.100734 0.038862 0.253651 -0.026510 0.458425 0.278807 -0.508678 0.026271 0.034193 0.431204 -0.213580 0.191246 -0.315099 0.336611 -0.157912 0.269516 -0.205604 0.219924 -0.086056 -0.048682 0.105962 -0.081131 0.534300 -0.461299 -0.172673 -0.234207 0.563264 -0.429950 -0.140803 0.037820 -0.172858 -0.059839 0.370432 0.356665 0.313751 0.389486 -0.099233 -0.152190 -0.130998 -0.379422 0.332154 0.327329 0.105198 0.242153 -0.246141 0.205097 -0.018897 0.356318 -0.203591 -0.137436
ramasethu2001 0.018015 -0.247525 -0.215044 0.097798 0.002448 0.018671 0.382943 0.194013 0.336524 -0.085808 0.469890 0.392868 0.225545 0.463443 0.249845 -0.173284 -0.303566 0.032996 -0.229120 0.090646 0.269907 -0.106520 0.226052 -0.500453 0.082167 -0.177549 0.171875 0.071072 -0.680550 0.360461 -0.091919 0.016446 -0.094880 0.206829 -0.122564 -0.184334 -0.282635 0.565970 0.205852 -0.319353 0.173151 -0.226815 -0.026894 -0.272067 0.108329 0.381844 0.421782 -0.218938 0.362667 -0.074816 -0.352365 0.187090 -0.106386 -0.411890 -0.406557 0.047049 -0.179440 0.171891 0.004138 -0.347227 0.159729 0.060929 0.089558 0.464579 0.265194 -0.160950 -0.166803 0.221165 -0.538066 -0.276624 0.524227 0.048985 0.283262 -0.590868 -0.042525 -0.115260 -0.220538 -0.160960 0.416308 0.093334 0.199858 0.138985 0.403043 -0.196754 0.532498 -0.229119 0.398074 -0.002599 -0.320717 -0.103546 -0.155509 -0.085536 -0.004760 0.717758 -0.493607 -0.144336 -0.162152 0.737670 -0.119033 0.206303
onthenights 0.060000 0.157361 -0.572140 0.115616 -0.279838 0.073765 -0.070124 0.218787 0.036319 -0.000394 0.125557 0.057484 -0.270843 -0.228872 -0.365642 -0.112576 -0.329865 0.511746 0.480095 -0.192702 0.106798 0.698547 0.057665 -0.065482 -0.096612 -0.053776 0.092001 -0.032522 0.414579 0.403920 -0.402378 -0.095312 -0.221534 0.065482 0.133571 -0.702818 -0.530065 -0.112987 0.046857 0.084265 0.082305 0.559947 0.623660 0.227666 -0.149351 -0.099581 0.302442 -0.289433 0.149582 0.397321 -0.037542 -0.005618 0.391502 -0.043730 0.071799 0.177820 -0.197900 0.383138 -0.023650 -0.071736 0.352788 0.341913 0.206054 -0.021928 0.310732 0.151344 0.214316 -0.759877 0.173938 0.033931 0.119902 -0.130203 -0.029052 -0.414938 0.109597 -0.158408 0.219345 0.161629 -0.103498 -0.093077 0.351306 -0.138586 0.296848 0.190318 0.697664 -0.152863 -0.088608 -0.027825 0.127805 0.049623 0.274265 0.389859 0.058605 0.173408 -0.121120 0.266430 -0.374269 0.051509 -0.697207 -0.491070
polvostelar -0.462170 0.304675 -0.335893 0.075181 0.184941 -0.235764 0.117140 0.164713 0.360355 -0.318411 0.101651 -0.180214 -0.153064 -0.302274 -0.022876 0.155590 -0.385798 0.226899 -0.181651 0.166253 -0.033282 -0.105340 0.310938 0.224336 0.214996 -0.270314 -0.215290 -0.158106 -0.111059 0.019412 -0.033676 0.786960 -0.062154 -0.108262 0.016640 0.205062 -0.064872 -0.460092 -0.014438 0.081585 -0.042301 -0.511356 0.698865 0.404352 0.348487 -0.032004 -0.062320 -0.223185 0.057827 0.101734 0.022823 0.343279 -0.277781 0.389595 -0.102655 -0.148887 0.333146 0.367263 -0.818476 -0.228653 -0.262548 0.809139 0.206024 -0.228242 0.039061 0.392980 0.064007 -0.039039 -0.045821 0.356282 0.294970 -0.152598 0.408892 -0.670179 -0.308205 0.407865 -0.150063 -0.175598 -0.506704 0.064894 0.170149 -0.522594 0.280717 -0.303827 0.122296 0.038148 -0.020515 -0.354040 0.449869 -0.096377 0.018743 0.263872 0.209833 0.272870 0.064945 -0.182127 0.059961 -0.113663 -0.158448 -0.553559
paullev 0.493792 -0.177353 -0.352474 0.037089 0.384456 -0.022152 -0.074724 0.292416 -0.281439 0.410036 0.009520 -0.410437 -0.040643 -0.293474 -0.064535 -0.058600 -0.181204 0.281186 -0.242252 0.090626 0.166663 0.562874 -0.112086 0.081794 -0.545867 -0.029782 0.599355 -0.467612 -0.296520 0.071821 -0.052588 0.151598 -0.580142 -0.199279 0.232862 -0.391043 -0.568670 -0.590019 0.215605 -0.249931 -0.182476 -0.272816 0.573602 -0.345952 -0.016048 -0.118034 0.355395 0.030484 0.386778 -0.418808 -0.227203 0.628012 -0.030304 -0.231284 -0.577774 0.026370 0.322718 -0.046343 0.336903 0.072053 -0.502693 0.143130 0.009461 -0.016782 0.597335 0.066053 -0.359899 0.167844 0.145065 -0.093382 -0.368478 -0.345499 -0.099229 -0.214868 -0.072704 0.036757 0.217136 -0.287044 -0.134115 0.081374 0.443076 -0.340735 0.314176 -0.095210 -0.210843 -0.156232 0.079983 -0.317602 0.011159 -0.044193 0.111171 -0.266446 0.288420 -0.054857 0.108025 -0.227314 0.301649 0.093467 -0.196265 0.206848
gothicpotato -0.180140 -0.036516 -0.552145 -0.250018 0.293705 -0.277983 0.038254 -0.265363 -0.091316 0.369382 0.269895 0.080967 0.195636 -0.400532 0.110835 -0.169592 -0.268153 0.379633 -0.331921 0.662303 -0.296624 0.543701 0.557062 0.339720 -0.343886 0.532170 -0.087115 -0.573278 -0.105385 0.384774 -0.025397 0.371332 -0.273562 0.085566 0.193784 -0.208913 0.196094 0.461515 -0.099025 0.075176 -0.121565 0.054824 -0.355379 0.350186 0.499110 -0.224243 -0.046721 0.103070 0.155533 -0.231329 -0.153742 0.229383 -0.300965 -0.058688 -0.062739 0.090831 -0.194701 0.007487 -0.443464 0.268884 0.632751 0.287429 0.180112 0.222159 0.496515 -0.135057 -0.008807 0.347386 -0.101768 -0.329226 0.237195 0.336158 0.409588 0.070497 -0.313832 0.028943 -0.125299 0.192351 0.058006 0.086275 -0.127377 -0.175455 0.255580 -0.052408 -0.075521 -0.368670 -0.671341 0.431320 -0.204079 -0.262933 0.209714 0.179232 -0.324591 0.210757 0.198073 0.039240 -0.307291 0.351742 0.426617 -0.001741
davidsonpowell 0.047814 0.127678 0.441766 -0.009199 0.124505 0.375835 -0.030145 0.171647 0.156274 0.147073 -0.171410 0.048447 -0.082833 -0.104985 0.419046 0.161365 0.296105 0.260183 0.307290 0.667520 0.607381 0.498975 -0.183860 -0.145800 0.069924 -0.253161 -0.223168 -0.235584 -0.387383 0.067938 -0.443217 -0.665948 0.564234 -0.083982 -0.496850 0.165237 -0.568550 -0.261522 0.303001 -0.346976 -0.005305 -0.038564 -0.149637 0.463385 0.376561 -0.031069 -0.321383 -0.367195 0.368950 -0.116107 -0.561424 0.038736 0.001061 -0.334740 0.620427 0.080597 -0.014051 -0.174712 -0.328218 -0.325658 0.120162 0.142616 0.005577 0.166327 -0.244628 0.370208 -0.141056 0.275140 0.054099 -0.153469 0.344511 -0.068983 0.172707 0.233395 0.264011 0.036186 0.650469 -0.422757 0.177496 0.178929 0.307158 -0.524759 0.028607 0.419705 0.096010 -0.155556 0.259023 -0.061275 0.245994 -0.078920 0.272620 0.097139 0.036053 -0.190574 -0.195967 0.072699 0.150777 -0.180522 -0.320778 -0.055161
jacabur2008 0.016005 0.647560 0.541519 0.195072 0.343740 -0.377014 0.326289 -0.013939 0.173971 0.015868 -0.357404 0.024399 0.067348 -0.142912 -0.140214 0.006543 0.087147 0.193336 -0.146973 -0.283440 -0.239097 0.209680 0.061359 -0.099133 -0.457801 0.074035 0.254196 0.290597 -0.185520 0.035211 0.211172 0.166141 -0.125206 0.432483 -0.135931 -0.141185 -0.175477 0.177054 0.001187 -0.250405 -0.125234 -0.255758 -0.101273 -0.025906 0.291128 -0.379958 -0.369335 0.014458 0.595518 -0.001895 0.362995 0.576689 0.729679 -0.354437 0.063267 -0.008954 -0.304993 0.447403 -0.406690 -0.465194 -0.093770 0.141233 0.521775 0.291146 -0.240380 -0.024067 -0.251800 -0.038703 -0.311613 0.010878 0.485137 0.415206 0.043052 0.155214 0.166237 0.179623 -0.139056 -0.055412 -0.133259 0.674572 -0.233606 -0.089504 0.576310 0.165444 0.073596 -0.454144 0.175082 -0.289510 -0.227926 0.064946 0.315508 0.256112 0.226568 0.295317 0.234756 0.245788 -0.604321 0.260279 0.070551 0.276863
phwp 0.047884 -0.306531 -0.151790 -0.080928 -0.249860 0.164381 0.050252 0.052550 0.046907 0.370243 0.259456 -0.152614 -0.393150 0.172082 -0.298920 0.225018 -0.079231 0.377784 0.343149 -0.503454 -0.157024 0.253130 0.171380 0.155422 0.243619 -0.012933 -0.225095 0.100094 0.273206 -0.352604 0.080414 0.443384 0.256116 -0.733217 -0.146458 -0.334369 -0.491860 -0.225554 0.022252 -0.126233 -0.098421 0.112787 -0.106753 0.384524 0.582013 0.006331 -0.165331 -0.049233 0.254229 -0.141060 0.564272 0.141755 0.293918 0.075481 -0.601241 0.291026 0.098464 0.409438 -0.426760 -0.346968 0.240786 0.498787 -0.173377 0.246903 -0.352379 0.548719 0.034629 -0.278730 -0.052834 -0.004381 0.115874 0.013195 0.254516 -0.211108 0.290729 0.039851 0.134643 -0.062745 0.593702 0.468667 -0.698085 -0.353061 0.360191 -0.078911 0.178244 0.226443 -0.060505 0.086192 -0.170463 -0.006086 0.615189 -0.042145 0.425588 0.046847 0.043274 -0.185573 0.320390 0.101084 -0.362864 -0.087318
stayhealthier -0.141090 -0.320236 -0.042118 -0.319588 0.250630 0.172418 -0.085471 -0.072623 -0.149122 0.686614 0.280241 -0.115259 -0.299590 -0.270970 -0.109197 -0.000425 -0.169490 -0.093550 -0.217912 0.363844 0.096418 0.256307 0.043782 0.377819 0.135448 -0.322433 -0.425809 0.232690 -0.508445 0.088419 -0.316283 0.102919 0.012710 -0.141525 0.444781 0.305217 -0.275163 0.272406 -0.134806 0.495630 0.043010 0.024377 0.671325 0.044273 0.245056 0.621903 0.013835 -0.421918 0.197781 0.107233 -0.212370 0.157735 0.209729 -0.163232 -0.249950 0.626333 0.140679 -0.126747 0.030970 -0.484908 0.074457 0.074532 0.010001 0.682863 -0.189811 0.192377 0.260510 0.037409 -0.381289 -0.415121 -0.138286 0.388969 0.237702 0.194399 0.453795 -0.586910 0.342792 0.124935 -0.052286 0.534429 -0.081782 -0.415323 0.386989 -0.034440 0.282082 -0.081348 0.098444 -0.097349 -0.300191 0.014987 -0.071024 -0.131117 0.230430 0.506385 0.031714 -0.582067 0.028140 0.247952 -0.258106 0.076166
emilcohen -0.464928 -0.564961 -0.247941 0.294565 -0.180459 0.211198 0.121789 -0.131965 0.124232 0.180182 -0.222106 0.451267 0.185958 -0.180796 0.287057 0.254295 -0.310198 0.730978 -0.181105 0.451027 -0.015436 -0.395289 -0.192295 0.428580 0.335101 -0.428589 -0.319039 -0.133820 -0.476419 0.330123 -0.009623 0.101227 -0.077836 0.091482 0.604659 -0.361484 -0.258187 -0.005408 0.355021 0.237307 0.104631 0.159057 0.423252 -0.324842 0.320239 -0.268788 0.111581 -0.047126 0.150932 -0.201953 0.093422 -0.390901 -0.140037 -0.339719 0.353954 0.130051 0.055422 0.536278 -0.626598 0.097028 -0.461482 -0.146218 0.004989 0.121276 0.095339 -0.001273 0.063273 0.368800 0.247011 -0.132005 0.721876 0.467714 -0.201662 -0.146157 0.163316 -0.096082 0.064401 0.379033 -0.312810 -0.065892 -0.096016 -0.357282 -0.032043 -0.005008 -0.400315 -0.640175 -0.118077 -0.001364 0.146066 -0.137867 -0.053957 0.115520 0.363155 -0.156816 -0.040403 0.124911 -0.241459 0.089058 -0.131374 0.005563
jivod -0.060177 0.013367 -0.468964 0.014749 0.196774 0.126296 0.016339 0.072253 0.089000 0.093053 -0.586130 -0.184149 0.455040 -0.311746 -0.195774 -0.145491 -0.043252 -0.312044 -0.107456 0.154467 0.533567 0.113350 0.350770 -0.029090 -0.750453 -0.367852 -0.197053 -0.173921 0.144600 0.179356 0.218420 0.012566 0.233023 0.057578 0.266030 -0.507235 -0.553266 0.105032 0.110642 0.107862 -0.234842 0.025965 0.442972 0.577509 0.289586 -0.363326 -0.193972 -0.259273 0.192346 -0.102881 -0.253130 -0.334451 0.069541 -0.027266 -0.218676 0.247072 0.032786 0.485937 -0.004796 -0.228216 0.080898 0.327128 0.177244 0.215027 0.143399 0.502331 0.345326 0.464069 -0.323785 -0.082947 0.252951 0.554665 0.073139 -0.003307 0.034134 -0.132086 0.238642 -0.762338 0.316735 -0.209550 0.506843 0.581403 0.131321 0.097943 0.103834 0.239499 -0.158637 0.259858 -0.042498 -0.323915 -0.039284 -0.485435 -0.212066 -0.267744 -0.356401 -0.023278 0.274215 -0.120429 -0.043419 0.612611
myrashkin 0.393467 0.075352 0.145851 0.112721 0.056202 0.012042 -0.026028 0.183072 -0.233184 -0.032146 0.008146 0.125684 -0.542449 -0.005876 0.389684 0.248617 -0.484133 0.283896 0.126508 -0.020464 0.278399 0.173420 0.265474 0.411480 -0.332752 -0.280007 -0.448706 -0.469975 -0.138588 0.161236 0.189100 0.349486 -0.350908 -0.018114 0.378335 0.355931 0.089441 -0.296530 0.567409 0.131434 -0.243067 0.405584 -0.569602 -0.163715 0.454702 -0.375820 0.141938 -0.039747 0.251585 0.549843 -0.065643 -0.039472 -0.148462 -0.222544 0.387506 0.473556 -0.448796 0.123277 -0.309150 -0.137954 0.069344 -0.382924 0.344128 -0.020229 0.596549 0.404235 -0.253056 0.068448 0.009374 0.247775 0.065701 0.096533 -0.015671 0.010079 -0.003191 0.132932 0.229696 -0.200196 0.242566 0.352135 -0.164372 -0.530084 0.546173 -0.067069 -0.092579 -0.364931 0.161320 -0.037854 0.196867 -0.147656 -0.378484 -0.039703 0.095934 -0.140997 -0.105494 -0.018394 0.913613 0.168900 -0.271000 -0.570443
ashisaboy 0.595975 0.372894 -0.267331 -0.189420 -0.355176 -0.032039 -0.119223 0.048192 0.189867 -0.112259 -0.118581 -0.050104 -0.111181 0.237839 -0.233870 -0.276655 -0.027636 -0.095184 -0.050536 0.142549 0.598994 -0.186664 -0.558372 0.208547 -0.219545 -0.594672 0.315066 0.180140 0.603453 0.245107 -0.155803 0.178673 -0.489188 -0.115761 -0.158865 -0.611370 -0.467447 0.515767 -0.275018 -0.399144 -0.351578 0.158818 -0.280314 0.034253 0.191839 -0.078369 0.084240 0.082235 -0.130061 -0.350941 -0.493148 0.345651 0.398148 -0.109994 0.202516 -0.356671 -0.328869 -0.437910 -0.339211 -0.154715 0.295205 0.258270 -0.075459 -0.438193 0.439539 0.168817 -0.051457 -0.012250 -0.595609 -0.538307 -0.062681 0.155092 -0.248501 0.049916 -0.460155 0.311200 -0.056347 0.109109 0.258290 0.008741 -0.143696 0.035764 0.191371 -0.120735 0.229935 -0.491171 0.054491 -0.208168 -0.205718 0.122501 0.353237 -0.238745 0.193789 0.067336 -0.275095 -0.206864 0.118979 0.069700 -0.164794 0.100246
clubloungeradio -0.146329 -0.132346 -0.347526 0.498681 -0.080530 0.028716 -0.094998 0.185158 -0.493297 0.460052 0.149943 0.036632 -0.289033 0.166502 -0.216008 0.138946 -0.408744 -0.110732 -0.032272 -0.569101 0.063853 0.925051 -0.176893 -0.154755 -0.250552 0.206569 0.110098 0.221289 -0.582395 0.373611 -0.365252 -0.332265 -0.134406 -0.202230 0.147862 -0.265881 0.067981 0.169535 -0.094633 0.075547 0.416410 0.132202 0.092754 0.280186 0.475047 0.249354 -0.102553 0.100593 -0.322789 0.129044 -0.360618 0.072459 0.246643 0.237895 -0.089564 -0.002277 -0.421685 -0.114074 -0.150934 -0.317150 -0.040370 -0.009527 -0.023352 0.449771 0.358286 -0.362160 -0.029412 0.074661 -0.188243 0.260051 0.085531 -0.064881 0.057090 -0.817331 -0.463666 0.322136 0.098043 -0.130976 0.503321 -0.391720 0.160980 0.070799 0.239848 -0.355689 0.066548 0.054664 -0.541822 -0.365692 0.089147 -0.354339 0.387214 -0.363501 0.224665 0.496371 0.355098 0.032747 0.191136 0.453266 -0.338967 -0.109041
daneke 0.070887 0.100384 -0.399083 -0.088794 0.474606 -0.075155 0.352958 0.299616 0.376802 -0.067128 0.486752 0.300009 -0.786568 0.019942 -0.361627 -0.253577 -0.567638 0.407505 -0.113211 -0.168216 0.674303 0.374710 -0.177398 -0.506073 0.148584 -0.514190 -0.172429 0.518618 0.152046 0.251133 -0.227635 0.233872 0.068438 0.127555 0.354884 -0.028790 -0.649000 -0.113053 0.085562 0.348696 -0.046723 -0.152131 -0.038295 0.088904 -0.082864 0.141842 0.001733 0.100445 0.408802 0.331860 -0.075382 0.138234 0.279383 -0.131391 0.395519 -0.095665 -0.245302 0.124822 0.262214 0.099140 0.335692 -0.097368 -0.090633 0.283081 0.036798 -0.302605 0.042586 0.516993 -0.278809 -0.215475 0.343934 0.339911 0.596642 0.311679 -0.388607 0.052263 0.130427 -0.074088 0.056186 -0.181300 0.278394 0.030786 -0.158464 -0.259086 0.178078 0.327626 -0.365115 0.023516 0.080086 0.410767 0.092953 -0.157268 0.478316 0.163672 0.016861 0.134491 0.468986 0.029018 0.158187 -0.267460
amirkhan59 -0.392512 0.027351 -0.544288 -0.071699 0.031405 -0.114697 -0.292781 -0.227999 0.695237 0.274106 -0.282632 -0.138727 -0.179654 0.093055 -0.553733 0.096696 -0.325514 0.012910 0.059063 0.146641 -0.201223 0.165657 -0.543365 0.159218 -0.152845 -0.725462 0.117751 -0.484376 -0.441109 0.045498 -0.011322 0.289049 0.142996 0.092817 0.029689 -0.155910 0.084621 -0.127702 0.373131 -0.552525 -0.190669 -0.640834 -0.011722 -0.173050 -0.409375 -0.252314 -0.006462 -0.345470 0.250100 -0.620168 -0.110612 -0.032991 0.193474 -0.091962 0.114792 0.083652 0.688963 0.254075 -0.012468 -0.262797 0.207799 0.023834 0.303922 0.095293 -0.527820 0.453290 0.143865 0.331689 0.082091 -0.263646 0.474373 0.156935 0.228974 0.178923 -0.153581 0.074361 0.110130 0.087698 0.321175 0.022509 -0.142869 -0.098266 0.514852 -0.041772 -0.021922 0.298389 -0.044999 0.227783 -0.023170 -0.244158 -0.350523 -0.141973 -0.150110 -0.298726 -0.148454 0.461444 0.258122 0.239387 0.099820 0.249897
mikefavata 0.133715 -0.143294 0.067295 -0.257258 0.448988 -0.093614 -0.134524 0.107187 0.057389 0.068626 -0.102657 -0.020336 0.010007 0.190467 0.505511 0.509339 0.099994 -0.035584 0.656442 -0.209473 -0.304437 0.172246 0.667018 0.115560 0.017396 -0.090280 0.132303 0.047237 -0.483024 -0.075514 -0.167823 -0.046959 -0.119267 0.081447 0.245124 -0.369226 -0.516386 0.013169 -0.003862 -0.327690 0.178755 0.301933 0.111793 0.150163 0.660609 -0.304168 -0.298184 0.502896 0.135425 0.035855 0.053627 0.023175 0.168951 -0.090668 -0.244740 0.331914 0.230744 0.076421 -0.100880 0.195958 0.338405 0.365259 0.456593 -0.153537 -0.206190 0.585119 0.701671 0.277746 0.081407 0.097902 0.133831 0.606060 0.262601 0.225608 -0.000916 -0.162633 -0.129006 0.330459 -0.130517 -0.648420 0.760073 -0.333666 0.129238 -0.201383 -0.575894 0.117673 -0.166480 -0.260732 0.340000 0.080090 0.142995 0.122495 -0.088898 -0.487193 -0.218956 -0.003382 0.198490 0.244677 -0.512662 0.198581
tiffanie5366 -0.175010 -0.149699 0.152333 0.206084 -0.079984 -0.169605 -0.022622 0.050981 0.316693 0.274264 0.604908 -0.588039 0.275148 0.126811 0.176358 -0.333088 -0.177424 0.304098 0.405377 0.741144 0.102538 0.422650 0.308582 -0.297860 -0.152356 -0.195515 -0.205895 -0.344063 -0.445386 -0.450840 -0.355559 0.480221 0.415662 0.170836 0.279253 -0.051245 -0.261517 -0.501807 0.238580 0.329653 0.362698 0.124249 0.120723 -0.328156 0.244195 -0.222139 -0.542614 0.260431 0.026581 0.497216 -0.174318 0.179548 0.228167 0.076517 0.085478 -0.043466 0.115725 0.312871 0.102234 -0.486613 0.117323 -0.293485 -0.028259 -0.108192 -0.002170 0.723270 0.166279 0.208237 0.313786 -0.597674 -0.054232 0.113496 -0.030793 0.169752 0.086387 0.161175 -0.036894 -0.615133 0.091768 0.003419 -0.113578 -0.089183 0.208654 -0.238825 -0.141947 0.013090 -0.416543 -0.007437 -0.102517 0.271754 -0.311799 -0.080636 -0.405144 0.568287 0.214452 0.172774 0.113238 0.703846 -0.075519 -0.472918
aigooism 0.045658 -0.057080 -0.086237 0.255556 0.084655 0.067441 -0.321322 -0.065370 0.316566 0.071436 0.083590 -0.050515 -0.523657 -0.351084 -0.272766 0.175708 0.092030 0.165977 0.078020 -0.321113 -0.166993 -0.257361 0.329624 -0.041498 -0.629302 -0.299203 -0.353535 -0.178890 0.258688 0.048108 -0.624538 0.160898 -0.186326 -0.039158 0.163413 -0.002436 -0.545999 0.187963 -0.054459 -0.311612 -0.065421 0.105326 0.030655 0.192024 -0.424970 -0.914000 0.251633 -0.168329 0.311148 -0.144965 -0.303410 0.183733 -0.239966 0.460793 0.114092 -0.024954 0.701322 0.136048 -0.812955 0.359199 0.016062 0.128252 -0.412611 -0.116539 -0.042531 0.032394 -0.200548 0.280550 -0.544495 -0.075483 0.394038 -0.350684 0.355859 0.007185 -0.288812 0.543050 0.173516 -0.017083 -0.267540 0.035454 0.074295 0.122812 -0.259237 0.007052 -0.418853 -0.383468 -0.082268 -0.125119 -0.391776 -0.392213 0.509145 -0.097264 0.160414 0.004692 -0.176510 -0.352192 0.333000 0.181475 0.383004 -0.385196
rivescpa -0.099034 -0.342524 -0.181330 0.072765 -0.288189 0.299278 0.192081 -0.223279 -0.538193 -0.387253 0.316725 -0.130938 -0.306357 -0.098680 -0.340838 0.233270 0.195285 -0.672607 0.600145 0.363593 0.423239 0.504580 -0.084507 -0.190979 0.182965 0.166369 -0.258195 -0.615161 -0.328159 0.023886 -0.169110 0.189595 -0.202463 0.318299 0.562848 -0.044756 -0.118120 0.195469 -0.296900 0.058377 0.156118 -0.218433 0.113973 -0.284836 -0.039353 -0.290918 -0.016214 0.006384 0.015000 -0.466811 -0.220380 0.424615 0.077095 -0.484324 0.387610 0.173812 0.044491 0.293199 -0.188832 -0.139717 -0.422009 0.594102 -0.463626 -0.086238 0.411406 0.244618 0.348591 0.665343 -0.051594 0.156322 0.462443 0.042481 0.120998 -0.189749 0.133230 -0.175603 -0.196310 -0.132879 0.032014 -0.115296 0.233865 -0.157409 0.177974 0.138333 -0.270079 -0.089674 0.198957 -0.028142 -0.292760 -0.065509 -0.101483 0.187034 -0.469717 0.269974 0.042727 0.211975 -0.428117 0.276139 -0.676949 0.317176
nathanchase 0.145815 0.095229 -0.558169 -0.055587 -0.154687 -0.144950 0.236213 0.297451 0.348632 -0.074615 -0.089978 0.158620 -0.062829 -0.069542 -0.221760 -0.020187 -0.322380 0.210845 0.237364 0.262913 -0.346816 -0.451120 0.072308 0.483550 -0.193673 -0.178810 -0.207031 -0.154303 0.183556 -0.109537 -0.122834 -0.197186 -0.777069 0.289963 -0.182144 -0.442518 -0.399823 0.020710 0.330072 -0.603232 0.365490 -0.227624 -0.096133 -0.247392 0.113948 0.216621 -0.515862 -0.233446 0.114058 -0.387595 0.174538 0.206274 0.500112 -0.044206 -0.085042 0.263023 -0.015788 -0.103792 -0.342642 -0.201729 0.226986 -0.020058 -0.254926 0.414409 -0.214893 -0.435280 0.565877 0.741778 -0.456097 -0.112807 -0.203817 -0.399912 -0.416490 -0.409278 0.228715 0.470658 0.246310 -0.189578 -0.368598 0.100202 -0.017874 -0.293131 0.260978 -0.469851 -0.354421 0.185174 0.177765 0.009872 -0.133078 0.182542 -0.262549 0.007258 0.491249 0.465727 -0.274439 0.237931 -0.231735 0.107214 0.177403 -0.436083
nopolitica 0.011658 -0.749630 -0.367125 -0.543269 -0.576760 -0.356046 0.213560 0.295392 -0.256349 -0.182796 0.149563 0.318787 -0.310993 0.141210 -0.126986 -0.394308 0.457657 -0.234985 0.007700 0.186631 -0.128564 -0.053558 -0.269643 0.065301 0.276345 0.009010 -0.089974 -0.311408 -0.484927 0.195747 0.138935 -0.241883 -0.072855 0.228954 0.354215 -0.621121 -0.336666 -0.014903 0.152730 -0.233854 -0.130207 -0.110895 0.137817 -0.231162 -0.035253 -0.864451 -0.308212 -0.340012 0.026243 0.357518 0.119177 0.087349 0.061237 0.060652 -0.233179 0.081494 0.270745 -0.417843 0.030190 -0.340327 0.188464 0.455870 -0.252249 0.196135 0.165843 -0.402657 0.036974 -0.026706 -0.078973 0.131482 -0.082026 0.196559 -0.159339 0.185046 -0.071215 0.518862 -0.500847 -0.301825 -0.116101 0.653057 0.515790 -0.440793 0.134490 -0.091934 -0.258773 -0.120423 -0.499362 0.106128 -0.033933 0.343879 0.383096 -0.248971 0.293471 0.212142 -0.206938 0.175972 0.165351 -0.216097 -0.055926 -0.012858
lordnikonx 0.368675 0.036993 0.818953 -0.075323 0.476145 0.201365 0.217716 0.506084 -0.444981 0.362323 -0.449316 0.111924 0.036764 0.158875 0.097059 -0.351317 -0.408417 -0.315872 -0.263445 0.162949 0.407102 0.462206 0.251692 -0.074835 -0.195811 0.002356 -0.006206 -0.042520 0.058372 0.506764 -0.384921 -0.203401 -0.084685 0.094229 0.367050 0.013331 -0.231739 0.169139 0.064485 0.327723 0.591079 0.139344 -0.298314 -0.347437 -0.218906 -0.282179 0.383817 -0.233497 0.321129 -0.107383 -0.193742 0.077849 0.026282 0.072958 -0.012647 -0.423430 0.493522 -0.462896 -0.561229 -0.200079 -0.225863 0.375135 0.145542 -0.358462 -0.283730 0.111362 0.026976 0.121451 0.076437 -0.413088 0.252852 -0.007791 0.034656 0.251803 0.002052 0.330887 0.495938 -0.060478 0.218137 -0.368029 -0.157877 0.116752 0.318754 -0.111707 -0.016587 0.511981 -0.201528 -0.476470 -0.249930 -0.197856 -0.301018 0.158281 0.202034 0.080992 -0.109616 0.503869 -0.264400 0.414906 -0.419395 -0.483181
handipets -0.083140 0.030998 -0.203803 -0.083927 0.494120 0.219538 -0.105163 0.236906 0.347487 -0.057887 0.347481 -0.161740 -0.058750 -0.170677 -0.173457 0.161514 -0.616407 0.445341 0.220375 -0.478514 -0.341184 0.488500 0.240917 0.187907 0.135697 -0.068344 -0.097746 -0.038979 -0.690627 0.339309 -0.451200 -0.225870 0.131167 0.349531 -0.358114 -0.146952 -0.243034 0.308366 0.006697 -0.059583 -0.271817 0.099154 -0.400838 -0.457318 -0.571425 -0.107363 -0.158910 0.469104 0.136632 -0.149252 0.085825 0.643837 -0.116246 -0.319348 0.074971 -0.002478 0.480655 0.195013 -0.004908 -0.217311 0.154983 0.624226 0.173001 -0.015002 0.102954 -0.076046 0.120570 0.149911 -0.030643 -0.143652 -0.142680 0.156053 0.049711 0.183183 0.004516 -0.094992 0.518226 -0.718192 0.144773 0.156016 0.434028 -0.007732 0.111943 0.041746 -0.324915 -0.223475 -0.182251 -0.409173 -0.058598 0.010321 0.399963 0.113775 0.420645 -0.058522 0.427158 -0.173091 -0.440261 0.419828 -0.456085 -0.256806
jackkrane 0.141643 -0.403849 -0.139565 0.115120 -0.393135 -0.243562 0.362134 -0.105077 0.384146 0.434912 0.068095 0.212021 -0.020221 0.000086 -0.115798 0.177142 0.226798 -0.094711 0.403873 0.016930 -0.049676 0.424954 0.044692 0.406287 0.048884 -0.107020 0.221161 -0.508418 -0.512389 0.479483 0.235284 0.063985 -0.200599 0.252661 -0.610110 -0.608059 0.016931 -0.015567 -0.214007 0.159892 0.201892 -0.262181 0.301737 0.141392 -0.275339 -0.418182 0.587147 -0.370906 0.178269 0.142310 0.132846 -0.521042 0.136168 -0.355660 0.261309 0.279343 -0.057058 0.399660 -0.336646 -0.604595 -0.019554 -0.250802 0.007313 0.112695 -0.117167 -0.275684 0.132441 0.377475 -0.618842 0.058455 -0.207100 -0.060134 -0.047903 -0.334725 0.158399 0.049816 0.065564 -0.231915 -0.500226 -0.315798 0.232248 -0.101240 0.723080 -0.030529 -0.034727 0.043699 0.141546 0.379982 -0.189522 0.022276 0.413933 -0.231297 0.247844 -0.442592 -0.016040 0.046677 -0.385984 0.139665 -0.272100 0.227804
seducedmind 0.156680 -0.209398 -0.359166 0.079572 -0.086043 -0.132366 -0.235063 -0.317379 -0.017436 0.194924 -0.160612 0.240276 -0.057027 0.363433 -0.243064 0.184895 -0.418919 -0.269270 -0.325586 0.568796 0.470670 0.211960 0.280058 0.026189 0.041632 0.084106 -0.324873 -0.216198 -0.478639 0.333783 -0.019335 -0.198461 -0.480062 -0.692279 0.144763 -0.421160 -0.043648 -0.418299 0.172125 0.358237 0.534260 -0.236101 0.258464 0.063261 -0.102299 -0.379232 0.021335 0.003125 0.165706 0.782082 -0.412926 -0.034504 0.356370 0.577237 -0.447251 -0.126009 0.058999 0.163694 -0.544930 0.151281 0.261874 0.021289 -0.081390 -0.257630 -0.050822 0.405818 -0.044116 -0.182636 -0.326457 0.013864 -0.331940 -0.334698 0.194106 0.343080 -0.363995 0.212952 0.009720 0.037045 0.415297 0.188427 0.083672 -0.313477 0.135123 0.375194 0.072611 -0.065575 0.180184 -0.309439 -0.118594 0.127332 -0.375082 0.276448 -0.385246 0.239657 -0.074172 -0.144653 0.199813 0.595102 0.502808 0.143559
thuglifenvic -0.275538 -0.267565 -0.046472 0.208598 -0.295137 -0.019096 0.175869 0.501911 -0.358295 -0.033094 0.410492 0.053445 -0.245620 -0.339330 0.374202 -0.041549 0.042155 -0.178667 -0.230208 0.182817 -0.285122 0.498720 -0.105005 0.107302 0.210546 -0.171454 0.099335 0.044150 -0.482657 0.224249 -0.457157 0.117257 -0.349974 -0.385743 -0.070136 0.682011 -0.203902 -0.141164 -0.017651 0.069943 0.348190 0.126015 -0.403603 -0.050430 -0.006499 -0.251913 0.490723 0.359169 0.276789 -0.047294 -0.447831 0.403040 0.545862 -0.094231 0.026680 -0.115959 0.238689 0.630063 -0.362509 0.207089 0.425260 0.056431 0.060015 0.157154 0.053457 -0.022179 0.566934 0.345790 -0.371845 -0.346453 -0.204633 0.540779 0.333889 0.257526 -0.379758 0.781797 0.043757 0.217628 -0.463485 0.352335 -0.195884 -0.126960 0.079531 0.030368 -0.293516 0.243554 -0.165615 -0.050923 0.400407 0.144107 0.582350 -0.057204 0.040554 -0.177507 -0.085213 0.427552 -0.378698 0.098357 0.219642 -0.153202
oi-skin 0.052038 -0.575923 0.017851 0.402069 0.351328 -0.032588 -0.509175 -0.593831 0.262768 0.168901 -0.161234 0.429095 0.250011 0.053917 0.070479 -0.137622 -0.556345 -0.343827 0.264132 0.187273 0.542340 0.080614 -0.123629 0.205617 -0.186127 0.304089 -0.571407 0.039517 0.434729 -0.196766 -0.254603 0.029752 0.172776 -0.474313 0.036957 -0.245987 -0.679542 -0.005859 -0.219911 0.190991 -0.215487 0.286453 -0.461620 -0.026015 -0.216603 -0.248481 0.265965 -0.206223 0.472432 -0.014872 0.131282 0.175741 0.742688 -0.283208 0.163500 0.551393 0.102894 0.382544 -0.161917 -0.227032 -0.320190 0.221976 0.137435 0.185540 0.117046 0.052541 -0.263988 0.907965 0.028340 0.155066 0.106411 -0.118743 -0.049102 0.074221 -0.142240 0.414368 0.075258 -0.019467 -0.041780 -0.020855 0.188155 -0.320154 -0.005163 -0.038203 0.006929 0.096056 -0.379508 -0.435321 0.256621 0.082128 0.256025 -0.362725 -0.180617 0.167978 0.148160 -0.207575 -0.552491 0.224836 -0.061891 0.076999
claudishqu11 -0.336610 -0.240205 -0.245525 0.250237 -0.140392 -0.458647 0.049899 0.156256 0.042694 0.076801 -0.491468 0.018178 -0.316507 -0.029207 0.202464 -0.305085 0.133736 0.198179 0.137140 0.075885 0.313971 0.344149 -0.232986 0.238287 0.017517 0.164962 -0.623522 0.157014 0.328388 0.113936 -0.118838 0.444410 -0.027258 0.611868 0.065641 -0.317747 -0.228699 -0.516191 0.413076 0.295645 -0.187927 -0.176622 0.128166 0.168767 0.418647 0.132670 0.147179 -0.085796 -0.079701 0.278563 -0.159128 0.810881 0.046312 0.014566 0.645581 0.314087 0.259458 0.158686 -0.504668 0.066416 0.184742 -0.290184 -0.038842 -0.151491 0.252050 0.259066 0.067719 0.604501 -0.161102 0.049761 -0.171149 0.116540 0.373812 -0.408712 0.200068 -0.350994 0.255795 0.235838 0.100464 0.183506 -0.103853 -0.107582 0.179487 0.234946 -0.020535 -0.069344 -0.456840 -0.222863 -0.047008 -0.286761 0.133595 0.668391 0.289234 0.444715 -0.204593 -0.063311 0.350399 0.398750 -0.051783 0.129254
ladycirce 0.388834 0.378372 0.111102 0.131442 0.345745 -0.522471 -0.150842 -0.607901 -0.240993 0.302420 -0.012896 0.208048 -0.530836 0.061301 0.034279 -0.078030 -0.155896 -0.332593 0.042786 0.195441 -0.333826 -0.214330 -0.034096 0.107728 0.201503 -0.210073 0.168419 -0.140483 -0.289187 -0.091105 -0.051243 -0.059714 0.115283 0.085043 0.161126 -0.160273 -0.564648 -0.153245 0.006383 -0.491279 -0.505503 0.217686 -0.057139 0.096487 0.164578 -0.275427 -0.342652 0.245363 -0.402808 0.007373 -0.345235 -0.125834 0.634842 -0.188405 -0.623187 0.110103 -0.570893 0.103440 -0.679529 0.183518 -0.021903 0.139255 0.013001 -0.083600 0.057698 0.429512 0.286976 0.286124 -0.338124 -0.192943 -0.059279 0.516699 -0.254726 -0.244260 -0.290310 0.206123 -0.105932 -0.499025 -0.156336 0.567614 0.314138 0.087390 -0.066181 -0.115122 -0.005545 -0.326803 -0.242483 -0.119796 -0.581663 -0.167957 -0.100794 -0.152951 -0.216296 0.105786 -0.436992 -0.211874 -0.486409 0.415851 0.011740 -0.374513
veramarina -0.103375 0.640045 0.196032 0.204614 0.495291 -0.010081 -0.599167 0.469063 0.146282 0.057802 -0.107623 -0.137394 0.150975 0.473817 0.232347 0.050407 0.137074 0.537378 0.125979 0.352518 -0.067529 0.338263 -0.052619 0.160452 -0.120567 -0.246457 -0.079593 -0.256244 -0.100007 -0.127294 -0.315735 -0.102553 -0.422590 0.029391 0.041306 0.120954 -0.228527 0.204492 0.145622 -0.003936 -0.099642 0.418191 0.116531 -0.209643 0.321518 0.170480 0.032905 -0.346205 -0.155046 -0.167062 -0.071836 -0.082881 0.354302 -0.142140 -0.222125 0.629603 0.341037 0.499184 -0.567607 -0.189802 0.296763 0.426161 0.117914 0.246334 -0.272069 0.000550 0.520879 0.041537 0.079085 0.086841 0.100002 0.137968 0.077283 0.247505 0.110206 0.434300 0.215574 0.169471 0.236831 -0.384439 -0.279517 -0.438142 0.481620 -0.026643 0.235152 -0.364910 0.337784 -0.687116 -0.205290 -0.032777 0.719526 -0.400893 -0.114264 0.216839 0.383215 0.146601 -0.272227 -0.040379 0.067390 0.433171
beatnikbetty 0.240020 -0.064882 -0.088658 0.242681 0.131932 0.082839 0.494327 -0.126801 0.093438 0.006043 0.349111 -0.112422 -0.126916 -0.408248 0.180882 -0.343669 -0.053615 -0.101914 -0.268747 0.192683 -0.064727 0.293625 0.252577 0.334243 -0.575195 -0.253742 0.034078 -0.234418 -0.408649 -0.398819 0.053893 -0.023384 -0.669722 -0.230342 -0.263005 -0.254853 -0.393072 0.152723 0.363984 0.374774 0.755780 0.539588 -0.158906 0.519386 -0.127029 -0.325543 0.256450 0.126844 -0.110215 -0.647631 0.798888 0.286671 -0.179980 -0.232599 0.074913 -0.022177 0.201395 0.592616 -0.588158 -0.362171 0.094351 0.114935 0.112931 -0.033870 -0.134243 -0.037959 -0.106034 0.291273 -0.363629 0.125019 0.099518 -0.012090 0.180579 -0.124209 -0.175262 -0.223859 -0.141955 -0.216716 -0.298946 -0.310985 -0.036253 0.222029 0.713653 -0.056167 -0.334089 0.007172 -0.291229 -0.269777 0.005170 -0.033958 -0.071516 -0.006120 -0.224358 0.079804 0.053139 0.075220 0.341794 0.282012 0.087753 0.381102
applgreenicecrm -0.105995 -0.111656 -0.377715 -0.185991 -0.010389 -0.010338 0.011837 -0.088634 -0.114983 0.542385 -0.307738 0.143484 -0.433967 0.309286 0.252076 0.322685 0.099201 -0.137937 0.257183 0.014682 -0.000768 0.127205 0.062016 -0.006110 -0.389326 -0.083342 -0.433296 -0.173398 -0.011993 -0.230698 0.110125 -0.028698 -0.529115 -0.069268 -0.017015 -0.820071 -0.442812 -0.468845 0.070529 -0.059641 -0.060305 0.284796 0.021584 0.506606 0.004293 -0.260980 0.290417 0.307510 -0.071365 -0.009457 0.214836 -0.028329 0.512853 -0.030053 0.019398 0.130588 -0.196895 0.140602 -0.748176 0.013151 0.031611 0.113211 -0.216309 0.219521 -0.090113 -0.567759 0.166123 -0.614229 -0.197288 0.017398 0.246037 -0.046292 0.251898 -0.659224 -0.109134 -0.075186 0.256510 -0.584906 -0.131175 0.417193 0.297795 0.286266 0.425049 -0.038770 0.753905 0.115048 0.201015 -0.205372 0.385497 0.313968 -0.237137 -0.032483 0.107219 -0.187196 -0.078833 0.175038 0.044539 0.019740 -0.230642 0.444844
kslokesh -0.367195 -0.096545 -0.196395 -0.218689 -0.027212 -0.180778 0.674352 0.618252 -0.049048 0.133787 0.393016 -0.183182 -0.202307 -0.480332 -0.136252 -0.380007 -0.188756 0.131130 0.341875 0.322960 -0.012631 0.214813 -0.557254 0.134805 -0.725878 -0.089624 0.301745 0.045547 -0.273633 -0.046162 -0.285414 -0.297712 -0.017110 -0.063358 -0.240597 -0.498582 -0.152962 -0.562922 0.070518 0.149513 0.179465 0.262353 0.002919 0.007881 -0.429542 0.085177 -0.168528 -0.090869 0.251789 -0.271895 0.187994 0.170538 0.435199 -0.081120 -0.127210 -0.076733 0.146210 0.225804 0.137531 0.180703 0.290640 0.071882 -0.120412 -0.218860 -0.279733 0.058621 0.288857 0.289585 -0.016951 0.019396 -0.277328 -0.276106 0.037559 0.328616 -0.365582 0.048036 0.493978 -0.530067 -0.318491 0.286531 -0.379531 -0.542977 0.642990 0.352239 0.345071 -0.352576 -0.005547 0.015932 0.385818 0.140635 -0.080663 -0.094733 -0.253324 -0.017365 -0.416495 -0.297169 -0.087525 0.219642 -0.096251 0.422044
starshotyoshi -0.241071 -0.047677 0.266971 -0.014092 0.323169 -0.873658 -0.050812 -0.052413 -0.096144 0.299448 -0.248751 -0.328194 -0.194415 -0.201063 -0.152886 -0.302552 -0.150250 0.268436 -0.273360 0.253157 -0.588602 -0.336191 -0.679259 0.109309 -0.222346 -0.379237 -0.290654 0.091331 -0.102044 -0.334541 0.572935 0.301797 -0.317782 0.184270 -0.034108 -0.464997 0.092534 0.145730 -0.373173 -0.336068 0.086782 0.288126 0.007697 -0.071655 0.229102 -0.248301 0.075938 -0.129493 0.467737 -0.051940 -0.073873 -0.065906 -0.019135 0.113545 -0.135636 0.225917 -0.293172 -0.112025 -0.694128 -0.371142 0.414130 0.396771 0.393725 -0.040685 -0.477586 0.372419 -0.126628 0.596854 -0.508658 -0.097572 0.148108 0.017906 0.131968 -0.196498 0.109698 0.098640 0.013445 -0.067399 -0.480452 0.021567 -0.024761 -0.144899 0.376166 -0.161434 0.042320 -0.447869 -0.199776 -0.548526 -0.119213 0.384296 0.423208 -0.036537 -0.161737 0.121990 -0.335843 -0.204773 -0.044720 -0.145674 -0.053641 0.380883
rixim -0.141430 0.887131 -0.207884 -0.660163 -0.163701 -0.528035 -0.237438 -0.313238 0.503142 -0.038576 -0.453093 -0.103177 -0.166617 0.389226 -0.138264 -0.183515 0.108448 0.193769 -0.097121 0.215196 0.344730 0.759252 -0.243639 -0.328667 -0.029239 0.004924 0.357583 0.265201 -0.160077 -0.255151 -0.398284 0.289657 -0.201060 -0.469760 -0.174129 -0.347857 -0.518764 0.232065 -0.243625 0.023157 -0.224261 0.022170 0.015197 -0.342000 0.482333 -0.092821 0.219233 0.385200 -0.025282 0.426160 0.272395 0.199353 0.612714 -0.325930 -0.203390 0.048708 -0.421441 0.184432 -0.135581 0.131275 -0.217588 0.114554 0.037911 -0.059528 -0.057655 -0.089462 0.307531 0.306481 -0.242670 -0.016310 -0.331210 0.294977 -0.381366 -0.441561 -0.067631 -0.211368 0.526059 0.172956 0.392002 0.079515 -0.254381 -0.459884 0.156253 0.309667 -0.033430 0.042956 -0.014696 -0.042255 0.252016 0.042849 0.287428 0.146041 -0.214524 0.140710 0.125159 -0.347222 -0.156979 0.199167 -0.190748 0.313026
princess-loser 0.081976 -0.637577 -0.339015 -0.017721 0.159195 -0.201348 0.089642 0.219631 -0.048366 0.077081 0.270518 0.892236 -0.452160 0.286960 -0.223418 0.024694 -0.270570 -0.353635 -0.090167 -0.022702 -0.035292 0.438790 -0.103693 -0.223435 -0.212269 -0.139831 0.138172 -0.020123 -0.144186 -0.021439 -0.246045 -0.081374 0.427655 0.041884 -0.006923 0.180692 -0.055427 0.134659 0.194596 -0.126841 0.165656 -0.223714 0.299440 0.252171 0.101930 -0.102997 -0.481504 -0.211701 0.490509 0.187881 -0.095738 0.218992 0.594998 -0.049435 0.170817 -0.163579 -0.167424 0.271339 -0.059398 0.259947 0.392853 0.331374 0.112215 -0.319291 -0.221957 0.501036 0.113078 -0.266345 0.036440 -0.177927 0.104153 0.481426 0.015098 -0.254590 0.240313 0.260130 0.314489 -0.118230 0.587297 0.302227 0.168177 -0.116031 -0.000563 0.062003 0.148910 0.482385 0.250273 -0.124120 -0.022656 -0.357267 -0.666255 -0.087909 0.113436 -0.104211 -0.498378 -0.653768 -0.153852 0.117795 -0.452002 0.591631
mfbc -0.217210 0.106578 0.199316 -0.156987 0.120135 -0.091024 -0.105400 -0.383463 0.268143 0.461433 -0.269016 0.097091 -0.107523 0.223104 0.133736 0.238350 -0.293113 -0.077449 0.486078 -0.176114 -0.041579 0.338984 0.172312 -0.359275 -0.418933 -0.633934 -0.321853 -0.312541 -0.234263 0.050924 -0.580018 -0.060805 -0.194095 -0.363301 -0.010899 -0.500875 -0.064035 0.010699 0.208116 -0.051597 0.386663 -0.220900 -0.380202 -0.469736 0.299505 -0.070553 0.045113 -0.413294 0.528991 0.197481 0.051971 -0.072134 0.439372 -0.027470 -0.051062 0.080166 -0.290705 0.089104 0.432498 0.476858 -0.031993 0.095089 0.005328 -0.359299 -0.281138 0.540050 0.060184 -0.390220 0.502595 -0.002652 0.747048 0.657623 -0.045536 0.501522 0.050688 0.256756 -0.352243 -0.205588 0.104295 -0.424059 -0.090137 -0.104768 0.385071 -0.203777 -0.107569 -0.282174 0.254555 0.206233 0.056623 0.484619 0.506785 -0.471510 -0.068778 0.109436 -0.146660 0.135284 -0.250432 0.042126 -0.091649 0.016187
lifeartist -0.151703 -0.336623 -0.053085 0.254012 -0.071486 -0.158534 -0.254444 -0.182329 -0.112808 0.188901 -0.201910 -0.007852 0.222345 0.245427 -0.306437 0.179333 0.115829 -0.106431 0.210791 0.235464 -0.496947 0.615668 -0.016677 0.312050 -0.542789 -0.358141 0.202161 0.016856 -0.408661 0.424284 -0.665965 0.562452 0.085892 -0.332170 0.080212 -0.378558 -0.020407 0.437001 -0.025405 -0.000455 -0.062376 -0.003249 -0.070944 -0.345049 -0.059580 -0.747859 0.227639 -0.181869 -0.084806 -0.685065 -0.557922 0.090767 0.000148 -0.020854 -0.502998 0.468434 -0.196754 0.411821 -0.299027 -0.003854 0.313855 0.226714 -0.511917 0.113886 0.342257 0.066780 -0.043059 -0.000997 -0.024026 -0.082093 0.122463 -0.508881 0.133909 0.077834 -0.023314 -0.229240 0.308185 -0.556303 -0.393763 0.246853 0.412185 -0.556724 -0.002179 -0.063398 0.212954 -0.401728 -0.154736 0.195701 -0.008540 0.098368 0.507372 0.366086 -0.072212 -0.027080 -0.153428 0.158965 0.255902 -0.164491 -0.237111 0.254574
galahads-lover -0.075589 -0.669373 0.006062 -0.099322 0.389731 0.239562 -0.197945 0.244553 -0.003169 -0.109285 -0.069667 -0.257650 0.180670 -0.343378 -0.459800 -0.219369 -0.173033 0.084936 -0.044276 -0.130615 0.015725 0.338839 -0.186870 -0.171815 -0.209595 -0.337759 0.049470 0.061917 -0.492344 -0.072642 0.053853 -0.178814 -0.463256 -0.041970 0.013720 -1.034806 -0.040815 -0.068531 0.162693 0.065847 -0.396090 0.231568 0.299054 -0.123681 0.297788 -0.225447 0.413228 0.096302 -0.486811 0.149281 -0.126587 0.429123 0.062561 0.047697 0.080143 0.026263 -0.087659 -0.190131 -0.009487 0.165993 -0.134978 -0.335542 0.074189 -0.097993 -0.129830 0.477469 -0.228377 0.488359 -0.051067 -0.146172 0.638616 -0.198642 -0.368487 -0.284606 -0.018327 0.192685 -0.122418 -0.198458 -0.052349 0.348892 0.224980 -0.452286 0.450490 0.488457 -0.098582 -0.456505 -0.027778 0.022778 -0.118639 -0.384856 0.206875 0.169438 0.661669 -0.181328 -0.474288 -0.248147 -0.191600 0.158037 0.154056 0.054635
becomeexpert 0.462643 -0.234381 0.272347 -0.157089 0.495964 0.607541 -0.043834 -0.084332 0.110672 0.008262 -0.270361 0.204598 -0.076886 -0.159926 -0.103758 0.091455 -0.124756 -0.110066 0.199319 0.459192 0.241271 0.276049 -0.174998 -0.213717 0.003801 -0.525552 -0.589643 -0.150197 -0.189086 -0.232646 -0.257687 -0.562153 -0.094175 0.389341 -0.331304 0.105866 -0.231244 -0.436658 -0.027130 -0.191690 -0.259559 -0.390572 0.237659 0.070157 -0.178166 -0.208447 -0.013966 -0.428890 0.391085 -0.106980 -0.176446 0.035894 -0.157058 0.617319 -0.144560 -0.000461 -0.089262 0.079231 0.157476 0.046598 -0.163444 0.247118 -0.093905 -0.201225 0.176260 -0.005286 0.361210 0.501587 -0.198106 0.084216 -0.099932 0.065981 0.334996 0.496356 -0.374947 0.137628 0.022749 -0.045792 0.294582 0.533809 -0.221726 -0.304781 0.241608 0.109306 -0.075940 0.195658 -0.070144 0.019242 -0.086268 0.220851 0.175725 0.574740 0.504285 0.511067 -0.382390 -0.574356 -0.108342 0.300771 -0.456986 -0.572958
musicismath -0.298521 -0.276734 -0.279112 -0.445269 -0.180818 -0.397646 -0.370958 0.158689 -0.110972 -0.056960 -0.012529 -0.634463 -0.109340 0.214613 0.248275 -0.162963 -0.211875 -0.200915 0.132862 0.135981 0.112739 0.071808 -0.118096 0.059526 -0.487017 -0.297097 -0.031055 0.003946 0.354890 0.387057 -0.157156 0.475764 -0.215262 -0.167146 0.258517 -0.088336 -0.734899 -0.030611 -0.249366 0.298769 0.261731 -0.084385 0.021035 -0.292723 -0.077690 -0.533381 0.233382 0.383227 -0.226688 -0.419011 -0.272405 0.042922 -0.175495 -0.002968 0.074901 -0.079057 0.011179 -0.271480 -0.108186 -0.009037 -0.025226 0.351217 0.238146 -0.084032 0.236481 -0.309994 0.053686 -0.193654 -0.257478 -0.075270 -0.042560 0.925281 0.278498 -0.185339 -0.252582 0.011479 0.576466 -0.159705 0.165350 0.291397 -0.357410 -0.257084 0.466774 0.697565 -0.047023 0.510349 -0.019202 -0.653580 -0.358932 -0.230949 -0.551125 0.272623 -0.031349 0.024028 -0.386066 0.144832 0.049994 0.464329 0.019961 -0.089274
essanox -0.049980 0.054067 -0.049676 -0.037828 0.122188 -0.060659 -0.072999 0.203654 0.100193 0.009464 -0.230666 -0.125993 0.128095 -0.091584 0.360793 0.151544 -0.032190 0.123703 -0.018490 0.323570 0.404069 0.100758 0.067883 -0.371501 -0.068704 -0.170738 0.253053 -0.277918 0.242893 -0.241984 0.463334 0.138764 0.233787 -0.639630 -0.051443 -0.671173 -0.082761 -0.305339 -0.125058 -0.132271 0.046877 -0.553609 0.300358 -0.424035 -0.352733 0.064577 -0.821467 -0.203120 0.131795 -0.022848 -0.425078 0.068361 -0.214890 0.057155 0.147605 -0.122923 0.010915 0.079216 -0.091766 -0.233232 0.162182 0.059444 0.170938 0.143933 0.207715 -0.131745 0.033111 0.664440 -0.060666 -0.755115 -0.152446 0.235256 -0.540327 -0.261881 -0.064053 -0.146181 0.083544 -0.436070 0.308111 -0.692219 -0.109430 -0.743687 0.392088 -0.194430 0.301119 -0.024652 0.153922 -0.243167 -0.079518 0.246494 0.170609 0.488106 0.530055 0.059149 0.123201 -0.366243 -0.052624 0.521918 -0.546997 0.046527
kidsis -0.502623 0.097165 -0.313454 -0.404253 0.064389 -0.121042 0.003649 0.190783 0.150190 0.387467 0.021253 0.404831 -0.213858 0.115409 0.229159 0.218698 -0.379866 -0.529745 0.092950 0.493752 0.016074 0.353110 -0.138783 0.116830 -0.259234 0.361331 -0.406721 -0.610402 -0.979710 -0.088071 -0.144787 0.606999 -0.099492 -0.111669 -0.065021 -0.143029 -0.315999 -0.109934 -0.550524 0.385652 -0.321217 0.063350 0.040402 0.057344 0.144121 -0.086318 -0.429306 -0.019508 0.162618 0.049997 -0.119977 -0.145351 0.474193 0.140412 -0.057882 -0.111152 -0.326582 0.255118 0.351184 -0.261862 -0.258959 -0.020545 -0.140125 0.227924 -0.193525 -0.049085 0.445547 0.138101 -0.015190 -0.320793 -0.063796 -0.370979 0.381675 0.124400 0.138452 0.206340 0.181320 -0.188255 -0.457050 -0.320937 0.248923 -0.070959 0.562966 -0.741687 -0.071628 0.179705 0.103580 -0.093404 -0.088884 0.422258 0.109231 -0.262352 -0.144646 -0.286402 -0.172918 -0.133618 0.166006 0.064404 -0.153205 -0.004712
frankenrox -0.308633 0.153247 -0.112028 0.371505 -0.053515 -0.035659 0.244386 -0.375778 0.197049 0.288497 -0.077307 0.273931 -0.545098 0.287802 -0.227641 0.166830 -0.470244 -0.521991 -0.128011 0.250809 -0.195354 -0.055409 0.036536 -0.018047 -0.116859 -0.847916 0.459301 0.096475 -0.354584 0.212214 -0.304736 -0.181114 -0.034692 0.175841 -0.090251 -0.446407 -0.343234 -0.154456 -0.176811 -0.337262 0.371603 -0.523981 0.576025 0.151643 0.455509 -0.165705 0.045557 0.018649 -0.074710 0.109439 -0.001689 0.340657 0.234798 -0.126374 -0.007552 0.508686 0.000360 0.047520 0.454342 0.149471 0.177139 0.167475 -0.264209 -0.145042 -0.235600 0.510321 -0.256718 0.065534 -0.114658 0.446606 -0.584965 -0.307119 0.015788 0.140062 -0.427520 0.251197 0.030549 -0.307963 0.383595 -0.066397 -0.079007 0.093665 0.544814 0.112990 0.338024 -0.263893 -0.116387 0.345068 0.003608 -0.143193 0.611210 0.097925 0.383823 -0.008429 0.023510 -0.809444 -0.056199 -0.028612 0.157049 0.072892
gabyxx21 0.480672 0.495004 0.689666 0.382819 -0.023438 0.082518 0.089232 -0.086881 -0.044289 0.019016 0.490229 0.415209 -0.171717 0.140766 -0.370029 0.227046 -0.073889 0.143605 0.120101 0.427357 0.280507 0.532877 -0.344028 -0.072910 -0.217989 -0.263101 -0.238426 -0.163149 -0.724656 -0.056835 -0.552875 0.173316 -0.077895 -0.170117 -0.055146 -0.489018 -0.126644 0.008174 0.292264 -0.822950 -0.234795 -0.178404 -0.282243 -0.128693 0.375375 0.088647 -0.161763 0.300711 0.461277 -0.132110 0.111612 -0.166002 0.263233 -0.518700 0.008293 0.146770 -0.021866 -0.032278 0.222741 -0.037046 -0.101427 -0.001229 -0.388751 0.079035 0.037731 -0.264834 0.158051 -0.124065 0.037493 0.259801 0.481791 0.067998 0.059713 0.364304 -0.047605 -0.227027 0.108339 -0.254901 0.179042 0.196907 -0.279813 -0.476790 0.531874 0.267815 -0.324798 0.035744 0.092965 -0.206726 -0.087400 -0.325973 -0.263949 0.149125 0.426214 0.636319 -0.193602 -0.415265 0.472962 0.213319 -0.311602 0.283475
maamiyn -0.046944 -0.002130 -0.464115 -0.137498 -0.603713 -0.160989 0.200160 -0.171058 -0.010315 0.067720 -0.044260 -0.283385 -0.453655 0.069103 0.629274 0.042716 0.278391 -0.369947 -0.103694 0.336434 -0.066267 0.215064 -0.248013 -0.039953 0.111815 -0.375978 -0.312587 -0.205320 -0.147117 0.326163 -0.317778 -0.060391 -0.477687 0.338501 -0.358925 -0.558843 0.130015 -0.239866 0.067518 -0.312613 -0.591960 0.185173 0.123456 0.327202 0.305335 -0.824825 -0.196010 -0.146638 -0.149251 -0.291848 -0.377705 -0.032688 -0.105776 0.251450 0.466959 0.155016 -0.379677 0.276420 -0.272874 0.180558 0.252793 0.010484 -0.152717 -0.029528 0.241162 -0.205851 -0.156135 -0.148983 0.001656 0.152963 0.083551 -0.732027 0.042413 0.113973 -0.133204 0.365268 0.191868 0.103437 0.303215 0.428218 -0.503429 -0.379626 0.269574 -0.509734 0.127601 0.136218 0.044255 -0.493702 0.104638 0.218534 -0.068956 0.123446 -0.040100 -0.265764 0.204606 -0.162780 0.230781 0.260822 -0.403783 -0.075546
spanish-matheu -0.132515 -0.249059 0.165690 -0.167096 0.266695 0.200874 0.352030 -0.082424 -0.050151 0.437249 -0.349969 0.318385 -0.504780 -0.230538 0.015327 -0.471731 0.057492 -0.276116 0.208110 0.230754 -0.517952 0.431008 0.271373 -0.108398 -0.444182 0.171306 -0.205273 0.099602 -0.097188 0.103455 -0.317218 0.400379 -0.000357 -0.128949 -0.391525 -0.243830 0.454600 0.100148 0.409550 -0.310239 0.677911 -0.553134 -0.585074 0.091740 0.184797 -0.440656 -0.213518 -0.469781 0.240635 0.382424 -0.306447 0.150535 0.165265 0.160369 -0.493823 -0.044379 0.083969 0.121719 -0.122964 -0.186290 -0.003938 0.323774 -0.023331 0.237884 0.214699 0.010654 0.460456 0.314265 0.169915 0.065477 -0.093450 0.224347 -0.036938 -0.263815 -0.226015 0.276514 0.300097 -0.008026 -0.031759 -0.317607 0.314659 -0.288622 -0.098713 0.630271 -0.481539 -0.831092 0.138902 0.194316 -0.222530 -0.042041 0.101541 -0.459130 0.114533 -0.008957 -0.458886 -0.335398 0.428054 0.260596 -0.092220 -0.041439
salix129 -0.320064 -0.128224 -0.188444 -0.512286 -0.161103 -0.545506 -0.061215 0.580170 0.052339 -0.264066 -0.539805 0.160243 -0.199370 -0.107899 -0.364010 -0.042323 -0.180859 0.018884 -0.124256 0.271634 0.054805 0.505326 -0.015163 -0.330176 0.352752 0.332910 0.157389 0.324820 -0.083135 0.231915 -0.183496 0.072300 -0.183868 -0.162642 0.207424 -0.926479 0.110539 -0.288091 0.189988 -0.312905 0.232214 -0.040525 -0.395827 0.007996 0.382424 0.171691 0.260152 0.655167 0.372123 -0.156295 -0.032212 0.639120 0.100250 -0.111792 -0.312560 -0.213431 -0.268207 0.268570 -0.196058 -0.142341 0.214686 0.766166 -0.149476 0.527237 -0.239226 -0.071636 -0.067554 0.640989 -0.112308 0.286252 0.242135 0.532846 -0.155438 -0.342706 0.105338 0.310114 0.059867 -0.151986 0.432749 0.074394 0.045080 -0.022703 -0.007848 -0.215561 0.273570 0.109201 0.301418 -0.005189 0.463367 -0.380477 -0.034014 0.030570 0.160655 -0.041676 -0.091943 0.267264 0.120318 0.085063 -0.272009 0.022157
busbeytheelder 0.078899 -0.665147 -0.371702 -0.546668 -0.213259 -0.795786 -0.223534 0.543923 0.007393 0.449557 0.518226 0.052296 -0.260388 0.512536 0.178196 0.129213 -0.156227 -0.338184 0.165296 0.004601 0.029038 0.147163 -0.272462 0.363097 -0.163054 -0.927210 -0.078996 0.345750 -0.328817 0.069982 -0.342428 -0.396206 0.167021 -0.057293 -0.004440 -0.285474 -0.114170 -0.577346 -0.165240 0.014031 -0.001968 -0.366460 0.198265 -0.136827 -0.261874 -0.045893 -0.184226 0.205016 0.326727 0.083889 -0.004742 -0.050991 0.067464 -0.440702 -0.020159 0.214838 0.309803 0.105022 -0.112822 0.125318 -0.309001 -0.230314 0.219858 0.119050 -0.158575 0.423889 0.152595 0.121223 0.012680 0.111639 0.271132 0.109998 0.120222 -0.065883 0.834544 0.117545 0.176567 -0.005526 0.123514 -0.445545 0.142556 -0.010812 0.117961 -0.226648 0.105372 0.108771 -0.102590 -0.408783 0.216882 -0.239064 0.518855 -0.030675 -0.366698 0.043040 0.105013 0.198686 -0.494411 0.299778 -0.153506 0.087628
asdefgaheckel 0.191008 0.042839 -0.177357 -0.134599 -0.012254 -0.105248 -0.231238 0.044136 -0.254578 0.467913 0.129047 0.435379 0.006242 0.225338 -0.131273 0.028748 -0.000499 -0.123830 -0.128539 -0.122937 0.086245 0.492965 0.168196 0.513235 -0.311481 0.022026 -0.351889 -0.541127 -0.136994 -0.344281 0.152333 -0.359605 -0.413810 0.092266 -0.128505 -0.365481 -0.142494 0.143440 0.446796 -0.592394 0.085361 0.202909 -0.285437 -0.474835 -0.078054 -0.027019 -0.055283 -0.629151 0.588055 -0.230231 0.247134 0.135973 0.034795 0.078080 0.217817 -0.019225 0.338972 -0.087631 -0.440988 0.317306 -0.089548 0.207288 0.403128 0.158335 0.409340 0.119414 -0.012136 0.472352 -0.270489 0.072675 -0.228435 0.109726 0.296994 -0.241104 0.187232 -0.001026 0.556096 0.073403 0.196428 -0.206824 0.202746 0.043849 -0.312295 0.409898 -0.211550 0.529705 -0.348802 0.262515 0.516194 0.142744 0.556927 -0.081555 -0.063323 -0.132313 -0.337293 -0.495222 -0.040936 0.520191 0.250900 0.468240
aaton 0.002621 -0.078148 0.081540 -0.094261 0.222553 0.471857 0.151509 0.124563 0.153620 0.786789 0.330393 -0.752355 -0.334490 -0.173034 0.060514 0.171755 0.197359 0.083925 -0.005083 -0.145358 -0.270913 0.452167 -0.224361 0.447333 -0.338949 -0.600789 0.011760 0.174195 -0.168765 0.242253 0.106826 -0.156300 0.030032 0.099351 0.050316 -0.258415 -0.231003 -0.736017 -0.030554 -0.235422 -0.548619 -0.225799 0.064112 -0.402644 0.233395 -0.074004 0.010371 -0.320983 0.379115 -0.376847 -0.093833 -0.007168 0.198714 -0.569341 -0.227165 0.152649 0.297127 0.139705 -0.113522 -0.397216 -0.123379 -0.071854 -0.197604 -0.059530 -0.010213 0.510162 0.534214 -0.266240 -0.362385 0.180917 -0.219538 0.305816 -0.230227 -0.007259 -0.172810 0.329424 0.537078 -0.136765 0.017361 -0.166079 0.420492 -0.156356 -0.033292 0.146719 -0.043381 0.310586 -0.355783 -0.370480 -0.215209 -0.519411 0.164019 0.280631 -0.260406 0.027942 0.191746 0.008254 0.320844 0.583108 0.011497 -0.448637
quicksilvermad -0.171037 -0.462371 -0.063892 0.022865 -0.130491 -0.211304 0.373613 0.513023 0.178659 0.009646 0.615484 -0.209517 -0.386490 -0.635031 -0.230797 0.005215 -0.374150 0.057272 0.037821 0.070126 -0.058566 -0.102988 0.143117 -0.142382 -0.000831 -0.218902 0.174595 -0.035173 -0.134053 0.287290 -0.239356 -0.196218 0.085976 0.750484 0.418323 -0.096457 -0.122413 -0.229343 -0.384302 0.315979 0.429048 -0.264189 0.258412 0.232191 0.414720 -0.522952 -0.008948 -0.068479 0.003810 0.139907 -0.168041 0.003141 0.135855 0.008207 -0.562135 -0.677704 -0.528348 0.507213 -0.056096 -0.115914 -0.149451 -0.015964 -0.021726 0.342152 -0.670818 -0.138963 -0.020386 0.542308 0.063331 -0.141531 0.271743 0.066590 -0.288216 -0.356650 0.601160 0.095777 -0.265680 0.153104 -0.209155 -0.029383 -0.079509 -0.359370 0.477306 0.040811 -0.157608 0.537938 -0.057971 -0.444250 0.139246 0.096064 0.208798 0.362608 0.019458 -0.002838 -0.096199 -0.202070 0.141678 0.299239 0.402820 0.219729
grayenot -0.592848 0.085269 -0.047236 -0.563748 -0.091766 0.164985 -0.021154 -0.020082 0.195726 0.453342 -0.025937 -0.317320 -0.222784 -0.078196 0.498238 0.252614 0.108032 -0.086261 -0.074995 0.124694 0.163089 0.193375 0.360251 0.354236 -0.743931 0.233261 0.207042 -0.264078 0.178941 0.279704 -0.277503 -0.088127 0.052407 0.028130 -0.191840 0.138275 0.151847 -0.116858 0.386707 0.023849 0.113868 0.084543 0.240556 -0.042961 0.427382 -0.235317 0.303151 -0.179498 0.594437 -0.357736 -0.198014 0.599218 0.127095 0.419243 0.428968 0.239357 -0.146438 0.462729 -0.284245 -0.336526 -0.139305 0.226334 -0.135215 -0.104420 0.180064 0.082472 0.191539 0.278659 0.461098 -0.315008 0.482700 -0.297996 -0.042481 -0.287268 0.144996 -0.781675 0.212957 -0.116088 -0.141356 0.250992 0.195136 -0.306004 0.128354 -0.141985 -0.193531 -0.035718 0.363713 -0.305921 -0.534847 0.177278 -0.019386 -0.090663 -0.236856 0.532262 -0.107323 -0.389769 -0.172571 0.230285 -0.359902 0.467538
captainmustard 0.227209 -0.220119 -0.015669 0.258072 0.282775 0.018650 0.295183 0.133620 0.301621 0.044939 -0.147770 0.297171 -0.366940 -0.016039 0.199574 0.136477 -0.107022 0.108362 0.540088 0.168722 0.403449 0.563359 0.038011 0.189890 0.211662 -0.415702 0.042717 -0.244075 -0.548887 0.370727 -0.424816 0.412207 0.706231 0.031324 0.113277 -0.294309 -0.447218 0.035029 0.044490 -0.203077 0.111024 0.236632 0.767927 0.323974 0.166294 -0.177536 0.183794 0.085005 -0.052108 -0.379072 0.056250 0.028669 0.305597 0.124130 -0.072838 -0.130451 -0.091757 -0.042874 -0.416319 0.073229 -0.038620 0.436170 -0.105557 0.459937 -0.293391 -0.092073 0.152050 0.456577 0.003970 -0.474970 0.255463 -0.060620 0.204655 0.020955 -0.235836 0.435408 -0.059051 -0.132635 0.043042 0.278359 -0.772738 -0.349594 -0.526776 0.169707 -0.093433 0.230173 -0.165478 -0.276086 -0.187941 -0.137080 -0.065947 0.460566 -0.094179 -0.204120 -0.301719 0.482028 -0.187394 -0.286379 -0.239661 -0.241935
empirechrome 0.223468 -0.304580 -0.287665 -0.021210 0.266096 -0.078135 0.169368 0.409931 0.123047 0.137670 -0.016906 0.157241 -0.630009 -0.048600 -0.165300 -0.454487 0.438087 -0.356014 0.038083 -0.097581 -0.648886 -0.231799 -0.213608 -0.049267 -0.140411 -0.742565 0.055415 0.079966 0.221128 0.206534 0.112898 -0.298812 0.028314 0.135534 0.410029 -0.495913 -0.049727 0.241501 -0.106014 -0.252705 -0.321696 0.250225 -0.115781 -0.184880 0.062349 0.029206 -0.573497 0.333984 -0.305589 -0.000349 -0.013503 0.646017 0.540298 0.118073 -0.259830 0.199961 0.241715 0.748966 -0.294383 0.093285 -0.313479 -0.415638 0.179490 0.129725 0.093770 -0.218202 -0.206266 -0.082708 0.152984 -0.754174 0.152210 0.293472 -0.122361 -0.124789 0.248245 0.282143 -0.150018 -0.114842 0.016086 -0.020251 -0.460359 -0.039599 0.530475 0.032014 0.009248 -0.527732 0.016507 -0.041826 -0.231925 -0.519036 0.208082 -0.239921 -0.056081 -0.119536 0.458275 -0.350838 0.105139 0.630789 -0.272798 0.246436
turkobain -0.352115 -0.042776 -0.661359 0.122416 0.322485 -0.008949 -0.068588 0.158771 -0.095702 -0.090087 0.169835 0.552344 -0.041424 0.218043 0.278710 -0.316766 -0.192246 0.119518 -0.124191 0.405176 0.495153 -0.169486 -0.158958 0.288737 0.118326 -0.038046 -0.210720 0.184773 0.365136 -0.178385 -0.167990 0.193531 0.243478 0.438203 -0.091589 -0.040060 -0.104793 -0.114423 -0.071960 -0.262851 0.342027 0.076569 0.025286 0.086904 -0.106224 -0.359560 -0.059113 0.263011 0.238292 0.479441 -0.245346 -0.414669 0.884545 0.297214 0.061496 -0.424006 0.093635 0.816777 0.513792 0.287880 -0.355670 -0.045168 0.010399 0.087204 -0.255243 -0.500086 0.146581 0.407068 0.118996 0.083630 0.204856 0.185898 -0.180333 0.085587 -0.563341 0.107423 0.115564 -0.264876 -0.271954 -0.119620 -0.034329 0.050113 0.266544 -0.163176 -0.375252 -0.116754 0.267516 -0.038699 0.270068 0.108164 0.715507 -0.142620 0.011474 0.002891 -0.273580 -0.252779 0.195042 0.571524 -0.977391 0.184662
swinkins -0.295001 -0.236066 -0.066373 -0.342328 0.309387 -0.871360 0.112416 0.097891 0.039336 -0.624388 0.306120 -0.065702 -0.046315 0.194966 0.199670 0.184398 -0.221804 0.106520 -0.220226 0.002516 -0.284381 0.253568 0.465347 0.490533 -0.422595 -0.410045 -0.069325 -0.209969 -0.274243 0.026406 0.163576 -0.009991 0.174339 0.468333 -0.069610 -0.321491 -0.265999 0.376784 0.093930 0.155541 0.142950 0.025340 -0.430285 0.424477 0.118176 0.114538 -0.624959 -0.094908 -0.020321 0.130188 -0.758737 -0.156674 -0.047508 0.117434 0.299819 0.108049 -0.053882 0.172985 0.099877 0.472112 -0.283626 0.428261 0.054321 0.012033 -0.140915 0.226441 -0.259379 0.193218 0.025864 0.128056 0.014133 0.282123 -0.023332 -0.327105 -0.055318 0.492508 0.571763 -0.397896 -0.159458 0.311788 0.403018 0.190658 0.132216 -0.311331 0.002803 -0.381827 -0.136163 0.576768 -0.479301 -0.196506 0.604124 0.125694 0.074766 0.204162 0.012369 0.382619 0.069331 -0.282390 -0.471434 0.087588
ihatepeoplealot -0.109210 0.094034 -0.602602 -0.220224 0.225867 -0.134676 0.419080 -0.074363 -0.258654 0.390982 0.064375 -0.018248 -0.633474 0.329174 -0.024636 0.536333 -0.272457 -0.046114 -0.371320 0.324603 0.261257 0.173899 0.179470 -0.053740 -0.169848 -0.512353 0.202744 0.069940 0.396862 -0.122750 -0.131150 -0.232450 0.027930 -0.033269 -0.290498 -0.305725 -0.229910 0.172426 -0.384959 -0.206765 0.620291 0.246735 -0.161160 0.168513 -0.390115 0.135914 -0.011775 0.346272 -0.068661 -0.360750 -0.374338 0.764619 0.387126 -0.049610 -0.435429 -0.065389 0.310249 -0.199346 -0.205490 0.069851 0.297391 0.000702 -0.204763 -0.130632 0.460129 0.366833 -0.288556 0.192921 0.226822 -0.242139 0.522568 0.441097 0.075314 -0.513099 -0.503094 0.477280 0.295543 -0.007281 0.385504 0.007024 -0.192149 0.267937 -0.150456 0.224902 0.271531 -0.324727 -0.371542 -0.498229 -0.282324 0.076502 0.218728 0.415880 -0.194091 -0.183841 0.226018 -0.478511 0.302322 0.025943 -0.214884 0.161387
janeygodley -0.236192 0.029263 -0.040617 0.550099 -0.305952 -0.012355 0.328382 0.535068 -0.191925 0.244806 0.618243 -0.255024 -0.225351 -0.112208 -0.366195 -0.785959 -0.049320 -0.284038 0.101567 -0.184575 0.673439 0.131974 0.181578 0.468607 0.019811 -0.278170 0.084405 0.217753 0.112990 0.045209 -0.348732 0.566111 0.035548 0.340400 0.167087 0.062076 -0.090782 -0.076977 0.789630 -0.111273 -0.258773 -0.247870 -0.196564 0.225340 0.002029 -0.010590 -0.207626 -0.022062 -0.026474 0.153342 -0.114663 -0.088131 0.323590 0.130110 0.296437 0.318361 -0.277991 0.391557 -0.653198 -0.229357 -0.476494 0.138940 0.292609 -0.300811 0.419434 0.187634 -0.003326 0.253687 0.070677 -0.436252 0.107932 -0.000149 0.096624 0.016676 -0.203276 0.100446 0.085101 0.004997 0.150463 -0.237430 0.398329 -0.575727 0.299400 -0.180466 -0.220201 0.569868 -0.106267 -0.243437 0.453627 -0.229471 0.131240 -0.470380 -0.077788 -0.126955 0.161925 -0.368829 -0.103808 -0.096760 -0.032968 -0.335975
krowface 0.159991 -0.278212 -0.305289 -0.415299 -0.599757 -0.554680 -0.189209 0.424117 0.027102 0.473297 0.215935 0.265905 -0.178262 -0.360768 -0.183376 -0.060624 -0.109847 0.055950 -0.075785 0.907078 0.510101 0.085665 -0.286483 -0.189716 -0.049096 -0.021032 -0.210904 0.023028 0.124442 -0.020164 0.436651 -0.091158 -0.121500 -0.126078 0.031644 -0.169947 -0.177529 -0.342520 -0.092718 0.262578 0.376322 -0.525147 0.044128 0.215139 0.065557 -0.181308 0.323941 0.032164 -0.128389 -0.317294 -0.349333 0.294725 0.073809 0.320424 0.379970 0.110759 -0.015482 0.412905 0.030167 0.071019 0.488403 0.093182 0.045704 0.078782 0.272732 0.120233 0.355964 -0.075321 -0.630349 -0.249331 -0.216672 0.241247 -0.215039 0.208573 -0.393957 0.293085 -0.106036 -1.081931 0.422481 -0.227704 0.240285 0.103717 0.405684 -0.196516 -0.391296 -0.208296 -0.087338 0.152635 -0.113001 0.168801 -0.099926 0.035663 0.127603 0.092759 -0.072402 0.048541 -0.351328 0.338010 -0.059303 -0.066914
psycho-monkie -0.197057 -0.339959 0.180616 -0.131394 -0.012282 -0.512655 0.328294 0.138305 0.102281 0.211050 -0.069606 -0.425502 -0.145920 0.144704 0.228720 -0.078627 0.578225 0.263702 0.131219 0.045274 0.125032 -0.420098 0.750589 -0.292345 -0.009798 -0.168265 -0.051440 -0.159265 -0.224185 0.278507 -0.170877 0.014891 0.146948 -0.197132 0.030775 -0.323181 -0.705873 0.133457 0.318621 0.081507 0.153163 -0.022590 0.412023 -0.173976 0.157521 -0.239737 -0.258135 -0.286310 0.109426 0.153896 -0.418919 0.758125 0.289942 0.525056 0.237692 0.135126 0.179721 0.016050 -0.339509 -0.090275 0.170665 0.189085 0.169619 0.032439 0.142104 -0.074704 0.395027 0.101401 0.209421 0.332308 0.269049 0.237055 0.315028 0.321312 0.308435 -0.012201 0.166287 0.232093 -0.010026 0.209695 -0.301502 -0.413778 -0.153056 -0.038373 0.685758 -0.300075 -0.118957 -0.218473 -0.610981 -0.284046 0.069386 -0.194191 0.828786 0.306749 -0.140291 0.169663 0.001664 0.287763 -0.253680 -0.470066
laithamhaddad -0.104785 0.320005 0.361665 -0.441148 -0.747212 0.345753 0.357675 -0.437979 0.488989 0.006413 -0.348272 -0.444925 -0.598182 -0.130112 -0.052967 -0.686280 -0.253318 -0.134073 0.056593 0.071847 -0.186299 0.382451 0.208343 -0.494787 -0.557603 -0.193836 0.068540 -0.498229 -0.013835 0.334722 0.012280 0.171175 -0.473379 -0.261072 -0.544535 0.027809 0.036618 0.120405 0.329934 -0.196088 -0.016688 0.065689 -0.141201 -0.114546 0.071610 -0.067144 -0.077586 0.074098 0.212293 -0.053069 -0.137512 0.098244 0.328526 -0.616456 -0.131982 0.079484 -0.375085 -0.087695 -0.182623 -0.117899 0.801198 0.446650 -0.216510 -0.398380 0.219994 0.004327 0.280877 0.362559 0.219979 -0.268977 0.052332 0.000075 -0.021060 0.008616 -0.106772 0.223439 -0.484761 0.238893 -0.099132 -0.005333 0.142133 -0.075044 0.087187 -0.128181 0.028835 0.195544 -0.294141 -0.126482 0.091475 0.311911 0.132110 0.135423 0.436954 0.441773 0.135927 -0.207624 0.145298 0.325019 -0.487566 0.096745
gurglesnap 0.339461 -0.045925 -0.816804 0.087152 0.215630 0.208485 0.365110 0.368828 -0.056361 -0.047178 -0.356986 0.444781 -0.608995 0.174869 -0.284475 -0.371697 -0.266962 -0.315088 -0.315201 -0.281069 0.019202 0.122271 0.254226 -0.057365 0.178066 -0.585663 -0.012537 0.399478 -0.679514 0.211831 -0.402916 0.144741 -0.088305 -0.104679 0.194595 0.059204 -0.347380 -0.156083 0.331064 -0.220518 -0.267981 0.029430 0.101504 0.169433 -0.044737 0.447235 -0.289926 -0.029069 0.089000 -0.034077 0.120697 -0.535917 0.411617 0.195905 0.646236 0.216056 0.329473 0.506510 -0.170214 -0.264703 0.061093 0.302469 0.367092 -0.259516 0.339034 0.210044 0.085796 -0.102978 -0.159826 -0.028562 0.094115 0.344209 -0.207840 0.402916 -0.105288 0.009547 0.146460 0.298969 -0.065576 0.084465 -0.507257 0.412580 0.590659 -0.200156 0.575963 -0.448626 -0.161595 -0.411815 0.332328 0.080951 -0.044299 0.173461 -0.229979 -0.176931 -0.010426 -0.007384 0.341024 0.242040 -0.057924 -0.307665
keereel 0.280362 0.037801 -0.278182 -0.065500 -0.177557 -0.379493 0.265387 0.670311 -0.110674 -0.035028 -0.458333 0.524047 0.317265 0.034980 -0.157502 0.053059 0.006872 -0.140464 -0.265165 0.396444 0.319499 -0.099325 0.081838 -0.079826 0.152014 -0.011171 -0.391213 -0.014109 -0.557553 0.339719 -0.104087 0.427410 -0.226481 -0.036201 0.486947 -0.041857 0.170120 0.192418 -0.335609 -0.202769 -0.095087 -0.175702 -0.438177 -0.017284 0.030306 0.255263 0.071639 0.162981 0.281089 -0.262091 -0.110417 -0.229317 0.148649 -0.300167 -0.428627 0.487935 0.172247 0.224611 -0.659240 -0.221482 0.477456 -0.091790 -0.139078 0.502260 -0.219655 0.319134 0.013265 0.446449 0.009290 -0.378862 0.219622 0.379628 0.114901 0.282534 0.092884 0.526960 0.534595 -0.228333 0.113206 0.078821 0.256513 -0.098666 -0.236005 0.360511 -0.847195 0.066708 -0.008673 -0.589404 -0.002001 0.194552 0.240641 0.447505 -0.226494 0.300060 -0.159841 -0.329149 0.194855 0.210956 -0.154635 -0.407654
dastarrniceshow -0.194107 -0.132684 -0.136722 -0.127398 -0.502091 -0.516760 0.195378 0.603926 -0.276101 -0.127271 -0.336626 0.416394 0.159846 -0.102842 0.239991 -0.161852 -0.106878 -0.032124 -0.033116 0.015168 -0.191202 0.355561 0.366104 0.267728 -0.310074 -0.638469 -0.228552 -0.547347 -0.193640 0.122620 -0.060903 -0.243423 -0.230759 -0.307960 -0.108996 -0.207006 -0.337682 -0.061930 -0.189162 -0.472675 0.037680 0.271431 -0.236697 -0.012153 0.020523 -0.424722 -0.100263 0.064524 -0.122690 -0.156832 -0.181569 0.557886 -0.800216 0.308953 0.027362 -0.638042 -0.159922 0.242820 -0.101344 -0.029957 -0.417323 0.133976 0.029137 0.384542 0.057694 0.395867 -0.149197 -0.145212 0.017048 -0.069699 0.384003 0.203348 0.534237 0.395804 -0.090723 -0.134876 0.477733 -0.085926 -0.175045 -0.037490 0.039456 -0.028443 -0.010625 -0.007190 -0.276953 0.251840 -0.134517 -0.086688 0.300523 -0.671281 0.226560 0.314886 -0.071021 -0.380592 -0.045919 0.107783 0.284482 0.406842 -0.517837 0.175622
getjeffrey -0.746039 -0.169340 -0.172966 -0.456265 -0.527111 -0.268584 0.358753 -0.216788 0.128027 -0.234476 0.321254 -0.509387 -0.053952 -0.037010 0.263034 0.176528 -0.060191 0.255291 -0.799065 0.755381 0.109904 0.266528 0.054766 -0.045792 -0.228310 0.064801 0.161396 0.088951 -0.075975 -0.095178 -0.093566 -0.146046 -0.312097 -0.256984 -0.216197 -0.221869 -0.276150 -0.063571 0.263853 0.234393 0.318366 0.361817 0.199041 0.167764 0.142527 0.028649 -0.188657 0.147576 0.085807 0.189520 -0.308122 0.321756 0.041020 0.133665 -0.193649 -0.463746 -0.153857 0.096725 -0.370889 -0.110389 0.162303 -0.267538 -0.121379 0.885658 -0.175712 0.046886 0.282174 0.569335 -0.133232 -0.104483 0.056450 0.386302 0.216412 0.102204 -0.194059 0.308242 -0.233392 -0.185216 0.315390 0.234754 0.296176 -0.219581 0.317769 -0.746893 0.121020 0.447856 0.254659 -0.032949 -0.096935 0.097153 0.450221 0.095510 -0.191225 -0.093880 0.076930 -0.084853 -0.099384 0.559411 0.020127 -0.077294
sethd8 0.048285 -0.095275 -0.034490 -0.046906 0.079909 -0.399831 0.098726 0.235844 -0.159133 -0.065567 -0.329136 0.051905 -0.287024 0.146844 0.241338 -0.186507 0.267554 -0.147090 -0.068676 0.335144 0.421184 0.081381 -0.305333 -0.246625 0.000037 -0.629494 0.516794 0.266029 -0.050774 -0.001388 0.098624 -0.221290 0.028947 0.321975 0.088419 -0.754898 0.130905 0.245085 0.105357 -0.303066 -0.427094 0.316605 0.326268 -0.364901 0.269862 0.000609 0.081169 -0.294204 -0.191808 -0.006468 -0.110977 -0.243966 -0.343022 0.328157 0.169796 0.170503 0.166828 0.317296 -0.367969 0.076136 0.144994 0.494462 -0.077282 -0.302729 0.124458 -0.054889 0.183414 0.492815 0.019837 -0.094206 0.015784 0.660208 -0.357665 -0.096807 0.003370 0.306966 0.131181 0.179066 0.369026 -0.462404 0.235276 -0.876761 -0.099595 -0.718473 -0.129352 -0.369313 0.159221 -0.723494 -0.163419 -0.106446 -0.196510 0.366492 0.136949 0.313113 -0.513179 -0.161734 -0.201791 0.026215 -0.172433 0.227478
seotoronto1 -0.096161 -0.140401 -0.254880 -0.238140 0.107969 -0.302510 -0.139539 -0.158016 -0.459446 0.451999 0.315548 0.272512 -0.206384 -0.174313 -0.095200 -0.293754 0.072420 -0.628557 0.135315 0.026114 -0.003426 0.817465 -0.113425 -0.101733 -0.590913 0.113176 0.204709 -0.108869 -0.088158 -0.279053 -0.064401 -0.111568 -0.100853 0.252978 0.475526 -0.266133 -0.325405 -0.081594 0.136573 0.003578 -0.181426 -0.095601 -0.158555 0.211840 -0.170464 -0.385414 0.287214 0.106360 0.511572 0.582217 -0.497813 -0.194825 0.097382 0.212350 0.217842 -0.090574 -0.322877 -0.203922 -0.213642 -0.618231 -0.385277 -0.238886 -0.229361 0.202134 0.061512 -0.000656 -0.353612 0.317373 0.517211 -0.235456 0.745972 0.286687 -0.325849 0.123622 0.394472 0.244564 0.394821 -0.056777 0.229696 0.121220 0.421420 -0.406309 0.017862 -0.184588 0.068992 0.123133 -0.395674 0.393153 0.356859 0.249096 -0.117664 -0.150257 0.393182 0.081896 0.078338 0.205487 0.301224 0.307040 0.025236 0.152078
bahromagroup -0.128005 0.374354 -0.029394 -0.201836 -0.410037 -0.012371 0.279072 -0.330054 0.521186 0.173107 0.261237 0.599264 -0.044642 -0.507790 -0.508997 0.058924 -0.420296 -0.084631 0.202388 -0.174275 0.117599 0.393006 0.011920 0.487308 -0.280925 -0.153350 -0.235399 -0.067391 0.133287 0.029372 -0.198531 -0.152612 -0.400109 -0.278637 0.130511 -0.472717 -0.327807 -0.078603 0.048941 0.330952 -0.011087 -0.062782 0.194746 -0.148669 -0.298430 -0.180347 -0.083852 0.484035 0.223411 -0.145379 -0.296868 -0.166344 0.565127 -0.769044 0.077704 -0.009909 -0.125121 0.316975 -0.085423 0.145443 -0.218055 -0.060973 -0.229737 0.040589 0.305075 0.403175 0.178507 -0.035037 0.327402 -0.142817 0.089663 -0.185151 0.130309 0.277943 0.159407 0.031189 0.490225 -0.834275 -0.123488 -0.432629 0.089947 -0.193639 -0.092895 0.296216 0.089286 0.359388 0.093905 -0.563563 -0.705755 -0.266396 0.150235 -0.535276 0.537055 -0.011162 -0.236435 0.067476 0.028626 0.098942 -0.223827 0.321131
tauncerador -0.106009 0.110125 -0.603979 -0.201716 -0.062175 0.329013 -0.310739 0.495811 -0.278132 0.123254 -0.141115 0.287780 -0.116719 -0.210952 0.074114 0.159582 -0.032944 0.564680 -0.098033 0.350050 0.345135 0.039966 0.299806 -0.079688 -0.054718 -0.324835 0.065473 -0.438456 -0.335752 0.672910 -0.141637 0.367256 -0.115248 -0.384619 -0.203436 -0.093795 -0.497912 -0.081955 -0.045991 -0.105326 0.296383 -0.156055 -0.254061 0.432491 0.352210 -0.207235 0.234785 -0.068559 -0.097857 0.296229 0.392645 0.015499 0.250786 0.523507 -0.062461 -0.117041 -0.082175 0.434415 -0.155092 0.017245 0.057675 0.476535 -0.147092 -0.004083 0.229664 0.261940 -0.224247 0.011186 0.019052 0.236549 -0.066276 0.068239 -0.141440 -0.078636 -0.490592 -0.100246 -0.409957 0.048821 0.367346 -0.081498 0.645745 -0.190084 0.669731 -0.152815 -0.324873 -0.017907 0.013690 -0.221901 -0.721996 0.210469 0.244906 0.571085 0.162214 0.177842 0.105366 -0.178764 0.362098 -0.584372 0.091991 -0.328143
pilarstewart -0.238526 -0.291270 0.196365 -0.080291 0.437806 0.021089 -0.123697 -0.109506 -0.379049 -0.627132 -0.245909 -0.278694 0.091787 -0.350237 0.064606 0.225371 -0.508056 0.219391 0.306254 -0.043861 0.038108 0.681613 0.247926 -0.015701 0.261759 -0.396375 0.377307 -0.611150 -0.301676 0.348919 0.309831 -0.034654 0.017446 0.193968 0.431616 0.157092 -0.635203 -0.410943 -0.275473 -0.037951 -0.200012 0.256541 0.177529 0.283020 -0.363831 -0.180137 -0.068478 -0.012626 -0.075483 0.429150 0.101164 0.116387 0.439770 -0.107843 0.133709 0.146731 -0.021465 0.032400 -0.083331 -0.131660 0.035216 0.113345 0.072093 0.360335 0.202631 -0.272385 0.059924 0.151717 0.126021 -0.841158 0.152537 0.139105 -0.093039 0.160863 -0.275739 0.193250 0.097892 0.246685 0.479634 0.037988 -0.135854 -0.380575 0.349370 0.265779 -0.461555 -0.197359 -0.386150 -0.403819 -0.296952 0.129810 0.553852 0.034782 0.341048 -0.075533 0.395861 -0.315583 0.045125 0.224849 -0.194047 0.330951
bethanyedwards 0.166024 -0.331140 -0.595527 0.047306 0.389922 0.056369 0.339713 0.511961 0.037058 0.066099 0.147662 -0.494337 -0.223520 0.163053 -0.023159 -0.303234 -0.125356 -0.056297 0.293552 0.380234 0.080456 0.654276 0.354195 0.196734 -0.115891 0.356242 -0.001857 0.028772 -0.694241 0.204908 0.138518 -0.225157 -0.019680 0.335323 0.029304 -0.286653 -0.432171 0.084262 0.248029 -0.247653 0.182005 -0.120325 0.200795 0.335437 -0.033925 0.111889 -0.434961 0.109620 0.124371 0.173010 -0.387060 0.332287 0.311282 0.171708 0.451171 0.303875 -0.568219 -0.077461 -0.116432 0.344493 -0.460375 0.092763 -0.371478 0.389339 0.191825 -0.002909 -0.010327 -0.407941 -0.558565 0.456623 0.094934 0.076102 -0.015588 -0.266123 -0.030384 0.511513 0.481011 -0.232609 0.009587 -0.495719 -0.452747 -0.564465 0.284905 -0.188439 0.137624 -0.204124 0.034792 -0.292819 -0.425624 -0.449451 -0.150650 -0.083932 0.169986 -0.027923 -0.207330 0.229326 0.020875 -0.170741 0.035671 0.103404
kaaba666 0.013816 -0.442458 -0.038432 -0.392240 -0.120078 -0.026668 0.496295 0.457331 -0.272782 0.291101 -0.117081 0.012821 -0.080333 0.146904 0.000846 -0.488530 -0.346128 0.282042 0.127525 -0.026259 0.212013 0.240257 0.405548 0.017035 -0.456089 0.120180 -0.183699 -0.271069 -0.031349 -0.617920 -0.582290 0.182783 -0.346988 0.131107 0.032745 -0.267547 -0.434443 0.003885 -0.679015 -0.316986 0.222679 -0.375642 -0.157260 0.167323 0.123590 0.125013 0.291620 0.311793 -0.828945 0.054569 0.308688 -0.186923 0.039490 -0.056410 0.139986 0.349536 0.015063 0.331125 -0.061911 -0.028427 -0.164079 0.025937 -0.005908 -0.319076 0.126100 -0.280892 -0.049716 -0.019816 0.028165 -0.242953 -0.356192 0.324477 0.645534 -0.188935 0.269696 0.367809 0.156194 0.213381 -0.098536 0.059934 0.144272 -0.035665 0.245778 -0.100437 -0.136005 0.209095 -0.072773 -0.450164 0.276935 0.314742 0.060360 0.092065 -0.153026 0.254782 -0.533325 0.117061 -0.568457 0.509174 -0.004442 0.409527
