867 100
derryck_mimbari 0.553069 0.139563 0.184059 -0.449230 0.045935 -0.188796 -0.493734 0.340445 -0.344816 -0.038769 -0.163608 -0.114278 -0.115311 0.205136 0.129331 0.572862 -0.028866 -0.150957 -0.380803 0.104689 -0.134366 -0.329181 -0.284717 -0.598202 -0.032761 0.390836 0.130266 0.145585 -0.028187 -0.132385 -0.467344 -0.095639 0.209471 -0.130654 -0.134226 -0.420946 0.438058 0.408175 0.048934 0.224198 -0.116830 0.106310 0.481169 0.026480 0.096848 0.299639 -0.002177 -0.084585 0.071535 0.089299 -0.256023 -0.175843 -0.207912 0.047608 -0.231357 0.471585 0.102702 0.482771 0.112559 0.192874 0.876197 0.394246 -0.282617 -0.030632 0.004644 0.090501 0.275458 -0.177483 -0.362393 -0.171129 -0.228256 -0.147235 -0.475502 0.040218 -0.498478 0.150109 -0.061353 -0.155408 -0.343461 -0.179741 -0.382284 -0.192291 0.171473 0.110055 -0.156759 -0.297726 -0.042852 0.206032 0.426282 0.033820 -0.154984 0.270447 0.298677 -0.514955 0.563266 0.054367 -0.341242 -0.101700 -0.020741 0.274200
afifichestclinic 0.291232 -0.191939 -0.147900 0.100675 0.005279 -0.202757 0.122335 0.124199 0.547209 -0.606611 -0.098405 -0.161824 -0.120539 -0.073785 -0.438438 -0.222275 -0.002957 0.198886 -0.101181 0.181455 0.302765 0.312728 -0.041482 -0.004532 0.124535 0.562058 0.290803 -0.135008 -0.344909 0.129407 0.268127 -0.246151 0.199949 0.009678 -0.660313 -0.243023 -0.116546 -0.001635 0.058325 0.203564 -0.151192 -0.552949 0.153351 -0.150314 -0.014212 0.457334 -0.020146 0.040239 0.170417 -0.092701 0.352960 -0.099932 0.445674 -0.076986 -0.055692 0.364735 0.213144 0.277024 -0.554403 -0.018907 -0.147357 0.658159 0.226001 0.821528 -0.248935 -0.102389 0.181424 -0.243434 -0.572443 0.245375 0.094068 -0.509642 -0.045472 0.191664 0.499666 0.286687 -0.092027 -0.252060 0.016928 -0.014934 -0.073453 -0.245419 -0.091347 -0.093584 -0.196848 -0.271610 -0.093857 -0.119659 -0.014360 0.650321 -0.251121 0.216599 -0.070495 -0.033504 0.373078 -0.255179 0.365938 -0.116064 0.396603 0.315968
lenoraclaire 0.206967 0.582333 0.203169 0.139825 -0.294227 0.040446 -0.266378 0.077617 -0.089867 -0.044479 -0.130811 0.228110 -0.444196 0.173804 0.069997 0.379644 0.088014 -0.619242 -0.134462 -0.170379 -0.220864 0.253407 -0.340140 -0.029586 -0.135454 0.367481 -0.061164 0.239073 0.216652 0.166960 -0.482282 -0.234668 0.315407 0.347165 -0.316319 -0.000151 0.313561 -0.184296 0.491094 -0.330443 0.229231 -0.362567 -0.382340 -0.104267 -0.017518 0.442621 0.085400 0.126502 -0.163943 -0.067160 0.043648 0.045698 -0.651353 -0.064771 -0.077201 0.105854 -0.107239 -0.044885 -0.003144 -0.259892 -0.341632 0.082999 -0.067623 0.509138 -0.563362 0.059565 -0.005121 0.275544 -0.429529 -0.083708 -0.227707 0.255474 0.093073 -0.449912 -0.324688 0.272595 -0.452725 -0.620668 0.007095 -0.470785 0.061045 0.036390 -0.064404 0.079403 0.093487 -0.125234 -0.115782 -0.277135 0.219973 0.573243 -0.381200 0.083911 0.364227 -0.305173 -0.062724 0.442639 0.229775 0.273514 0.399854 0.076768
amhnews 0.248684 -0.458216 -0.259475 0.023968 0.177544 0.352110 -0.282448 -0.057406 -0.081896 0.045563 0.029498 0.086914 -0.342559 0.086100 -0.047401 -0.097303 -0.202056 0.065533 0.289580 0.474162 -0.320575 -0.131010 -0.527779 -0.273558 0.130860 0.203415 -0.087943 0.309137 -0.094813 -0.075281 -0.010225 0.090881 0.128367 0.285780 -0.188025 -0.100399 -0.045955 0.363045 -0.125817 -0.372356 0.053278 -0.494861 -0.358940 -0.172759 -0.611946 -0.284635 0.199576 -0.115576 -0.198360 0.076087 -0.375820 0.158835 -0.095128 -0.040191 0.267199 0.027372 0.431058 0.422301 0.338280 -0.402599 -0.151857 -0.037086 -0.142942 -0.474141 -0.059433 -0.072475 0.565481 -0.059294 -0.232700 -0.415823 -0.058127 0.230473 0.621081 -0.306527 -0.238942 0.352421 0.103521 -0.356046 -0.548638 -0.163678 -0.149969 -0.422268 -0.248637 0.087602 -0.305148 -0.025689 0.034849 -0.284647 -0.077760 -0.106981 -0.304793 -0.351439 0.305055 0.527341 0.185524 -0.166884 0.393910 -0.286675 -0.520320 0.546236
diydanna -0.280401 -0.248783 0.283057 0.258725 0.038391 0.373199 -0.268992 0.091341 0.097643 -0.147199 -0.701591 -0.212266 -0.119309 0.252763 0.046266 -0.020341 -0.451809 -0.201087 0.380443 -0.357526 -0.243455 0.554289 0.224218 -0.114547 -0.236957 0.514894 0.062657 0.229576 0.479275 -0.257920 -0.427345 0.102095 -0.257784 -0.732479 0.280224 -0.267710 0.321953 0.077737 0.622241 0.420011 -0.041840 -0.036889 -0.077291 0.091397 -0.153569 -0.104031 0.146639 -0.185044 -0.528264 -0.591483 -0.223953 0.379355 -0.530404 -0.154160 -0.097957 -0.106994 0.148829 0.569209 -0.237733 0.172914 -0.030296 0.148591 -0.284464 0.274532 -0.041897 0.043484 0.097848 0.232961 0.273238 0.275855 0.234190 0.114048 0.129752 0.106053 0.338182 0.407677 -0.036821 -0.223942 0.307669 0.005871 0.008980 0.132796 -0.401301 -0.070487 0.106344 0.081512 -0.197513 0.205675 0.164573 -0.183521 -0.296487 0.285159 -0.149371 0.524845 0.273822 -0.205065 -0.310826 -0.370913 -0.082696 0.402578
chatoxxx 0.347980 0.306863 -0.070956 0.058842 -0.172021 0.126500 0.405859 0.680182 0.211626 -0.101606 -0.402211 -0.248781 -0.289128 -0.228381 -0.235096 0.060584 -0.390797 0.133886 -0.402428 -0.011246 -0.409672 0.285894 0.096209 0.585199 0.342834 -0.069377 -0.003922 -0.226406 0.476421 0.418328 0.135636 -0.311010 -0.383145 -0.071685 -0.541209 -0.590619 0.161085 0.006131 0.023519 0.239416 -0.282945 0.073263 -0.598065 -0.266963 -0.373674 -0.154143 0.031016 0.132594 -0.017697 0.408167 -0.411094 0.163725 -0.171767 0.396291 0.164692 0.581282 -0.128589 0.093707 -0.220749 0.015697 0.190650 -0.114601 0.046128 -0.092646 0.278368 0.044491 0.485121 -0.079826 -0.552000 0.238105 -0.113937 0.256095 -0.006886 0.162632 0.292448 0.020390 -0.211459 -0.625019 -0.287377 -0.011207 0.431399 0.443004 -0.041151 -0.177429 0.070408 0.130633 -0.193438 0.151305 0.027761 -0.237833 -0.287455 0.246918 0.070726 0.196475 -0.116991 0.167864 0.112170 -0.077118 0.634515 0.195427
doutorelias -0.255244 0.146173 -0.569740 0.077923 -0.076672 0.677818 0.098711 0.300983 -0.092905 -0.266175 0.308557 -0.114266 0.097581 -0.121144 0.042213 0.176403 0.039031 -0.056074 0.167565 -0.138270 -0.084216 -0.318882 -0.451751 0.380188 0.100311 -0.160462 0.065313 -0.366667 -0.004377 0.032248 0.079575 0.080225 -0.116412 -0.018906 -0.210781 -0.215606 0.606717 0.275244 -0.053282 0.377001 -0.114085 -0.177774 0.127451 0.378818 -0.237964 0.049149 0.243415 -0.258957 0.433641 -0.042460 0.151953 0.006131 0.245584 0.415732 0.151605 -0.116529 0.279350 0.262313 -0.424245 -0.043980 -0.496668 0.096513 0.070322 0.047837 0.158374 0.144510 0.237131 0.276709 0.235928 -0.212568 -0.272607 -0.088237 -0.013922 -0.867730 -0.031274 -0.050824 0.469985 -0.076511 -0.035290 -0.462609 -0.325593 -0.235299 0.013135 -0.142495 -0.040728 -0.014969 -0.027652 1.071052 0.389337 0.389815 -0.207717 -0.188392 0.303139 0.622588 0.452814 -0.301315 -0.109661 -0.201886 0.184712 0.084633
stayhealthier -0.283461 -0.237826 0.034188 0.185232 0.128480 0.162455 0.107224 0.333026 -0.276494 0.181898 0.049254 0.074593 -0.187879 0.215719 0.129824 -0.321955 0.403376 -0.249748 -0.255727 0.319404 0.047112 -0.383805 -0.207785 -0.558525 0.615714 0.655427 -0.008231 -0.313917 0.179253 0.162428 -0.123483 0.088555 0.115444 -0.243820 -0.146231 -0.193753 0.082115 -0.076523 0.088949 -0.022953 -0.280938 0.333082 0.138241 0.012507 0.618995 0.128989 -0.133082 -0.161914 0.029857 -0.411500 0.138861 -0.521465 -0.041193 -0.389104 -0.376748 0.382717 -0.176761 0.333328 0.251231 0.372326 -0.302391 -0.350412 -0.424342 -0.560101 0.481646 -0.235968 0.275330 -0.274333 -0.521855 -0.612796 -0.129594 0.174783 0.180128 -0.335166 0.050381 0.066549 0.021879 -0.183086 -0.172068 -0.332653 -0.220640 -0.153235 -0.105337 0.043377 0.469489 -0.047336 0.183634 0.574812 0.130174 -0.415972 0.078698 0.296984 0.318105 -0.140483 0.041388 -0.236441 -0.033112 -0.305365 -0.362422 0.284946
phwp -0.003972 -0.459323 -0.270005 0.103385 -0.175691 0.321465 -0.502209 0.338274 -0.091271 -0.320479 -0.142101 0.165872 -0.170396 -0.540160 0.028873 0.286631 -0.122918 -0.540128 -0.682506 0.307664 0.042955 0.102615 -0.437617 -0.366658 0.177494 -0.037014 0.355882 -0.196401 0.177030 0.317846 0.472164 -0.496506 -0.130528 0.190499 -0.288201 0.151258 -0.126265 -0.092652 0.128893 0.253724 -0.255217 -0.708545 0.084046 0.332114 -0.111054 0.358177 -0.393308 -0.129140 0.008305 0.046995 -0.273093 0.156973 -0.114890 -0.085730 -0.012906 0.092234 -0.193014 -0.150978 -0.022658 -0.110294 -0.019363 -0.401215 -0.030855 0.298655 -0.223351 0.413442 0.342607 -0.155244 -0.342706 -0.118536 -0.059215 0.353258 -0.137967 -0.100436 -0.192990 0.341728 -0.233661 -0.355686 0.142715 -0.242243 0.103881 0.080403 0.252369 -0.184922 0.458779 -0.305970 0.303248 0.068729 -0.064998 0.648834 0.132484 0.049914 0.084664 0.392089 -0.057922 0.308183 0.021428 0.740472 -0.327860 0.125736
paullevinson -0.043968 0.186538 0.204619 -0.117861 -0.103870 0.200244 -0.150239 0.489914 0.014515 -0.605510 -0.238570 -0.099021 -0.573596 -0.152680 -0.275732 -0.122892 -0.269980 -0.038601 0.002767 0.215968 -0.119344 -0.221922 0.193582 -0.300386 0.297960 0.448448 0.124538 0.306583 0.001960 -0.046791 -0.080164 -0.487703 -0.344825 0.115787 0.094832 -0.291195 -0.028134 -0.208062 -0.061167 -0.288585 0.106646 0.094236 0.218173 -0.041963 0.060569 0.374196 -0.310623 0.679058 0.148416 -0.343665 0.380744 -0.108779 -0.155421 0.223089 -0.136659 0.098138 -0.100724 0.440641 0.680540 0.441247 0.039446 -0.036337 -0.055860 0.072101 0.225533 -0.044498 0.617577 -0.257867 -0.127315 0.158113 0.057612 0.180539 0.331898 -0.030168 0.184727 0.161916 0.196120 0.004787 0.341260 -0.048966 0.223866 0.153268 0.270109 -0.467309 -0.103983 -1.015868 0.176126 0.326583 -0.152920 0.443557 -0.621901 -0.138553 -0.156760 -0.152795 -0.042380 0.162661 0.479260 -0.255817 0.420720 -0.426050
davidsonpowell 0.109908 -0.028240 -0.311716 0.236122 -0.426435 0.222325 0.175490 0.046032 0.288376 -0.316931 -0.532444 -0.101527 -0.788459 0.207170 -0.132569 -0.404472 -0.133960 0.194222 -0.030343 0.418243 -0.329733 0.373989 -0.269402 -0.469556 0.155437 0.039381 0.522226 0.185597 -0.258931 0.098421 0.219824 -0.057567 -0.640994 -0.227947 -0.406772 -0.485111 -0.028790 -0.056811 -0.304167 -0.114137 0.012510 0.119204 -0.133856 0.032353 0.113062 -0.427292 -0.367568 -0.126574 0.057515 -0.588717 0.422043 -0.010643 -0.226325 0.220727 -0.465514 0.295337 0.480657 0.183695 -0.114467 0.133237 0.258669 0.202394 -0.347156 -0.076969 0.310573 0.014544 0.005463 0.321058 -0.106243 0.261701 -0.134228 -0.036085 0.115424 0.214648 0.215221 0.251646 0.362733 -0.026113 0.364925 -0.504245 -0.132983 -0.075422 -0.194311 -0.055649 -0.461637 0.041062 -0.074145 -0.659288 0.131786 -0.549832 0.023396 0.088678 -0.080884 -0.218522 -0.038811 -0.098864 0.059579 0.151579 -0.193596 -0.775407
natatree -0.273941 -0.298259 -0.433084 -0.008614 -0.362128 -0.124839 0.061471 -0.091657 0.222587 -0.081970 0.089674 0.843228 -0.319118 -0.110943 -0.032211 -0.213648 -0.158845 -0.361712 -0.009028 -0.058798 0.032200 -0.400211 0.012957 0.003679 -0.129922 0.037296 -0.092246 0.077078 -0.055469 0.035113 -0.320167 -0.049035 -0.475123 -0.099223 0.217944 -0.283622 -0.084629 0.073934 0.073661 0.377952 0.460224 -0.761981 -0.028363 0.221710 0.122296 -0.063007 0.364676 0.116815 -0.201729 -0.361095 0.155531 -0.058556 0.267292 -0.066208 -0.502555 -0.323665 0.431331 0.222534 0.134954 -0.112586 0.047846 0.617048 -0.017534 0.534691 0.115514 -0.142538 0.289461 -0.157605 -0.402881 0.210037 0.079309 -0.355616 0.401884 -0.219670 0.028570 0.183195 -0.263843 -0.244295 0.338790 0.044175 -0.716951 -0.139939 -0.185455 -0.024278 -0.353192 -0.273010 0.317444 -0.194458 0.388622 0.177030 -0.453811 0.033416 0.395011 -0.455236 0.160859 -0.134156 0.026064 0.085476 -0.476098 -0.497562
marinaneira -0.638336 0.078215 0.412296 -0.121073 -0.069403 0.721868 -0.266224 -0.022486 0.130987 0.170584 -0.507592 -0.422329 0.229498 -0.398079 -0.015075 -0.141407 0.125610 -0.129656 0.535073 0.003685 -0.288482 -0.227599 -0.053527 -0.260742 -0.215227 -0.108058 0.137508 -0.130606 -0.220881 0.228483 -0.178854 -0.276911 -0.306901 -0.256991 -0.170346 -0.089137 0.080887 0.368409 -0.301443 -0.399444 -0.031333 -0.521808 -0.198753 -0.016713 0.045287 0.214336 -0.454855 0.363393 -0.274982 0.141033 0.210341 0.038273 0.625390 -0.251306 -0.035528 0.161127 0.066926 0.030465 -0.060551 -0.231559 -0.495703 -0.067805 -0.054581 0.215935 -0.080776 -0.369643 0.632462 0.335716 -0.627419 0.210038 0.171506 -0.210373 -0.010594 0.148013 -0.060595 0.170424 0.266073 -0.120741 -0.133410 -0.301999 -0.331224 0.215650 0.267377 -0.097167 0.099949 -0.527618 0.273277 0.053054 -0.143812 0.223029 -0.465510 0.434427 0.158631 -0.294465 0.270404 0.420479 -0.284796 -0.193484 0.081535 -0.050168
flatroy -0.369733 -0.410414 -0.392738 -0.038646 -0.246414 -0.677179 -0.126268 -0.295218 0.249219 -0.093692 0.059554 -0.215326 0.089164 0.019828 0.247993 0.198709 -0.183343 -0.250478 -0.201749 0.197426 -0.178936 -0.048790 -0.502987 0.015166 0.030116 0.456817 -0.096307 -0.228342 0.226288 0.547229 -0.217156 0.181312 -0.307241 0.049026 -0.637016 -0.082366 -0.044849 -0.441287 -0.048453 0.526292 0.082788 -0.470031 0.080004 -0.097235 -0.136363 0.026235 0.069304 -0.178411 0.149650 -0.640714 -0.429600 -0.442912 0.237164 0.068658 -0.088561 0.335788 -0.079046 -0.191220 0.016559 0.594659 -0.365818 0.395849 -0.302542 0.278316 -0.339556 0.025814 0.298112 0.197014 0.230766 0.351625 0.082835 -0.327925 0.145452 0.442535 -0.256122 -0.158077 -0.341169 0.249513 0.425114 -0.145460 -0.128269 -0.485863 -0.548205 -0.268350 0.224875 0.089616 0.034514 0.384847 0.363216 -0.075095 -0.199771 0.264495 -0.180131 -0.309935 -0.081383 -0.122413 -0.155494 -0.005633 0.480303 0.108893
simmeringdream -0.421471 0.332065 -0.002852 0.338474 -0.050538 0.521704 -0.335477 0.157446 0.031582 -0.316775 -0.935825 0.025517 -0.487032 0.124418 -0.224021 0.214290 -0.179549 0.059550 0.067101 0.167589 -0.469274 -0.021989 -0.203407 -0.083048 0.221649 -0.203923 0.028575 0.118966 0.378977 -0.136916 0.555650 -0.155895 0.103997 -0.347324 0.045346 0.270227 -0.678432 -0.276457 0.002537 -0.085555 0.060002 -0.172310 -0.277787 -0.127706 -0.336351 0.095560 -0.371501 -0.005674 0.198215 -0.570092 -0.023653 -0.198051 -0.318855 0.366897 0.355394 -0.164887 0.396883 0.193994 0.223147 -0.057450 -0.138582 -0.432404 0.031311 0.208554 0.083063 0.191103 0.276722 0.042351 -0.149539 0.328176 0.172383 0.689564 0.000422 0.036955 -0.236627 -0.064387 0.474414 -0.336837 -0.136106 0.026846 -0.230428 0.444377 0.252702 0.263299 -0.012781 -0.007246 0.026533 0.327946 -0.055610 -0.010701 -0.318788 0.316644 0.136194 -0.238243 0.125708 0.024269 -0.692939 -0.519892 0.337241 0.342496
kittyannemarie 0.206979 -0.004768 0.166582 -0.365346 0.229453 0.359062 0.116958 0.549775 0.451035 0.048023 -0.111662 0.067747 0.098272 0.519569 -0.805073 -0.211512 -0.069038 -0.156370 -0.409101 -0.522103 0.390422 0.008675 -0.229212 -0.326066 0.130934 0.250799 0.028121 0.243241 -0.032539 -0.089505 0.108998 -0.081791 -0.108088 0.003688 -0.475893 -0.090232 0.011147 0.265511 -0.125250 -0.304218 0.182419 -0.275868 -0.126834 0.048135 -0.198536 0.439900 0.066449 -0.669389 -0.224250 -0.049676 -0.126422 -0.064790 -0.081445 -0.888919 0.325800 0.108490 0.333912 -0.154867 -0.154254 0.179896 -0.139051 0.115061 0.453399 -0.117099 -0.399089 0.007870 0.314751 -0.039213 -0.263653 0.123737 -0.207706 0.203002 0.664354 -0.076535 -0.138063 -0.338661 -0.164357 0.289751 0.504198 0.071775 -0.619948 0.177420 0.222598 -0.213026 -0.066495 -0.513111 0.415609 0.115954 -0.096506 -0.014702 0.102713 0.089026 -0.041007 0.145962 0.026637 0.248124 0.068061 -0.541602 -0.100632 -0.010975
seducedmind -0.579855 0.273879 -0.053534 0.132792 -0.362334 0.550396 -0.020098 -0.014467 -0.023178 -0.686657 -0.363553 0.141278 0.177910 0.556329 0.031687 -0.584162 -0.092157 -0.382893 0.039751 -0.172241 -0.567062 -0.083493 0.264634 -0.272236 -0.295462 0.498234 0.063289 -0.267355 0.213662 0.164326 -0.231857 0.033279 0.228390 -0.278158 0.000675 -0.206200 -0.174948 -0.148952 0.064904 -0.032651 -0.075015 -0.150043 -0.537062 0.009472 -0.246305 -0.172490 -0.073268 0.090728 0.150833 0.082755 -0.120642 -0.175195 0.069535 0.025073 0.252480 0.115595 -0.290291 -0.252951 -0.299172 -0.180801 0.200453 0.051555 0.138226 0.165830 0.585641 -0.123665 0.597550 0.169562 -0.204415 0.180921 -0.546321 -0.226102 0.319837 -0.204454 -0.202955 0.304585 -0.115502 -0.612766 -0.026185 0.162049 -0.225884 -0.057611 0.292706 0.364080 0.055541 0.305648 0.326578 0.342005 -0.345291 -0.088993 -0.520446 -0.293949 0.017646 -0.012469 0.601258 -0.401832 -0.070750 0.312337 -0.523240 0.062669
iammrwizard -0.020449 0.392117 -0.509623 -0.072623 -0.048463 0.020517 -0.510146 0.225182 -0.417249 -0.022374 0.255510 -0.263658 -0.541695 -0.338892 0.083710 -0.274932 0.251226 0.037517 -0.162258 -0.102614 -0.227829 -0.038076 0.075418 -0.083438 0.232639 0.369098 0.575835 -0.161759 0.003965 0.152923 -0.218582 0.430690 0.292365 -0.217747 0.144197 -0.231276 -0.027796 -0.401546 -0.027435 0.116969 -0.057338 -0.450814 -0.017520 0.077177 -0.686689 0.287264 0.061770 -0.097167 0.360424 -0.036868 -0.194858 -0.152476 0.076534 0.004922 -0.260675 0.481893 0.012436 0.269056 0.479800 -0.004526 0.333957 0.223377 0.117306 -0.432653 -0.040085 -0.448085 0.087954 -0.364042 -0.085102 0.396080 0.164010 -0.257240 0.215988 -0.147092 0.333580 0.224132 0.040569 -0.087510 -0.431902 0.017491 -0.351040 -0.119668 -0.018053 0.376169 -0.359678 -0.145705 0.666689 -0.165702 -0.022940 0.366693 -0.494086 0.162766 0.436922 0.385304 0.387177 0.309001 0.138989 -0.465808 -0.208731 -0.379703
getouttamyroom -0.273186 -0.265261 -0.408104 0.070494 0.407503 0.143871 -0.072414 0.295436 -0.053688 -0.541568 -0.545018 -0.004393 -0.654907 -0.049602 -0.419142 0.031497 -0.662183 -0.451578 0.180608 0.113495 -0.080744 -0.325046 0.243175 0.321728 0.111657 0.226298 -0.285482 -0.431614 0.384845 0.271398 0.017854 0.730114 0.299918 -0.306666 -0.271201 0.046164 -0.223099 0.279827 0.139350 0.223084 0.340140 -0.037690 -0.256396 0.416858 0.145374 0.123135 -0.589765 0.150985 0.089354 -0.113194 0.136308 -0.009957 -0.464607 -0.136110 0.303937 0.044519 -0.005784 -0.277392 0.046498 -0.191813 0.027159 -0.042176 0.050985 0.236920 -0.389493 0.072521 0.170597 -0.077375 -0.048900 0.203634 0.068691 0.143016 -0.146923 0.332318 -0.289316 -0.047085 -0.096488 0.214344 0.619307 -0.204862 -0.013574 -0.011189 0.262155 -0.467165 0.664727 -0.024799 0.080136 -0.064890 0.135367 0.481140 -0.452103 0.077323 -0.051358 0.252013 0.119048 -0.622308 0.063537 -0.177783 -0.098001 0.161611
cynthiayildirim -0.281086 -0.016156 -0.296722 -0.181635 0.023935 0.464172 0.426132 0.195829 -0.015406 -0.488165 -0.321877 0.231506 -0.126456 0.210961 0.479989 0.487015 0.442956 -0.432182 -0.114915 0.199888 -0.079630 -0.245245 -0.506646 0.035844 0.187059 -0.796560 0.012580 -0.606080 -0.139185 0.179684 -0.208482 -0.275052 0.099138 -0.521437 0.415637 -0.465694 -0.230028 0.254114 0.048716 0.636452 -0.151286 -0.226711 -0.234200 0.023438 0.069733 0.095092 -0.042428 0.078270 0.123516 -0.233880 -0.276084 -0.236902 -0.462526 0.147736 0.242355 0.077825 0.635166 0.616936 0.225075 0.390645 -0.188254 0.224318 -0.166829 0.076071 0.117239 0.188633 0.221654 0.257328 0.014069 -0.374788 -0.250141 -0.139780 -0.157231 0.049053 -0.145239 -0.354478 -0.267549 -0.235416 -0.220491 -0.145255 0.182830 -0.321273 0.334049 -0.196344 0.045408 0.287920 -0.000930 -0.106991 0.157904 -0.158326 0.442340 0.242432 0.171080 -0.050482 0.296294 0.152015 -0.060257 -0.205209 -0.183167 -0.156144
brandeks 0.088385 -0.132757 0.514492 -0.322874 -0.340656 -0.078539 0.032536 0.250436 0.030519 0.095783 -0.168301 -0.208735 0.024314 -0.134729 -0.021274 0.204891 -0.165947 -0.204105 0.222857 -0.014141 -0.503662 0.591779 -0.210343 0.056687 0.277050 0.368486 -0.031220 -0.074676 -0.284351 0.024641 0.057211 0.186097 -0.143752 -0.439963 -0.213738 -0.101699 0.015929 -0.275698 0.255322 0.115425 0.183523 -0.008788 0.035337 0.013860 0.177024 -0.196963 -0.232967 0.273872 -0.389343 0.616882 -0.798010 -0.481241 0.304819 -0.169870 0.166547 -0.285622 0.289979 0.167929 0.399275 -0.286326 0.019533 0.134441 0.127316 -0.140330 -0.456366 0.205247 0.336540 -0.177336 -0.278309 0.059676 0.221098 -0.135007 -0.037062 0.131962 -0.080629 0.575385 0.283077 -0.315777 0.661490 -0.401978 -0.299566 -0.085588 0.013278 -0.539999 -0.329184 -0.444903 0.305759 -0.375305 0.149016 -0.012736 -0.730698 -0.016343 0.199230 0.131406 0.102715 -0.139801 0.094889 -0.498418 0.357453 -0.024480
misakoshiro -0.087588 0.234719 -0.183489 0.303916 0.197116 0.201464 -0.119621 -0.037115 0.105235 -0.527618 -0.366270 -0.315677 -0.008509 0.465731 -0.174667 0.514130 0.280300 0.001251 -0.003417 0.430739 -0.256958 0.008247 -0.154966 0.540636 -0.182370 0.315545 -0.240809 0.122520 0.430183 0.138557 0.156454 -0.239678 0.360582 -0.063305 -0.355117 0.430987 0.738804 0.243665 -0.299796 0.151718 0.069564 -0.262476 0.333661 -0.327597 0.152751 0.111588 0.137076 0.236419 -0.052708 0.643693 0.199059 0.101238 0.137537 -0.623124 0.023691 0.448751 0.550506 0.439174 0.252370 0.120894 0.065601 -0.369522 -0.350782 0.371097 -0.183061 -0.309436 0.142959 0.107913 -0.063897 0.205042 0.021886 -0.508794 0.282815 0.055138 0.165967 0.009704 -0.103391 -0.179390 -0.097479 0.303670 0.000446 -0.153699 0.042916 -0.544362 0.626830 -0.073571 -0.058729 -0.280974 0.133360 -0.426019 -0.225483 0.295444 0.292714 0.161358 0.230653 -0.006870 0.278490 -0.417252 0.165939 0.079847
edisong 0.243940 -0.326420 -0.086777 0.291365 -0.589975 -0.515429 -0.277040 -0.195370 0.371408 0.274564 -0.203322 -0.344784 0.181172 0.093841 -0.162668 0.155155 -0.432433 0.105678 -0.371430 -0.145342 -0.106578 0.009514 -0.225238 0.316697 0.458683 0.219969 -0.064056 -0.234044 -0.074061 0.202339 0.068467 -0.125997 -0.266296 0.055907 0.152339 -0.019555 0.011952 0.536060 0.314770 -0.156507 0.436153 -0.322622 -0.089404 0.272706 0.242696 0.348421 -0.171015 -0.444724 0.220356 -0.342860 -0.697164 0.040721 -0.184516 0.504872 -0.083173 -0.090558 0.164191 -0.056007 -0.474253 -0.035483 0.089534 0.131456 -0.167685 0.045429 -0.414422 0.020122 0.172870 0.232259 -0.363562 -0.576248 -0.410432 0.121158 0.313088 0.073158 -0.591950 -0.205862 -0.140036 -0.371818 -0.344488 -0.023628 0.137202 -0.135673 -0.357097 -0.308511 0.103075 0.113072 0.346849 -0.026710 0.387634 0.062379 -0.061372 0.035221 0.187513 -0.329699 -0.282602 0.070334 0.518373 -0.438126 0.478402 -0.390019
riximmixir -1.176936 0.113754 0.203962 0.001635 0.139094 0.252154 0.149678 -0.219193 0.094300 0.007960 0.077325 -0.182756 -0.563571 0.083550 -0.008800 -0.034816 0.065213 -0.797339 -0.276875 0.258829 0.532052 0.192847 -0.210147 0.250370 -0.079180 -0.137137 0.126056 -0.238982 0.237246 -0.348341 0.287221 0.422663 -0.614010 0.012161 0.254732 -0.111712 -0.006394 0.327217 0.157312 0.286573 -0.094467 -0.463856 0.005966 0.170544 -0.288833 0.296406 0.290426 0.241224 0.116160 -0.325964 -0.333617 -0.070802 0.064068 0.023616 0.080268 -0.077173 -0.088293 -0.217416 0.039974 -0.601399 0.377402 0.170464 -0.269261 -0.120571 -0.317350 -0.191664 0.300815 0.153901 -0.135254 -0.004638 -0.213210 0.257531 0.506461 0.323215 -0.156852 0.082422 -0.216736 -0.002276 -0.263567 -0.488548 -0.130042 -0.080156 -0.057215 -0.510860 -0.346500 0.124533 0.092777 0.421487 -0.028959 0.161681 -0.134780 0.452216 -0.184221 -0.160451 0.433430 -0.758911 0.001379 -0.170517 0.000883 -0.156431
amirirani59 -0.178711 -0.029061 0.262766 -0.328809 0.043290 -0.037465 0.321685 0.322734 0.085560 -0.177552 0.146232 0.193190 0.039044 -0.131812 -0.132374 -0.227491 0.424150 0.460442 0.000950 -0.059114 -0.269525 -0.263602 0.556801 -0.219152 0.471293 0.633923 0.158546 0.333707 0.090413 0.121618 0.327306 -0.411859 0.270572 0.067587 0.248598 -0.236625 0.264189 0.308850 0.286782 0.241659 0.340893 0.236965 0.120121 0.202964 -0.159210 0.329461 0.343989 0.118479 0.194572 -0.262475 -0.434821 -0.541037 -0.052586 -0.125635 0.203637 0.242223 -0.067468 0.442378 -0.390951 -0.049096 -0.105873 -0.317805 0.286985 0.384707 -0.082256 -0.112753 0.437574 0.454972 -0.012373 0.091704 -0.005399 0.160866 0.419800 0.355840 -0.208598 -0.054286 0.260676 -0.575763 0.296112 -0.326464 -0.083596 -0.709021 -0.091582 0.274856 0.273673 0.211125 -0.174368 -0.336424 0.083496 0.119039 -0.312893 0.532615 -0.055687 -0.087542 -0.223507 -0.323742 -0.536750 0.160519 0.622371 -0.270523
solo_kun -0.640161 -0.009649 -0.427541 0.336290 0.089829 -0.057829 0.375192 -0.057815 0.479934 -0.337154 0.094880 0.025954 -0.131313 -0.411362 0.197534 0.257451 0.188612 -0.469665 -0.024469 -0.219765 -0.497269 -0.187121 0.077730 0.588327 0.332106 0.105425 0.341067 0.050884 0.073879 0.345717 0.271533 0.140294 0.267813 0.151178 -0.060505 -0.553333 0.560573 -0.459656 0.133400 0.222384 0.084692 -0.073227 -0.013080 0.348059 0.214790 0.322782 0.278285 -0.547836 0.349924 0.248284 -0.022509 0.126532 -0.089248 -0.688937 -0.234430 0.269927 0.202005 -0.164442 0.293784 -0.226765 0.277965 0.046806 0.117925 0.073926 0.049461 -0.455411 0.184128 0.227286 -0.176845 0.190297 -0.064963 0.208918 -0.408219 -0.388154 -0.277204 -0.276445 0.290992 0.150118 0.409619 -0.130843 -0.022105 -0.058505 -0.334439 -0.314168 0.126905 -0.505479 0.544416 0.397347 -0.123214 -0.210187 0.022664 0.300489 0.252744 -0.358300 0.271739 0.111615 0.067768 -0.207867 -0.352195 -0.068866
princetonwashington 0.326778 -0.156411 -0.066494 0.210083 -0.291258 0.273580 0.177339 -0.386082 0.310542 0.004895 0.423453 -0.397548 -0.269881 0.230861 0.076608 0.169437 -0.002899 -0.185894 -0.691285 0.114860 -0.340574 -0.119824 0.085704 -0.242109 0.496190 0.264637 -0.252836 0.294565 -0.135377 0.011247 0.280596 0.419329 -0.442519 -0.210629 -0.177863 0.042504 0.051378 0.294536 0.207646 -0.301759 0.044058 -0.506370 0.156861 0.050681 0.335622 0.662697 0.140359 -0.122229 0.038699 0.327352 0.059326 -0.104941 0.277991 -0.877528 0.092936 -0.049218 0.116360 0.346951 -0.000107 -0.537484 0.153385 -0.257055 0.172254 0.006028 -0.625124 0.275210 0.269607 0.151694 0.068437 0.459363 -0.292790 -0.004888 -0.118383 -0.127759 0.129289 -0.080856 -0.391797 0.113999 0.021720 0.028198 -0.206336 -0.115753 0.114868 -0.473795 0.048034 0.037293 0.055115 -0.285688 0.393489 -0.272977 -0.641351 0.186953 0.152508 0.290295 -0.093739 -0.180593 -0.258161 -0.416612 -0.065662 -0.094053
salix129 -0.344914 -0.042177 0.079014 0.414861 -0.449221 -0.750538 0.515982 0.540456 0.073985 -0.151183 -0.138635 -0.109133 -0.150563 -0.627391 0.309468 0.379996 -0.013099 0.407438 -0.385290 -0.491229 -0.206560 -0.376387 -0.375950 0.395567 0.079878 -0.117773 -0.052760 -0.569620 -0.215682 -0.052971 0.585321 0.054095 -0.441707 -0.259632 -0.555293 0.055355 0.083025 0.141868 0.195579 0.007426 0.302017 -0.612442 -0.069327 -0.040842 -0.311735 0.110081 -0.188938 0.111151 0.090284 0.078099 -0.052082 -0.162991 0.040729 0.035330 0.419513 0.404525 0.379528 -0.182747 0.242754 -0.052342 -0.430190 0.107783 0.283257 0.121341 -0.376832 0.185734 -0.013958 0.037790 -0.307873 -0.083671 -0.669809 0.061958 0.335477 0.110592 -0.042019 -0.023121 0.147522 -0.160178 0.300754 -0.014092 -0.224458 -0.272659 -0.175540 -0.230424 -0.279110 -0.350861 0.065141 -0.680740 -0.003917 0.074099 0.232794 -0.134950 0.192361 -0.214651 0.120357 -0.213583 -0.172134 -0.246459 -0.191004 0.197779
vees -0.251612 0.002920 0.170983 -0.390144 0.015151 0.382218 0.140421 0.214058 0.267359 -0.150125 -0.336991 0.042061 -0.314415 0.490529 0.157295 -0.079190 -0.031463 0.001859 -0.068468 0.349363 0.110150 0.132744 -0.732000 -0.371268 0.186302 0.010971 0.259362 0.157462 -0.260275 0.071683 -0.066858 -0.186183 -0.224317 0.276781 -0.588632 -0.350819 -0.123859 -0.176394 0.371534 0.121917 0.126986 -0.169192 -0.182080 0.040078 -0.058776 -0.005138 0.195193 -0.277009 0.384367 -0.684970 0.012342 -0.190138 0.174917 -0.092210 -0.050823 0.203629 -0.141860 0.085540 -0.184183 0.406635 0.165046 -0.376748 -0.114933 0.428163 -0.379747 0.216809 0.430548 0.276602 -0.063046 0.307395 -0.438978 -0.133067 -0.051680 -0.065368 -0.466352 -0.438264 0.286264 0.094812 0.188464 0.041181 0.266180 -0.919612 0.063642 0.457789 -0.037039 -0.204494 -0.432155 0.139455 0.186966 -0.220048 -0.200234 0.144446 0.606400 0.311440 -0.686676 -0.065624 0.159064 -0.149458 -0.133743 -0.064824
geospart -0.194654 -0.134394 0.105491 0.359224 0.083306 0.095906 0.038157 -0.041230 0.320982 -0.360207 -0.699626 0.142619 -0.544000 0.192865 -0.155642 -0.109961 0.453221 0.105268 -0.105043 0.071359 -0.199970 -0.114044 0.200402 -0.371337 0.121255 -0.214228 -0.057708 -0.285789 -0.030479 -0.097543 -0.103081 0.202090 -0.222137 -0.742256 -0.520447 0.251729 0.129291 -0.452401 0.056187 -0.105067 0.216907 -0.848394 0.422166 0.134557 -0.010071 -0.046468 0.402089 -0.081384 0.006097 -0.296726 -0.140210 -0.470874 0.573852 -0.072170 -0.364409 -0.327774 -0.505382 0.463108 -0.278621 -0.008815 -0.525782 0.011406 -0.427042 -0.620925 -0.298127 0.063681 0.229715 0.338885 -0.012875 0.160241 -0.072975 0.175625 -0.078187 0.270081 0.021663 -0.042440 -0.116071 -0.100124 -0.206869 0.095480 -0.334920 -0.320739 0.173360 -0.213372 0.148299 -0.677473 0.310245 -0.323397 0.122441 0.060548 0.025302 0.064420 -0.228683 0.349730 0.269900 -0.075928 0.114142 -0.026265 -0.174685 0.261369
jasonwert -0.002345 0.249490 -0.178853 -0.036875 -0.787362 -0.286462 -0.489631 0.234138 -0.260892 -0.216283 -0.003897 -0.100237 0.277028 -0.122781 0.155971 -0.130562 0.352095 -0.743090 -0.500333 0.291689 -0.375776 -0.661029 0.470032 0.029813 0.025689 0.452107 0.143646 -0.002574 0.039998 -0.267145 -0.245915 0.353711 -0.192695 -0.388780 -0.345757 -0.079861 -0.203728 0.036889 0.138976 -0.250726 -0.171626 -0.251101 -0.156943 -0.272921 0.390243 -0.067912 -0.005134 -0.164481 0.468024 -0.127118 -0.133440 -0.083952 0.017236 0.035651 -0.315978 0.635257 -0.041850 0.218682 -0.007436 -0.504240 0.168160 0.011942 0.062738 0.070439 -0.327996 0.295183 0.052594 0.342645 0.384267 -0.064537 -0.235318 0.219499 0.502645 -0.033166 0.290204 0.119705 -0.101815 -0.878858 -0.440999 0.006092 -0.421929 0.425073 -0.153895 -0.093703 0.117441 -0.041167 0.204458 0.058169 0.267501 -0.028732 0.113835 0.404404 -0.075357 0.124928 0.418519 -0.397072 -0.118494 -0.067746 0.171432 0.155177
bahroma -0.553675 -0.427798 -0.069637 -0.138087 0.173534 0.231717 -0.290795 0.031285 0.022206 0.081753 -0.112475 0.306107 -0.251230 -0.033128 -0.056890 0.324277 -0.511901 -0.216996 -0.194245 -0.485114 -0.060613 -0.569890 -0.397921 0.224499 -0.481544 0.409364 -0.342127 0.330422 0.581593 0.218929 0.306561 -0.503767 -0.105274 0.249065 -0.085015 -0.129811 0.268433 -0.439506 0.147018 -0.375289 0.519744 -0.120040 -0.138366 -0.083006 -0.259079 -0.188481 -0.454515 -0.367365 0.103878 0.137259 0.178284 -0.436752 0.071963 -0.354563 0.230748 0.381261 -0.379268 -0.008031 -0.016296 0.031954 0.165006 0.171073 -0.363316 0.465555 -0.412070 -0.015578 0.215762 -0.016183 0.187117 -0.178844 -0.567956 -0.144661 0.049830 -0.502414 0.130880 -0.048361 -0.019846 0.131061 -0.058508 -0.400220 -0.230584 -0.193150 0.277941 -0.142901 0.090302 -0.368466 0.151111 -0.480001 0.466084 -0.304621 -0.333761 -0.398590 -0.376244 -0.032147 0.028911 0.256865 -0.226314 -0.133980 0.122150 -0.285656
taiwanbrown 0.153686 0.073220 0.124953 0.036226 -0.691046 0.118917 -0.258749 -0.079237 0.395896 -0.326284 0.126347 0.288078 0.077372 -0.082777 -0.141004 -0.199905 -0.093742 -0.375377 -0.298176 -0.006457 0.009164 -0.117084 -0.499978 0.063892 0.082990 0.239414 0.001947 -0.073276 -0.220761 0.310899 0.176657 0.427314 0.405024 -0.327670 -0.276065 0.063981 -0.034417 0.135547 -0.009437 -0.205144 0.543797 -0.246637 -0.413707 -0.390945 0.021931 0.088958 0.432197 -0.262111 0.209520 -0.040360 0.031471 0.176692 -0.202076 -0.220144 0.103112 -0.075696 -0.104424 0.833944 -0.149217 0.191854 -0.402016 -0.431165 0.138760 -0.014822 0.050983 -0.186771 0.674988 0.323435 -0.203442 -0.090077 -0.220179 0.017567 -0.057822 0.249315 0.302147 0.486118 0.709704 0.090795 -0.425565 0.428105 -0.310268 0.026531 -0.115529 -0.668543 -0.134112 -0.043625 -0.088166 0.148481 0.129203 -0.588887 0.129981 -0.117891 -0.623808 -0.020041 0.205318 0.275732 -0.150797 -0.457715 0.002034 0.398068
davidru -0.216349 0.049284 -0.043505 -0.189814 -0.126399 0.840963 0.582411 -0.497945 0.223152 -0.169849 0.120548 -0.015258 0.072371 0.162481 -0.435020 -0.022366 -0.354357 0.430346 -0.361349 0.381122 -0.204807 -0.105817 0.182467 -0.013646 0.236962 0.115796 0.064428 0.500098 -0.246037 0.639677 -0.142825 0.082979 0.460434 -0.663925 -0.041224 -0.201106 0.373692 0.034830 -0.028053 0.353999 -0.003219 -0.278272 -0.061569 -0.287863 -0.234064 0.275101 -0.118369 0.087931 0.413420 -0.175618 -0.351819 -0.357999 -0.499317 -0.159332 -0.194739 0.126719 -0.056619 -0.173440 -0.237818 0.214257 -0.302277 0.237303 -0.159815 -0.261740 -0.824283 0.010872 -0.293178 -0.215173 -0.020253 -0.287660 -0.004716 0.039126 0.208798 0.096160 -0.271942 0.170154 -0.554569 -0.008505 -0.146136 -0.040490 0.283128 0.055222 -0.339423 0.133306 0.002701 -0.429799 0.293496 -0.271932 -0.174546 -0.088308 -0.370764 -0.525498 0.180912 0.125015 0.369228 0.461869 0.083756 -0.171928 -0.181374 0.125054
backupbrain -0.280467 0.295936 0.074186 -0.258577 0.297821 -0.060221 -0.540680 0.440952 0.156268 0.005798 -0.283635 -0.045853 -0.378770 -0.472491 0.081049 0.331959 0.107593 -0.164381 -0.429008 -0.462482 -0.162999 0.077641 0.183967 -0.217303 0.119117 0.579593 0.143092 0.215138 -0.292300 0.097587 0.304546 0.258900 0.042620 -0.304241 0.481316 -0.049883 0.287218 0.174010 0.162325 -0.046056 0.119825 -0.149285 -0.146809 -0.481638 0.049758 0.459515 -0.237398 -0.060962 0.409397 0.045629 -0.131914 0.070707 0.427464 -0.386101 -0.163254 0.020009 -0.248056 0.211594 0.449709 0.174935 -0.522013 -0.487825 -0.538677 0.039506 -0.071979 -0.378444 -0.479203 0.249020 -0.432585 -0.295705 0.137459 -0.222214 0.173287 -0.047186 -0.038353 -0.022699 -0.484961 0.213934 -0.057633 -0.292236 0.052307 -0.150443 0.098293 -0.334245 0.148547 0.140568 -0.076082 -0.347465 0.171807 -0.613765 -0.415978 0.189991 -0.866420 -0.154677 -0.011522 0.447644 0.370111 0.049532 0.217730 0.042382
empirechromeshop -0.726616 0.430632 0.377909 -0.310590 -0.356233 0.132031 -0.343303 0.290284 0.583701 0.115419 -0.185847 0.420834 -0.481518 -0.722691 -0.150329 -0.284049 -0.144111 -0.117909 0.255328 -0.122695 -0.418056 -0.769183 -0.232301 0.226903 0.451545 -0.098636 -0.108687 -0.074435 0.458483 0.259957 -0.176175 -0.238540 -0.035479 0.271606 0.031542 -0.211446 0.213743 0.097769 0.184997 0.169693 0.170989 -0.265733 -0.049907 0.101152 -0.084115 0.486496 -0.139317 0.494548 0.286729 -0.444146 -0.036496 0.333807 0.040270 0.163843 -0.091916 -0.142162 -0.135956 0.207865 0.079679 -0.172293 -0.197295 -0.242274 0.563136 -0.107743 -0.343489 0.057581 0.183270 -0.199438 -0.264252 0.205595 -0.310312 0.134525 -0.392343 0.082727 -0.008633 0.064379 -0.336274 0.305556 -0.132202 0.065145 0.199977 -0.168646 -0.294361 0.257433 0.148485 -0.457842 -0.516212 0.058276 0.252071 -0.031164 0.023973 -0.303140 -0.167744 -0.238802 0.508173 0.315072 -0.516745 -0.107380 0.425676 0.287612
finraz -0.120661 -0.180026 -0.448278 0.073637 0.098752 0.620714 0.371480 0.179749 -0.070764 0.184609 0.068215 -0.337301 -0.245024 -0.178029 -0.374484 -0.124753 0.416508 -0.348547 -0.191090 0.178562 0.067585 -0.228311 0.025398 0.161225 -0.301291 -0.092532 -0.038114 -0.039299 0.435227 -0.174083 -0.212265 -0.025272 -0.351623 -0.227809 0.010931 0.251306 0.323363 -0.087037 -0.338343 0.602264 -0.083019 0.046729 -0.115921 0.348673 0.204686 -0.313439 0.156603 -0.453408 0.370801 -0.104153 -0.696193 0.235194 0.256269 -0.156130 -0.105830 0.557629 0.016933 0.178855 0.055342 0.153669 -0.693188 0.253424 -0.157463 0.214330 -0.375401 0.163573 0.086979 0.324336 -0.268982 0.091942 -0.196662 0.292003 -0.303310 0.267283 -0.259754 0.190566 0.041803 -0.197895 -0.749412 -0.108786 0.049123 -0.234974 0.162577 -0.227499 -0.319882 -0.475941 0.055894 -0.525318 0.025086 0.004166 -0.669639 -0.231113 0.283937 -0.161333 -0.023489 0.207178 0.411366 0.399989 0.181923 0.066759
sethd8 -0.424889 0.058528 0.225188 0.501872 0.013335 0.675017 0.034492 0.543666 0.301098 -0.747498 0.195231 -0.117121 0.507965 -0.319733 0.186659 -0.004299 -0.215153 -0.522304 -0.310650 0.110448 0.437807 -0.226537 -0.397194 -0.196577 0.345478 -0.243029 -0.306167 -0.667113 -0.006227 -0.360606 0.066828 -0.231718 -0.129769 -0.344037 -0.182537 -0.015101 0.237049 0.006641 -0.218227 -0.048197 0.524601 -0.051963 0.318098 -0.016563 0.121402 0.506846 0.027879 0.136232 -0.266527 -0.326515 0.389470 0.236657 -0.249957 0.296201 -0.103722 0.170435 -0.039580 0.125416 0.174281 -0.130978 0.228065 -0.381977 0.034297 -0.039930 0.263824 -0.305496 0.150210 0.647058 -0.244871 -0.084823 0.024621 0.078190 -0.149237 0.224339 -0.336439 0.077491 0.019542 0.040282 -0.208726 -0.228066 -0.163730 -0.101868 0.123998 -0.007016 -0.557506 0.285931 -0.064385 -0.546947 0.222751 0.202063 -0.284583 0.092103 -0.180167 0.024495 0.260873 -0.039346 -0.454047 -0.684752 -0.100047 0.036351
nathanchase 0.475632 0.295917 -0.076745 -0.220940 -0.035621 0.376371 -0.120959 0.443484 -0.065504 -0.176498 0.128616 -0.124363 -0.191852 0.286520 0.297170 -0.051113 0.246316 -0.429843 -0.259730 -0.145082 0.208363 -0.567451 -0.347052 0.359518 -0.345971 0.538579 -0.201019 -0.052258 0.240101 -0.022260 0.396563 -0.006995 0.386893 -0.153431 -0.020168 -0.366466 -0.095179 -0.405837 -0.699988 -0.129398 -0.211441 -0.177595 0.066650 -0.027771 -0.232371 0.093984 -0.113022 0.467982 -0.035963 -0.180669 -0.375574 0.353760 -0.171398 -0.120343 -0.033390 -0.059868 0.099833 0.061957 0.068305 -0.335075 -0.345238 -0.021628 0.546297 0.665384 -0.243980 0.198529 0.349827 0.348541 0.079617 0.277306 0.045848 -0.026456 0.308312 -0.451620 0.334688 0.225615 0.543105 0.372871 -0.301438 -0.111324 -0.172416 -0.251696 -0.294035 -0.366637 0.046137 0.051115 0.031543 0.330059 0.908569 -0.005724 -0.057178 0.229042 0.049003 -0.506218 -0.039764 0.159485 0.182184 -0.141406 -0.400621 0.226912
texasgirljackieb -0.080823 0.656955 -0.344456 0.221030 -0.260249 -0.071615 0.141478 0.449922 0.189620 0.019600 0.134898 0.251297 -0.239550 0.063673 -0.036164 0.858329 0.103460 -0.461820 -0.122464 -0.107755 -0.186924 -0.061155 0.166395 -0.395728 -0.154003 -0.254160 0.212762 -0.388891 -0.108989 0.232212 0.263540 0.098567 -0.491292 0.023650 0.101772 -0.132845 -0.011812 0.186292 0.112275 0.101198 -0.224311 -0.864805 0.513006 0.097688 0.144213 0.544124 -0.055725 0.193125 0.038996 -0.096420 -0.045256 -0.269797 0.129493 0.444300 0.077974 -0.383026 0.484048 0.166004 0.026139 -0.277887 -0.269616 -0.380636 -0.233799 0.059199 0.327999 0.635150 0.668806 -0.254799 -0.053686 0.188980 -0.080584 0.181348 0.197409 -0.155891 0.254706 0.125881 0.069052 0.316505 -0.152089 -0.209618 0.102719 -0.108417 -0.102211 -0.361151 0.484807 -0.116980 0.410563 -0.017674 0.385514 -0.172521 -0.134726 0.200418 -0.043794 0.127994 0.281899 -0.192851 -0.060410 -0.404907 0.121288 0.586831
gothicpotato 0.162521 -0.269030 0.079183 -0.156379 0.270003 0.123023 0.122882 0.243736 -0.097613 -0.542962 -0.355581 -0.473664 -0.284541 0.012604 0.668310 0.169804 0.235385 -0.420509 -0.373162 -0.254256 -0.276440 0.365762 -0.039474 0.153856 0.559272 0.040920 0.010367 -0.288892 0.276575 -0.216356 0.109327 0.186220 -0.556204 0.046653 0.369793 -0.378363 0.069556 0.019905 0.001695 -0.214319 0.138781 -0.508589 0.090231 0.049327 -0.289239 0.061445 -0.169240 0.148019 -0.219375 -0.014326 -0.096581 0.102097 0.326781 -0.392343 -0.318149 0.073322 -0.150702 -0.478190 -0.281561 0.073713 -0.105937 -0.098948 0.032930 -0.132738 -0.265312 -0.802646 0.192066 -0.034619 -0.068463 -0.105377 -0.150225 0.205843 0.041649 -0.434284 -0.073873 0.424948 -0.568247 -0.326106 -0.211196 0.081047 0.040304 -0.492581 -0.131141 0.324861 0.373901 -0.033316 -0.100601 0.265836 0.291837 -0.450774 0.318708 0.543814 -0.244899 -0.072042 0.267795 0.527717 -0.389819 -0.520467 0.379897 -0.246208
bliitzdesigns 0.116918 -0.056672 0.237735 -0.071267 -0.132391 0.259445 0.548146 -0.136632 0.352385 -0.286339 0.000942 -0.086062 -0.023106 -0.321983 0.121589 0.035795 -0.130977 -0.302147 -0.114288 -0.381329 -0.420600 -0.470908 -0.231559 0.312253 0.366277 0.161011 0.054778 0.192172 -0.081198 0.444101 -0.086023 -0.371010 -0.375549 -0.261000 0.419537 -0.336165 -0.157463 0.017292 0.208212 -0.015090 0.272687 -0.115500 -0.167845 0.091343 -0.001754 0.270499 -0.193508 -0.083966 -0.037116 -0.113814 -0.643118 0.145022 0.443389 0.179132 0.257993 0.010210 0.104850 0.612924 -0.173531 0.207417 -0.260294 0.087766 -0.117297 -0.104997 -0.298861 -0.049347 0.177111 0.043030 0.331325 -0.390638 0.198628 -0.376190 0.000747 0.208552 -0.352048 -0.429111 0.471826 0.460360 -0.066936 -0.528697 -0.455934 -0.494687 0.365566 -0.293883 -0.101441 -0.116977 -0.415729 -0.135486 0.239518 0.273555 -0.383715 -0.248444 0.124823 -0.258216 -0.418392 -0.124732 0.058367 -0.867258 0.079703 -0.014781
bradfitz -0.137931 0.431073 -0.383576 -0.113901 0.297842 0.653836 0.306272 0.392965 -0.053369 -0.394248 -0.476283 0.563434 0.033081 -0.027120 0.177908 0.156045 0.239601 0.104521 -0.093737 0.197596 -0.079256 0.261650 0.187000 0.000338 0.358228 0.265230 -0.386728 0.528388 0.146871 -0.051714 0.430579 0.053564 0.034346 0.075167 -0.251679 -0.187740 -0.289358 0.281598 0.177705 0.447137 0.227190 -0.002358 -0.031228 0.431907 0.005825 -0.013821 -0.209609 -0.289291 0.383476 0.344088 0.026763 -0.307282 -0.499992 -0.321720 0.338571 0.343043 0.829227 -0.027498 -0.011336 0.005081 -0.065477 -0.085355 0.068855 0.031117 -0.080211 0.177795 0.099451 0.186703 -0.158321 -0.266571 -0.294735 0.629395 -0.240936 -0.134422 0.043926 0.583826 -0.594139 0.011430 0.186830 -0.531614 0.224869 -0.490716 0.309741 -0.145925 -0.058151 0.015238 0.185527 -0.072562 0.150360 -0.550564 0.012648 0.359274 -0.410906 -0.194699 0.170161 -0.355729 -0.069130 0.197499 -0.161575 0.148456
polvostelar 0.370998 -0.225355 -0.363194 -0.006190 0.029027 0.351899 0.310220 0.159680 0.195031 -0.335708 -0.501750 0.095360 0.089993 -0.259994 -0.185311 0.126203 0.242807 -0.639413 0.159097 0.128680 -0.488142 -0.084851 0.251435 0.058994 0.195593 0.275137 -0.529779 0.589068 -0.229689 -0.045237 0.167473 -0.345446 0.254039 -0.280216 -0.314981 -0.060242 0.100833 -0.124362 0.166848 0.150181 0.394987 -0.308170 -0.034325 -0.027271 0.355266 0.382062 -0.033542 -0.178809 0.370074 0.144949 -0.837483 -0.198700 -0.236806 -0.345493 0.131802 -0.034893 -0.387558 -0.085737 0.351733 0.133867 -0.105972 -0.432390 0.447990 -0.096967 -0.226106 -0.217071 -0.288390 0.458252 -0.042622 -0.381770 0.592463 -0.160851 0.209335 0.283276 -0.064764 0.110526 -0.166565 -0.009600 0.042163 -0.162314 -0.509993 -0.014455 0.321161 -0.074315 -0.219923 -0.584942 0.305446 0.734731 0.182998 0.225827 -0.335735 0.113168 0.482799 -0.237468 -0.003714 -0.102334 -0.117978 0.293736 -0.002586 0.338168
newfoundnoise82 -0.173937 0.376804 -0.021545 0.075460 -0.111920 -0.104905 0.197105 0.239837 0.202914 -0.292213 -0.288202 -0.087261 0.043229 -0.129877 -0.358537 0.033811 0.064296 0.083529 -0.265923 0.374311 -0.025729 -0.305039 -0.552634 0.276769 -0.437736 -0.238396 0.310384 0.233206 0.170181 0.541977 0.047168 -0.352571 -0.694947 -0.172548 -0.423341 -0.307264 0.142660 0.066891 -0.096626 -0.071448 -0.020686 -0.021560 -0.596544 -0.045970 0.214910 -0.128246 -0.188972 0.202146 -0.196425 0.160492 0.302082 0.283776 0.284365 0.030669 -0.602944 0.242777 -0.102788 -0.037380 0.118050 0.245787 0.304708 -0.380467 0.058492 -0.131088 -0.338214 0.060320 0.113349 0.269506 -0.415291 -0.180803 -0.221776 -0.596437 0.334414 -0.329324 -0.572923 0.308351 -0.433124 0.035394 0.421980 0.167975 -0.504829 -0.115769 0.202792 -0.126944 -0.088218 0.078952 -0.273559 0.249138 0.455423 -0.539593 -0.354400 0.061008 -0.175748 0.146474 -0.099654 0.550001 0.332085 -0.629858 -0.397730 0.076946
504188945 -0.162518 -0.307079 -0.162016 -0.496211 0.340806 0.494416 -0.149333 0.061290 -0.248497 -0.322349 -0.506215 0.054195 -0.088209 0.113860 -0.493524 0.256009 -0.298423 0.475661 -0.136250 0.326756 0.032753 0.107570 0.058331 -0.250167 0.151915 -0.051277 0.389775 -0.585020 0.062337 -0.124437 0.003696 -0.341706 -0.069142 -0.242069 -0.033395 0.201124 0.058934 0.349731 -0.039697 -0.251610 0.061749 -0.147925 -0.442489 0.304620 -0.086518 0.432499 0.338540 0.484601 -0.454771 0.098411 0.106304 0.085260 -0.267958 -0.261416 -0.026720 0.385231 -0.051384 0.202168 -0.126451 -0.530586 -0.039795 0.049415 0.167022 0.209042 -0.465507 0.120012 -0.065279 0.436240 -0.545122 -0.071625 -0.128398 -0.167121 -0.299428 0.318275 -0.117023 0.572195 0.333545 -0.224319 0.015151 -0.166883 -0.067059 -0.363941 -0.135357 -0.156490 -0.251497 -0.514100 -0.147683 0.304565 0.176436 -0.148021 0.247648 -0.072653 -0.349978 0.452589 0.013765 0.384271 -0.247596 -0.424135 0.866075 0.432414
club-lounge-radio -0.377386 -0.415068 -0.117391 0.090575 0.313269 0.217386 -0.039709 0.237780 -0.178283 -0.078677 -0.137958 0.256972 0.019902 -0.498900 -0.173920 -0.105722 -0.198780 -0.092200 0.017044 0.085556 0.520214 -0.016767 -0.059873 -0.175078 -0.093730 0.492438 0.010453 -0.648771 0.248331 0.063576 0.601466 0.262751 0.329346 -0.001643 -0.128981 -0.759614 0.211079 -0.173960 0.513870 0.327328 0.086468 -0.126525 0.134201 -0.014769 0.332385 0.118811 -0.110189 0.341163 -0.216299 -0.393206 0.167598 -0.051052 0.176002 0.043070 -0.052106 0.109733 0.415024 -0.106062 -0.377272 -0.128753 0.088545 0.082207 -0.574887 -0.205121 -0.227359 0.172186 0.519188 0.034536 0.282555 0.071607 -0.097922 0.242251 0.142067 -0.052259 -0.143377 -0.399128 -0.126899 -0.580054 -0.278926 -0.225415 0.093938 0.316092 -0.405505 -0.524310 0.358544 -0.588034 -0.118748 -0.261896 0.072543 0.372887 -0.027581 0.448783 -0.658957 -0.031950 -0.013073 -0.251865 0.341067 -0.190867 0.184989 0.582487
ladycirce -0.131238 0.002685 -0.326644 -0.071820 -0.578298 0.240566 -0.011387 0.191592 0.279183 0.211713 0.312039 0.019823 0.509886 0.343897 -0.546414 -0.161977 -0.498788 -0.257943 -0.179408 -0.057399 -0.469472 0.200786 -0.205693 -0.376753 0.550689 -0.166606 -0.220095 -0.105049 -0.030349 0.260057 -0.152756 0.357018 -0.474925 0.115181 -0.421848 -0.327674 0.240742 0.103715 0.034863 0.306594 -0.043946 -0.437293 -0.424463 0.016592 -0.592575 0.049712 0.411799 -0.013033 -0.142469 -0.510617 -0.268990 0.500200 -0.051828 0.065930 -0.153555 0.066547 -0.320644 -0.033850 -0.010457 -0.349901 0.011165 -0.184644 -0.141182 -0.291043 -0.255507 0.001361 -0.240092 0.136716 0.231922 0.315364 0.169554 -0.351251 -0.191331 -0.010770 0.221162 -0.100858 0.094937 -0.493588 -0.570189 -0.142574 0.160789 -0.041572 -0.329027 -0.398480 0.043383 -0.332187 0.105737 0.119897 0.490578 0.184914 -0.297241 -0.308654 0.384682 -0.069954 0.485146 -0.032492 -0.298105 0.010773 0.210376 -0.605155
scytrin -0.273761 0.212299 0.272424 0.204335 -0.161103 0.491782 -0.233825 -0.174744 0.368685 0.173566 -0.192688 -0.380769 -0.409572 0.316358 -0.293838 -0.436409 0.099039 -0.178206 -0.265556 0.034900 -0.125833 0.031918 -0.076784 0.565956 0.572976 -0.054981 -0.163101 -0.150961 -0.062961 0.643650 0.530409 -0.032311 0.064448 -0.406097 -0.020548 -0.079719 -0.250551 0.017760 0.122316 -0.211624 0.298552 -0.656100 0.252487 -0.301086 0.196934 0.224174 0.204091 0.186073 0.446127 0.122517 -0.173730 -0.148886 -0.171789 -0.126807 0.640759 0.072173 0.038953 -0.045511 -0.444655 0.075242 -0.253513 -0.223944 0.266524 -0.146441 0.536081 -0.066110 0.163622 -0.131968 0.106856 -0.450713 -0.008432 -0.201576 0.020838 -0.535528 -0.503384 -0.026237 0.028008 0.047157 0.061934 -0.257928 0.214739 -0.545591 -0.192359 0.400710 0.275006 -0.189541 0.209049 -0.026603 0.480051 0.156629 -0.275603 -0.113891 0.563972 -0.414233 0.240893 0.254038 0.122026 -0.052992 0.079506 0.190207
atnerus 0.000365 0.298179 0.236212 0.490883 0.251274 0.118486 0.124881 -0.091734 -0.056140 -0.429949 -0.067634 -0.560445 -0.440186 -0.138408 -0.424398 -0.036412 0.570671 0.455300 -0.212143 0.101373 -0.526171 -0.139074 -0.024269 -0.082651 -0.042378 0.512695 -0.348574 -0.226335 0.294577 0.265722 -0.351824 0.308904 -0.020698 0.114162 -0.030983 0.200150 -0.015713 0.247481 0.008101 0.946535 -0.260507 -0.083417 0.385603 0.223215 -0.325843 0.237012 -0.431018 -0.082835 -0.214133 -0.113462 -0.200524 -0.255465 -0.051670 0.113602 0.000387 0.042076 -0.094677 0.084683 0.187692 0.333941 -0.464492 -0.011040 -0.015280 0.022088 0.091129 0.072292 0.127093 -0.248025 0.251177 -0.000844 -0.249300 0.191283 -0.093435 -0.119626 0.062101 0.344625 0.218652 -0.537909 -0.228263 -0.362385 -0.198118 -0.227032 -0.325804 -0.055264 -0.059282 -0.424737 0.166890 0.126289 0.319207 -0.273524 -0.427120 -0.356906 -0.168856 -0.695553 -0.215540 0.379087 0.368181 -0.668374 0.313798 0.214863
snookiecollins -0.001016 -0.227345 -0.244478 -0.162614 -0.366861 -0.089065 0.231748 -0.134356 0.239558 -0.085307 -0.252671 0.107235 -0.065054 -0.316692 -0.460850 -0.344574 -0.363011 0.251460 0.027912 -0.528979 0.063520 0.261471 -0.135237 -0.132173 0.348722 0.521056 0.216246 -0.241139 0.325472 0.327028 0.415905 -0.092035 -0.158460 -0.284915 0.319686 -0.236503 0.303230 0.166608 -0.249834 0.160546 0.307457 -0.473871 -0.238028 -0.616302 -0.077457 -0.015545 -0.064540 -0.086789 -0.247850 -0.164924 -0.107157 0.052861 0.164631 0.077720 -0.499136 -0.305921 -0.141867 0.197595 0.679422 -0.149050 -0.179808 -0.074374 -0.220505 0.087696 0.744555 -0.339664 0.246579 0.037738 0.612065 0.245625 -0.361182 0.047171 0.596619 0.073457 -0.218960 0.391980 0.088125 -0.307201 0.305302 0.104014 0.155426 -0.134136 0.355170 0.275111 -0.374133 0.118249 -0.054699 0.193741 0.322950 0.193200 0.037781 0.000717 0.115620 -0.420351 0.555032 -0.225090 -0.482214 -0.393124 -0.217133 0.281052
shantilynxy -0.304267 -0.058353 0.499437 -0.066615 -0.223029 -0.298715 -0.101924 0.090739 -0.463324 -0.060823 -0.652027 0.189640 -0.176035 0.185270 -0.556299 -0.197345 0.084472 -0.007078 0.189768 -0.120878 0.231797 -0.228445 -0.029889 0.332486 0.334577 0.303033 0.485954 0.425987 0.388152 0.095826 -0.039199 -0.204265 0.314006 -0.397186 0.121008 -0.847445 0.095881 -0.280155 0.033296 0.235611 0.182738 -0.218801 0.122340 -0.486053 -0.179001 -0.024072 -0.315380 0.069992 0.144720 -0.007385 0.307253 -0.085338 0.018650 0.091399 -0.056000 -0.172439 0.438834 0.339068 -0.317133 -0.054783 0.435838 0.112315 -0.064369 -0.156534 0.078317 0.206912 -0.136712 0.409331 0.207754 -0.407372 -0.054927 0.202449 0.462609 -0.318709 -0.011784 1.112682 -0.254490 -0.513944 0.440267 0.109672 -0.397651 -0.216152 -0.191283 0.001222 0.428730 -0.213653 0.075398 0.190534 0.086414 0.033832 -0.017785 -0.113202 0.157300 -0.039824 0.356052 0.119415 -0.246412 -0.189795 0.500410 0.060807
notsteve -0.146844 -0.082223 -0.251127 0.344075 -0.320679 0.105005 -0.355841 0.233070 0.295707 -0.128570 0.046543 -0.258754 0.411525 0.140373 -0.920527 0.131463 -0.133403 -0.418723 0.170236 0.160584 -0.042540 0.216113 -0.023332 0.172184 0.328450 -0.218618 0.035900 -0.205242 -0.614817 0.398090 -0.350796 -0.220783 -0.408852 -0.064346 0.217523 -0.597416 0.246094 0.015468 0.710673 0.104028 -0.192409 -0.350343 -0.499207 -0.273156 -0.192662 0.376440 0.003347 0.048802 -0.039405 0.321292 -0.235328 0.081765 0.167039 0.015688 0.299922 -0.108418 -0.103807 -0.028748 -0.110543 0.475428 0.118428 0.170220 0.066655 0.522531 0.047877 0.440393 -0.016798 0.330645 0.140031 0.265420 -0.539400 0.000624 0.085406 0.492459 -0.132973 -0.072765 0.126360 -0.242945 -0.091662 -0.248878 -0.362317 -0.161084 -0.580825 -0.230857 -0.301333 -0.385600 0.077527 -0.132375 -0.040599 -0.268239 -0.130153 0.265688 0.371437 -0.265436 0.385995 -0.396316 0.506762 -0.142509 -0.013565 0.344225
centerfoldstrips -0.159363 0.161721 -0.812030 -0.105725 -0.057927 0.137784 0.170542 0.276266 -0.091457 -0.665950 -0.249947 -0.189976 -0.172971 0.029067 -0.556541 0.198627 -0.513886 -0.080111 -0.260492 0.619474 -0.170927 -0.022686 0.435867 0.455225 -0.393913 0.324546 0.134802 -0.177481 0.039097 -0.040535 -0.183277 -0.034684 0.157525 -0.187946 0.234197 0.234926 0.279300 -0.424023 -0.391650 0.148408 0.411963 -0.410025 -0.064403 -0.314522 -0.312717 -0.219321 0.005180 -0.351602 -0.022468 0.020225 -0.052896 0.167663 0.204895 0.442097 0.051866 0.070057 0.459355 0.059706 0.618317 -0.184366 0.249560 0.356112 -0.208948 0.088711 -0.028441 -0.022591 0.416228 0.553872 -0.001505 0.007692 0.080665 -0.194969 -0.111123 -0.570569 -0.652527 0.556235 0.290948 -0.021579 -0.426528 -0.514616 0.013395 -0.213199 0.172026 -0.130595 0.032074 -0.255586 0.272632 -0.182646 -0.009659 0.079665 0.370025 0.220885 -0.157898 0.166728 -0.344481 -0.201009 -0.334797 -0.254022 0.027384 -0.159373
pilarstewart -0.273803 -0.181399 0.091655 -0.022658 -0.046741 0.237298 -0.292786 0.059435 -0.026967 -0.018648 -0.273057 -0.149871 -0.314034 -0.198586 -0.467105 -0.000860 -0.031821 0.088257 -0.542276 0.218095 -0.169428 -0.288347 0.058980 -0.656470 -0.515324 -0.237923 -0.121794 0.158793 0.707873 -0.056305 -0.098974 -0.069271 -0.403161 -0.129413 0.046577 -0.607278 0.501197 -0.035052 -0.208292 -0.242272 0.008094 0.046590 -0.451650 0.044754 -0.130857 -0.499187 0.218585 -0.318511 0.139216 -0.180836 -0.090341 -0.122538 0.232168 -0.141398 -0.501034 0.203546 0.512058 0.632457 0.178308 0.054833 -0.461726 -0.412090 -0.282510 0.157258 0.309996 0.324867 0.921358 -0.122402 0.037817 -0.241399 -0.193516 0.207547 0.145489 -0.113396 -0.554847 0.227156 -0.545402 0.227039 -0.014702 -0.000074 0.088915 0.200033 -0.428877 0.008631 0.524546 0.375140 -0.055764 0.049957 0.122925 0.176833 -0.229015 0.096221 0.039609 -0.243864 0.265568 0.016934 0.057744 -0.470721 -0.005171 -0.192872
jennholton -0.039952 -0.402537 -0.057300 0.089518 -0.416901 -0.298874 -0.534338 0.255846 -0.035920 -0.238674 0.026935 0.005878 -0.145076 -0.293128 -0.140834 0.221526 0.349875 -0.162323 -0.298845 0.050173 -0.123962 -0.183819 -0.811511 -0.324481 0.198636 -0.145870 0.036963 0.389254 -0.175328 -0.539362 0.260047 0.037422 -0.186981 -0.071189 -0.072975 -0.075296 0.179116 0.287464 0.143993 0.525419 0.260142 -0.094143 0.076470 -0.300072 -0.076811 -0.091766 0.063850 0.171067 0.127039 0.012036 -0.339453 0.494097 -0.072685 0.286879 0.017918 0.353325 0.210545 0.122000 0.133079 0.181439 -0.478261 0.336101 -0.103467 0.480517 -0.046352 -0.029568 0.793830 0.349807 0.103699 0.097150 0.336038 -0.935304 -0.347701 -0.124884 -0.135476 -0.045840 0.141323 -0.584346 0.094412 -0.337528 -0.212760 -0.342816 -0.420317 -0.002219 0.475640 -0.141825 -0.054325 0.253571 -0.268528 -0.168653 -0.034244 -0.217072 -0.460964 -0.192024 0.051293 0.077872 -0.109373 -0.379691 -0.205202 0.503281
nobodylkl -0.001469 0.130683 -0.166878 0.264962 -0.207709 0.249189 0.089139 -0.154484 -0.098968 -0.274424 -0.308213 -0.103209 -0.044456 -0.532253 0.528863 -0.390856 0.158583 -0.107700 0.326518 0.076467 0.027287 -0.298612 0.098250 -0.127963 0.309695 0.180236 0.508320 -0.005397 0.399179 0.411053 0.364189 0.023231 0.098505 0.142773 -0.505523 -0.549979 -0.085537 0.317943 0.600378 0.274142 -0.417550 -0.309357 -0.385432 0.248848 0.450428 0.426249 -0.041300 0.080866 -0.074195 0.018970 -0.249405 0.095514 0.221528 -0.143945 0.167515 0.413981 0.221823 0.530694 -0.005243 -0.067522 -0.196806 0.035510 -0.261025 0.324834 -0.155546 0.258705 -0.299734 -0.061633 0.005867 0.241457 -0.237666 -0.241394 -0.446830 -0.473590 0.454833 0.372667 -0.292580 -0.159625 0.805633 0.211285 -0.017822 0.174344 -0.039039 -0.306090 0.173717 -0.243912 -0.245579 -0.165666 0.073251 0.095495 0.304581 -0.007743 0.096356 0.574776 0.615210 0.001930 -0.133650 -0.708318 -0.225154 -0.164034
himegototsuki 0.070215 -0.248517 -0.315485 -0.184060 -0.045768 0.185882 0.060959 -0.252572 0.445056 -0.132576 -0.713545 0.057951 -0.139264 -0.006809 -0.496612 0.246339 -0.428676 -0.017490 -0.407892 -0.002987 0.225857 -0.090866 -0.319958 0.306647 0.264740 -0.037624 -0.218644 -0.119972 0.302588 0.502943 0.123019 -0.031963 0.526256 -0.198560 0.457861 -0.607805 0.038516 -0.445466 -0.257407 0.047416 0.199468 0.126451 -0.022730 -0.112825 -0.270422 -0.240440 0.206145 0.288994 0.247306 0.000168 0.072435 0.182818 -0.050539 0.534690 -0.131067 0.143174 -0.251313 -0.224158 -0.283594 -0.510608 -0.085177 0.342011 0.537358 0.042753 0.161252 -0.173550 0.271570 -0.056471 -0.691574 0.225243 -0.025848 0.481818 0.182092 0.083334 -0.128092 -0.020249 0.082097 -0.307955 -0.003096 -0.195597 -0.754784 -0.239495 0.218823 -0.258261 -0.184355 0.117319 0.088463 -0.068735 0.683817 -0.440695 -0.646693 0.452646 -0.203044 -0.110037 -0.007415 0.256619 -0.296801 0.174274 -0.066499 -0.299675
ngocbb -0.200550 -0.245920 -0.169585 0.146369 -0.154103 0.107597 0.442135 0.230004 -0.249894 0.057843 0.016290 0.064938 -0.205469 0.380784 0.174433 -0.314230 0.037955 -0.022265 -0.128139 -0.134355 -0.299027 -0.202712 -0.362294 -0.371886 0.123539 -0.061975 0.201659 -0.136610 -0.265720 -0.302943 0.903352 0.393777 0.046848 -0.635544 0.091518 -0.300970 -0.104475 -0.237900 -0.089862 -0.231182 -0.266107 -0.129649 -0.192353 0.200701 -0.523097 0.230475 -0.158690 0.244770 0.230521 -0.404801 -0.202083 -0.399507 0.183451 0.177740 -0.032625 -0.048492 0.501710 0.519485 -0.158842 -0.174813 -0.116553 -0.106881 -0.067839 -0.192497 -0.407676 0.019867 0.413714 -0.127424 -0.112314 0.313205 -0.597733 -0.348031 0.352276 -0.001516 -0.127054 -0.176556 -0.205858 0.563109 -0.015150 0.240476 0.061615 -0.033073 0.370980 -0.159592 -0.572443 -0.324515 -0.037432 0.493093 0.192927 -0.157682 -0.378344 0.499900 -0.074515 0.301998 0.572891 0.521955 0.266766 0.049957 0.051529 0.347476
incredibleladies 0.125212 0.434829 0.166755 -0.219234 0.059650 0.331689 -0.214658 -0.188767 0.793539 -0.215077 -0.792920 0.203801 -0.058395 0.127104 -0.263370 0.077918 0.116420 -0.445316 -0.211566 0.079318 -0.405753 -0.110292 0.068874 0.265980 -0.212309 -0.037857 0.556150 0.047776 0.206433 0.000041 0.231025 0.059208 0.162452 0.017843 0.067359 -0.530929 -0.069266 -0.165499 0.029907 -0.238179 -0.036463 -0.254504 0.313542 0.545035 0.066826 0.440921 0.012710 0.358971 -0.069058 -0.012731 -0.047667 0.197938 0.040667 0.306093 0.649596 -0.115748 -0.155111 -0.013992 0.271400 0.574017 -0.281199 -0.176434 -0.119924 -0.046004 0.224803 -0.231248 -0.060999 -0.238703 0.174841 0.066256 0.047685 -0.032810 0.441860 0.152608 -0.302188 0.188076 0.591738 -0.097158 0.055102 0.162081 -0.685691 -0.108987 -0.173296 -0.510431 0.236194 0.036079 -0.121300 0.184964 0.745597 -0.404329 -0.245390 0.442386 -0.165916 0.105788 0.011023 0.410548 0.064930 -0.419699 0.004402 0.120727
grantcriddle -0.142942 0.373414 -0.126100 0.534511 -0.529679 -0.153932 -0.044203 -0.298992 0.520815 -0.004583 -0.451667 0.343628 -0.114947 -0.518223 0.222626 0.119078 0.244600 0.371939 0.078740 0.043559 0.010205 0.040426 -0.263386 0.045587 0.133181 0.607762 -0.083148 -0.050822 0.394050 -0.189004 -0.043245 -0.564897 -0.215735 -0.321609 -0.028728 -0.217704 0.049458 -0.076665 -0.513571 0.371203 0.257156 0.373230 0.142725 0.301332 0.069241 0.029078 0.260598 -0.104929 -0.039215 -0.070060 -0.257499 0.157644 -0.017119 -0.271293 -0.005098 -0.404797 0.120965 0.143045 0.063417 -0.179339 0.114675 -0.518824 -0.068408 0.041776 0.237816 -0.179150 -0.022480 0.179401 0.245739 0.175883 -0.083505 -0.439655 0.579030 -0.394749 0.057994 0.138697 0.407521 -0.363914 -0.247482 -0.246922 -0.451182 0.007203 -0.282506 -0.412898 0.187210 0.236759 -0.472587 0.021257 0.520802 0.457991 -0.089885 0.210337 0.066062 0.196284 0.391761 -0.432038 0.488947 -0.873064 -0.053018 0.043995
hermaphrobyte -0.149983 -0.017466 -0.086829 -0.002655 0.088395 0.575756 0.168785 -0.022703 0.195051 -0.108790 0.604722 -0.223261 -0.082307 0.109440 -0.467720 -0.044625 -0.403449 -0.011311 -0.068540 0.229194 -0.312452 -0.057927 0.121994 -0.236383 0.096968 0.806379 -0.235619 -0.320790 0.197126 0.021097 0.254519 -0.593589 -0.192826 0.205647 -0.185697 -0.233238 0.214798 -0.373444 -0.211131 0.157795 0.560900 -0.182115 -0.054795 -0.294026 0.505084 -0.309837 -0.158357 -0.140951 0.081928 0.207361 -0.691318 -0.516432 -0.145906 -0.021985 -0.071037 0.026004 0.101269 0.176233 0.200203 -0.279096 0.193270 -0.346662 -0.461173 -0.179076 0.523336 -0.234366 -0.191398 -0.053391 -0.210689 -0.434848 0.102916 -0.305374 -0.153612 0.623655 -0.177698 0.005741 -0.252049 -0.181579 -0.142218 -0.137423 -0.589103 -0.208216 0.064566 -0.060709 -0.381026 -0.128043 -0.226837 -0.438217 0.019008 0.181285 0.122079 0.277251 -0.132870 0.080480 0.712677 -0.012805 -0.193278 0.066902 0.434275 0.222462
kerryflory 0.248279 0.034714 -0.248243 -0.028423 0.245198 0.545388 -0.073087 -0.077423 -0.303057 0.017162 -0.391389 0.281523 -0.461353 0.479438 0.278037 -0.079886 -0.214248 0.293205 -0.666875 0.004042 0.161923 0.072410 0.213021 0.047374 -0.159220 0.145082 -0.026328 -0.097187 -0.389594 -0.196956 0.122217 -0.185276 -0.441035 -0.281568 0.527673 -0.047932 -0.083180 0.047720 -0.193208 0.278485 0.084904 -0.064609 -0.388484 0.368165 -0.025261 0.247485 0.235459 -0.403440 0.554013 -0.444475 0.018532 0.443694 0.257777 -0.314605 0.189662 0.130860 -0.402117 -0.127354 0.404406 -0.310769 -0.120850 0.118316 0.127921 -0.687980 0.027871 0.306505 0.577396 0.141228 -0.281279 0.104793 -0.131681 -0.689590 0.117781 -0.336744 -0.437987 0.354259 -0.009662 -0.436828 0.414603 -0.144306 -0.262626 -0.405602 -0.167908 0.358469 0.189572 -0.046854 0.400625 0.018475 0.103383 0.329936 -0.096999 0.019257 0.272404 0.069297 0.113207 0.452110 -0.208626 -0.208595 0.513419 0.366641
amx17cj 0.233652 -0.086674 -0.228045 0.318172 -0.367593 0.079649 0.425652 0.398922 0.037738 0.028796 0.179343 -0.216300 -0.535820 -0.696575 -0.149974 -0.250655 -0.551644 -0.264648 0.099614 0.366044 -0.026183 -0.547012 -0.547815 0.032445 0.341966 0.212703 -0.324720 0.000012 0.389128 0.283306 0.263213 -0.419059 0.152777 -0.137160 -0.146498 -0.121993 -0.277488 -0.240327 -0.087562 -0.017607 0.166838 0.153232 0.185860 -0.088538 -0.221618 0.004074 -0.035422 0.402490 0.088333 -0.529949 -0.102947 0.135302 0.027013 0.415919 0.500097 0.274834 0.378254 0.684567 0.333972 0.321514 -0.221754 0.052977 -0.003726 0.251883 0.152198 0.074435 -0.021180 -0.071898 0.383387 -0.242290 0.059670 0.010090 0.449495 0.175358 -0.714327 -0.304333 -0.220824 -0.644815 0.096386 0.019638 0.132932 0.242122 0.186907 -0.447430 0.258949 -0.284037 -0.098785 0.148437 0.246924 -0.299015 0.321751 -0.255690 -0.472582 0.062271 0.196696 -0.132343 0.135207 0.006786 0.063734 0.069703
turkobain -0.031207 -0.123724 -0.127823 0.164317 -0.386321 0.020360 -0.576300 0.549556 0.104296 0.174992 -0.261489 0.138689 0.014361 -0.597822 -0.192957 0.077407 -0.213115 0.380426 -0.379619 -0.054019 0.039793 0.005545 0.206786 -0.128294 -0.293643 0.494512 -0.262969 0.215898 -0.143570 0.166245 0.227210 -0.382994 0.284625 -0.484248 -0.179601 -0.226749 0.000478 0.222789 0.055989 -0.318974 -0.012056 -0.392293 0.115461 -0.109321 0.143682 0.224857 0.050673 0.151499 -0.095544 -0.332254 0.578044 0.396401 -0.554704 0.232488 0.422236 0.583454 0.036146 0.039250 0.148614 0.009413 -0.200299 0.280269 -0.190443 0.007507 -0.467383 0.666524 0.180846 0.473442 0.081375 -0.213612 0.205944 0.032394 -0.502318 0.215908 -0.255943 0.342787 -0.417797 0.395692 0.053130 -0.207349 -0.686245 -0.007224 -0.134391 -0.005143 0.276307 -0.251064 -0.094313 0.004870 0.279607 -0.457929 -0.453475 0.053241 0.150771 -0.423894 0.309034 -0.672392 0.507628 0.051644 -0.347398 -0.202201
artemsinich 0.269085 -0.124348 -0.175841 -0.239644 -0.286573 0.260670 0.354445 0.104455 -0.323464 -0.374747 0.533444 -0.066573 0.229072 -0.081452 0.071294 -0.392433 -0.034549 -0.249236 -0.073182 -0.576848 -0.150303 -0.156830 0.297071 -0.271240 -0.047180 0.327289 -0.045879 0.104144 0.393753 0.621775 0.292991 -0.477125 -0.318093 -0.031149 -0.090633 -0.185441 0.145797 0.289798 -0.020792 0.255308 0.173530 0.051654 -0.217346 -0.279584 -0.188114 -0.155971 -0.120093 0.177529 0.133600 0.080181 0.261682 0.175007 -0.008875 -0.037736 0.074522 0.500580 0.348916 0.176868 -0.235314 -0.590106 -0.217372 0.018345 0.351751 0.136695 -0.199605 0.298757 -0.205045 0.229865 0.310992 0.348641 0.196995 -0.563089 0.332390 0.079705 -0.486775 0.721443 -0.008803 -0.341419 -0.131366 -0.427983 -0.238591 -0.185840 -0.665748 0.077580 -0.626645 -0.538986 0.143624 0.306211 0.080980 -0.035023 0.064153 -0.195167 0.659527 -0.088765 0.018081 -0.231480 0.330692 -0.213571 0.204286 0.115144
themta -0.039103 0.457170 0.266897 -0.171292 0.126383 0.237755 0.101939 -0.117590 0.620420 0.305950 -0.480452 -0.343262 -0.439359 -0.243373 0.243807 0.080453 -0.716305 0.245665 0.047912 0.042380 0.085934 0.741933 -0.068789 -0.060283 0.172273 0.145990 -0.336912 -0.257303 0.605671 0.227426 -0.237121 -0.081090 -0.068763 -0.427601 -0.120045 -0.122088 0.017699 -0.025350 -0.083910 -0.228066 -0.226997 -0.382568 0.034326 0.214194 -0.212485 0.582809 0.374561 0.073717 -0.202827 -0.357260 -0.008739 -0.204770 0.138477 -0.333085 -0.330205 0.189424 -0.131851 0.244030 -0.203130 0.256342 0.439287 0.198603 -0.504852 0.534286 0.208756 0.586458 0.188461 0.091959 -0.230773 -0.086084 -0.192888 0.081804 -0.435077 -0.022740 -0.000062 0.236593 0.033487 -0.335350 -0.013293 -0.429253 -0.215664 -0.023080 -0.054913 0.283582 0.481183 -0.206106 0.270852 -0.371811 0.136670 -0.387807 -0.238145 0.180993 -0.179916 -0.051598 0.284971 0.195214 -0.416934 0.250609 0.337226 -0.035405
suxykorean 0.109859 0.089665 -0.154522 0.133517 -0.165951 -0.178247 0.017070 0.029535 0.172740 0.638762 -0.228216 0.338260 0.120733 -0.008108 0.311270 -0.465017 0.250820 -0.046471 -0.129426 0.380918 -0.097294 -0.011419 -0.116934 -0.480956 0.101327 0.026904 0.104952 -0.552922 0.288324 0.061348 -0.021830 -0.447828 -0.199967 -0.370108 0.214974 0.357869 0.198700 -0.146321 -0.488741 0.359146 0.386618 -0.533779 -0.061475 0.075383 -0.471962 0.427440 -0.346393 0.356846 0.211889 0.160064 0.007432 -0.213067 0.018134 0.066738 0.205253 0.869126 0.321312 0.198701 -0.525667 -0.117427 0.033757 0.419613 -0.617504 0.180212 -0.093489 -0.122683 0.128808 0.030434 -0.647349 0.172375 -0.480125 0.042277 0.049267 0.205248 0.329166 0.222079 -0.303293 -0.244914 0.345312 0.390318 -0.109222 0.081205 0.042685 0.423570 0.030359 -0.343602 0.202778 0.085301 0.643375 -0.263827 -0.203520 0.233849 0.239398 -0.109550 0.191069 -0.023841 -0.239495 -0.159460 -0.166203 -0.376185
chrissmari -0.309478 0.346185 -0.510882 -0.193790 -0.111876 0.008486 -0.120133 0.449749 -0.056855 -0.212531 0.159965 0.251547 0.322006 -0.180304 -0.343395 -0.355382 0.070233 -0.236248 0.083287 -0.216483 -0.244622 0.096535 0.345841 -0.090434 0.233419 -0.128148 -0.213036 0.103582 0.501449 0.245558 0.041048 -0.594365 -0.214795 -0.466357 0.023303 -0.303391 -0.346965 0.095261 0.037714 0.175320 -0.204254 -0.231072 0.353206 -0.161311 0.388071 0.231518 0.310047 -0.022640 0.083777 -0.479349 -0.365212 -0.445537 0.157678 -0.452043 0.054597 0.011715 -0.341851 -0.061081 0.122068 -0.065755 -0.474394 -0.199504 -0.157484 -0.067344 0.188317 -0.140468 0.122207 0.593219 -0.128913 -0.214764 -0.262361 -0.387225 -0.035388 0.493954 0.173081 -0.031778 -0.448397 -0.298440 0.522629 -0.361055 -0.255694 0.564064 -0.262778 0.271824 -0.315055 -0.649069 -0.272009 0.387924 0.823686 -0.123218 -0.144588 -0.092503 0.015216 -0.283031 0.001386 -0.143688 0.218185 -0.362648 0.198376 0.179735
porter2002 -0.149484 0.048772 0.026610 0.092364 -0.347763 0.156314 0.048247 0.083246 0.106533 0.146149 -0.135494 -0.285609 -0.379914 -0.089128 -0.333035 0.088823 -0.090910 -0.251060 -0.455167 -0.292849 -0.071471 0.137567 0.056093 -0.099469 -0.134726 0.505198 0.036749 -0.225504 -0.075132 0.033495 0.397121 0.200865 0.036129 -0.046954 0.166082 -0.728512 -0.125746 0.065851 -0.052888 0.230919 0.752747 -0.202249 0.043614 -0.094589 0.180308 0.203894 -0.081798 -0.333419 0.207350 0.315530 -0.297994 0.365520 0.287767 0.414119 0.113365 -0.079270 0.280719 0.268525 0.247310 -0.227227 0.255831 -0.084418 0.861905 0.210087 -0.315360 0.144510 0.340648 0.236111 -0.092116 0.390673 -0.035148 -0.003626 -0.117899 -0.040983 -0.098150 -0.120348 0.176186 -0.543940 -0.602580 0.331332 0.127107 -0.313516 0.052329 -0.633360 0.200423 -0.207725 0.005091 0.338955 0.272865 0.156354 1.054626 0.270120 -0.160269 0.051656 0.146791 0.083102 -0.214328 0.312752 0.591520 -0.268463
dykzei -0.390370 -0.132751 -0.429952 -0.296760 -0.730881 0.096850 0.199441 0.820879 0.377849 -0.255157 0.201861 0.045853 -0.305565 0.616463 -0.490053 0.118234 0.278173 0.123330 -0.126791 0.157700 0.440601 -0.107610 0.206112 -0.001171 0.351126 0.140216 0.097079 -0.228309 0.102904 0.748877 0.113943 -0.236241 0.258589 -0.343663 -0.121268 0.233536 0.170006 0.121845 -0.157077 0.159086 0.092063 -0.060012 -0.431371 -0.322528 -0.331247 0.088105 -0.262749 -0.198259 -0.068913 -0.162214 -0.065387 -0.247599 -0.186723 0.184438 -0.328894 -0.445259 -0.051127 -0.122252 0.152803 0.121908 -0.445459 -0.095162 0.235253 0.085867 0.115657 -0.021817 0.161839 0.334285 -0.085581 0.178639 -0.155114 0.060942 0.320172 0.127569 -0.209939 -0.202560 -0.378894 -0.275110 0.131511 0.260141 0.311357 -0.363612 -0.346782 -0.225219 0.468351 0.033536 -0.279161 -0.023921 0.797637 -0.505354 0.306561 -0.349410 0.016446 -0.025892 -0.184545 -0.098995 0.101505 -0.040170 -0.070083 0.405640
parentingtoolbox -0.110042 0.482844 0.517038 0.222689 -0.032146 0.029887 0.153008 0.007768 -0.062300 -0.390799 -0.024300 -0.163318 -0.136741 -0.450544 -0.327213 -0.583796 -0.265530 -0.193301 0.326752 -0.391291 -0.196933 0.343440 -0.374529 0.187562 -0.222211 0.472858 -0.364379 -0.042381 0.088634 0.095815 0.124663 -0.118685 -0.276000 -0.443246 0.214083 -0.344190 0.041528 0.100118 -0.307528 0.053515 -0.102375 -0.680331 0.025337 -0.426260 0.168659 -0.428256 0.120294 0.167945 0.260554 0.073319 -0.410880 -0.684833 0.073756 -0.264547 -0.011905 0.250336 -0.086587 0.588440 0.123992 0.290021 0.212438 -0.217030 0.049572 0.547718 0.032158 0.376666 -0.328947 -0.078301 -0.291241 -0.148800 0.085274 0.359124 0.191646 -0.022371 -0.138317 -0.396522 0.476605 -0.339417 0.140298 0.071968 -0.296028 -0.342154 0.184732 -0.254299 0.271974 0.085567 -0.214732 -0.088020 0.314659 -0.140802 -0.165770 0.570814 0.409186 0.634319 0.052702 0.144319 0.234162 0.110252 -0.107546 -0.024025
laitham_haddad 0.054633 -0.303675 -0.096179 -0.206988 -0.463065 0.703444 0.689356 -0.363035 0.466312 -0.093583 0.083886 0.173460 -0.066262 0.348689 0.074564 0.371711 -0.211179 0.144736 -0.093321 0.086629 -0.138403 0.030662 0.205008 0.064445 -0.289232 0.415871 0.465306 -0.219381 0.328658 -0.108005 0.220179 0.282919 -0.077421 -0.531621 0.017801 -0.565753 -0.017248 0.395058 -0.112956 0.073836 0.404234 -0.250118 -0.501618 0.230218 0.294121 0.395039 -0.262802 0.121159 0.487793 0.297586 0.322584 0.064290 -0.142350 -0.406205 0.108296 0.059493 -0.061849 0.026821 -0.049181 -0.220511 0.511598 -0.218225 -0.508033 0.390680 -0.110596 -0.333723 0.534142 -0.071726 0.145175 0.087177 0.117753 -0.322142 0.316796 0.053224 0.029545 0.644528 0.242089 -0.324604 -0.422821 -0.690057 0.020697 -0.085708 0.191888 -0.158233 -0.023537 0.025896 -0.511556 -0.474031 -0.149940 -0.245790 0.102340 -0.185731 -0.064538 -0.150796 0.009825 -0.062763 -0.440306 0.064806 0.223102 0.211895
the_twisted 0.124251 0.070443 0.111689 -0.302901 0.343220 -0.257334 0.195094 -0.227421 -0.834137 -0.183332 -0.632571 -0.084506 -0.136837 0.156812 0.112242 -0.550861 -0.122826 -0.401018 -0.073448 0.270984 -0.248512 -0.296514 0.015289 -0.307734 0.060038 0.315867 0.397257 -0.497267 0.195183 -0.087050 0.189304 0.123562 -0.173422 -0.079772 -0.220087 -0.493460 -0.111291 0.029527 -0.073546 0.372917 0.110237 -0.271523 0.352067 -0.032620 -0.648138 0.316522 -0.338214 -0.558066 0.152750 -0.143888 -0.270199 -0.222043 0.016259 -0.249279 -0.054436 0.031681 0.063879 -0.215540 0.012947 -0.191865 -0.151431 -0.243360 0.266309 0.533728 -0.564288 -0.195070 -0.534594 0.085150 -0.218553 0.188624 -0.399063 0.105216 -0.064178 0.281347 -0.121524 0.071715 -0.000769 -0.071182 -0.127650 0.207587 -0.634393 -0.254188 -0.021053 0.631841 -0.488592 -0.377371 -0.083996 0.149249 0.285989 -0.012112 0.242033 0.123846 -0.223382 -0.043794 0.400163 -0.074624 -0.078195 -0.666946 0.334670 0.256228
eliot319 0.172972 0.090074 0.213832 0.039556 -0.339064 0.308439 -0.057213 0.764647 0.165309 -0.380684 -0.293419 0.012199 0.324166 0.143922 -0.003671 0.156242 -0.496798 0.168585 -0.062759 0.425981 -0.422887 0.101066 -0.136011 0.004682 0.234689 -0.145110 -0.030857 0.159891 0.293338 0.135433 0.571620 -0.254230 0.149307 0.248855 -0.184206 -0.462655 -0.230003 0.330873 0.117649 0.463648 -0.327663 0.410839 -0.110816 -0.112122 -0.337088 0.069787 -0.153180 -0.099720 0.372208 -0.171847 -0.072128 -0.187227 0.269535 -0.790801 0.724173 0.153351 0.175742 -0.439899 0.075738 0.087554 -0.329267 -0.054455 -0.250151 -0.264886 0.548352 -0.287964 0.416564 0.464263 0.096635 0.256892 -0.271376 -0.258380 0.564267 -0.236478 -0.217538 0.035656 -0.418415 -0.205302 -0.517772 -0.328806 -0.045730 -0.124840 -0.194851 -0.573713 0.377516 -0.583023 0.062478 -0.027209 -0.007838 0.133598 -0.011372 -0.044758 -0.264149 -0.055067 -0.175235 0.113561 0.090090 -0.375945 0.083009 -0.422956
bobdeloyd -0.199069 0.014477 -0.507476 -0.104828 -0.099184 0.190324 0.327478 0.087067 0.076466 -0.621015 0.298430 0.152871 -0.139211 -0.244145 -0.177197 -0.059040 0.125481 0.044208 0.175368 0.183662 0.091979 -0.654902 0.262238 0.267998 0.288677 0.031524 0.007037 0.147821 -0.097594 0.291635 0.156583 -0.217523 -0.497300 0.111568 -0.207233 0.120408 -0.212981 -0.618074 -0.010850 -0.071594 0.218671 0.090859 -0.323098 -0.580646 -0.488403 0.125188 0.166707 -0.233332 -0.392643 0.029226 -0.166858 -0.206670 -0.104457 -0.102382 0.320111 -0.073840 -0.295806 0.177357 0.178061 0.071122 0.079185 -0.317996 -0.118038 0.021421 -0.792268 0.308229 0.620298 0.063023 -0.038097 -0.312497 -0.097893 -0.316986 -0.227330 -0.091219 -0.389255 0.415362 0.067875 -0.371127 0.373016 0.617082 -0.205300 -0.175481 -0.101717 -0.147560 0.390874 0.120706 0.158882 0.180363 0.445372 0.004208 -0.658192 0.326017 0.244039 0.180683 0.209865 0.659934 -0.469438 -0.086179 0.246757 -0.228900
jahkatta 0.407433 -0.605467 -0.013616 0.112412 0.399013 -0.379648 0.043053 -0.703488 -0.131753 -0.070202 -0.525941 0.226390 -0.121041 -0.074159 -0.130866 -0.321204 0.000693 -0.146690 0.260568 -0.111838 -0.576653 0.264310 -0.219738 -0.264326 0.573482 0.246689 0.319431 0.015782 0.229138 0.012122 0.308872 0.226043 -0.489379 0.059934 -0.111806 -0.419935 0.303285 -0.343716 -0.059304 0.419900 -0.299219 -0.114868 -0.850248 -0.374034 -0.223128 0.307138 0.405737 0.219145 0.284936 -0.255689 -0.035910 0.150606 -0.206526 0.064026 -0.056343 0.061239 0.153307 0.517040 -0.588718 0.154409 -0.696092 0.120637 -0.197067 0.336060 -0.218990 -0.078879 0.018641 -0.276912 -0.536582 -0.006217 -0.246974 -0.061977 -0.057530 -0.400875 -0.347262 0.082320 -0.023430 0.071642 -0.398856 -0.201117 -0.339083 -0.309966 -0.363930 0.041489 -0.012600 0.011667 0.149625 -0.345301 0.100998 0.053164 0.203368 0.106665 -0.046825 -0.054681 0.065840 -0.279897 -0.368563 -0.282375 -0.091842 0.162031
vikingbastich -0.461067 -0.202021 0.284531 0.463990 -0.597870 0.302788 0.521670 0.001216 0.277148 -0.229820 -0.158276 -0.351958 0.129255 0.120098 -0.037596 0.555867 0.075211 0.392130 -0.146501 -0.067609 -0.172815 0.116322 0.060955 -0.057801 0.652545 0.552762 -0.127008 -0.046236 0.639145 0.232940 0.076669 -0.029547 0.347724 -0.222595 0.218679 0.104825 0.315533 0.097102 -0.240004 -0.352066 0.118660 -0.003567 -0.460106 0.161000 -0.141180 -0.189679 0.483672 0.401583 0.317221 -0.435508 -0.014050 -0.477008 -0.133665 0.071109 0.022235 -0.142634 0.018118 -0.244076 -0.196162 -0.434408 -0.207267 0.326116 0.147227 0.401299 0.083971 0.139842 0.402819 0.185443 -0.332928 -0.152895 -0.037881 0.255528 -0.058209 -0.160217 -0.273434 -0.260131 -0.435535 -0.665812 0.126419 0.116059 0.174776 -0.460159 -0.165773 0.183330 0.028788 -0.035199 0.244823 0.064819 0.170910 0.258703 -0.299759 -0.037512 0.051074 0.414806 0.280133 0.250095 0.266421 -0.357324 -0.028201 -0.208439
seotoronto -0.377440 -0.351445 0.112357 0.466730 -0.402633 0.321280 0.018501 0.134985 -0.122323 -0.444344 -0.181429 0.419998 0.163178 0.276644 -0.561005 0.243249 -0.196795 -0.216024 -0.185591 -0.121654 -0.371047 0.032792 -0.285072 0.108684 0.712054 -0.189351 0.222485 0.173268 -0.153525 -0.152059 -0.176621 -0.244826 0.040188 0.034121 -0.380498 -0.036961 -0.064927 -0.290792 0.025490 0.458728 0.183920 -0.299179 -0.090760 -0.104489 0.171109 0.078055 0.324151 -0.023686 0.056306 -0.183792 -0.019341 0.382926 -0.027598 -0.229544 0.070031 0.456307 -0.045928 -0.017262 0.005624 0.236519 0.246027 0.370189 -0.244984 -0.518800 0.249877 -0.187549 0.767035 -0.699203 0.238554 -0.443628 -0.337330 0.072750 -0.063479 -0.221712 -0.199883 0.170837 -0.091254 -0.417503 -0.172486 0.114654 -0.012714 -0.000403 -0.495024 0.538226 -0.152415 -0.300886 -0.436134 -0.631345 0.460551 -0.081183 -0.003007 0.426238 -0.018292 0.768021 0.378128 -0.107224 -0.047538 -0.241981 -0.007003 0.192283
yuriyudaev -0.311255 0.047984 -0.371276 0.425446 0.320275 0.188883 -0.138516 0.542641 -0.035117 -0.122403 -0.335951 -0.317969 0.003030 0.137596 -0.164244 0.067884 -0.153777 -0.303536 0.258560 0.029040 0.041688 0.139671 -0.031203 -0.385012 0.287994 0.414841 0.170525 -0.001902 0.045921 -0.268279 0.201487 -0.188152 -0.889626 0.179906 -0.254896 -0.266291 0.127851 0.145621 -0.032383 0.024238 0.111863 -0.479341 -0.132275 -0.371411 -0.012055 0.235592 0.025151 -0.117768 -0.238204 0.651612 0.193890 0.606148 -0.190882 -0.145730 -0.232293 -0.176974 -0.087849 0.157112 -0.163054 0.442339 0.228367 0.342321 -0.093869 0.270826 -0.138572 -0.088588 0.566402 -0.272641 0.116274 0.240041 0.171094 0.290342 0.074896 -0.601362 -0.317002 -0.056655 -0.025555 -0.160910 -0.039211 -0.520405 -0.587928 -0.266903 0.199488 -0.379368 -0.226211 0.176585 0.153240 -0.423844 0.084666 0.050190 0.228099 0.056430 0.092118 0.243383 0.200055 -0.299751 0.187015 0.076043 0.544321 -0.472565
sparrowsmith -0.533576 0.536297 -0.272471 -0.027183 0.075441 -0.204850 0.297909 -0.304921 1.027973 0.160539 -0.441525 -0.187930 0.211870 -0.421334 -0.225633 -0.445823 0.028534 -0.055519 -0.479608 0.263934 -0.501826 -0.287147 -0.432576 0.051143 0.176025 0.270775 0.125357 -0.143364 0.372853 0.228273 0.153061 -0.315641 -0.296461 -0.046576 0.163272 0.003276 0.192661 -0.051277 0.115636 0.218706 0.208471 0.047172 -0.345102 -0.510974 -0.174851 -0.106462 -0.287008 0.018334 0.336095 -0.225495 0.236052 -0.133300 0.197434 -0.237380 0.101054 0.158119 0.321224 0.295106 -0.070536 -0.080464 0.267738 0.312611 0.174077 -0.016600 -0.688949 -0.042614 -0.387024 0.041081 -0.016051 0.012032 -0.562187 0.266345 0.075159 0.469025 0.264706 0.368127 -0.358524 0.149790 -0.075684 -0.706951 -0.035794 -0.367203 -0.124247 0.380991 0.100273 0.444653 -0.004598 -0.091256 0.833293 -0.080967 0.198179 0.273625 0.270645 0.225432 -0.199027 -0.185497 0.183163 -0.055690 0.046632 0.131701
zulus -0.435831 0.056430 -0.182761 0.521946 0.044166 0.365441 -0.173233 -0.167489 -0.077774 -0.394215 -0.365377 0.316421 -0.866847 0.076210 0.382947 -0.400050 -0.293020 0.434936 -0.432343 0.177135 0.140424 0.018161 -0.337185 -0.198668 -0.245417 0.364320 0.169151 -0.125132 0.314604 0.591771 -0.173498 0.219534 -0.089579 -0.309434 -0.071626 -0.085318 -0.397456 0.092121 -0.067256 -0.278288 0.007699 -0.385741 0.123748 0.345073 0.058208 -0.318821 0.333131 -0.142761 -0.008606 0.090381 -0.470256 0.158641 -0.086554 -0.299287 0.012318 -0.008664 -0.225115 0.676822 0.496061 0.337462 -0.114788 -0.027334 0.008466 0.446555 -0.162907 -0.155995 0.419933 -0.021860 -0.018491 -0.047758 0.587186 -0.071081 -0.091253 -0.072478 -0.397503 0.091082 -0.044831 -0.301225 0.451620 0.143351 -0.041868 0.072760 0.091118 -0.283937 -0.412567 0.142553 0.141438 -0.183809 0.076276 -0.273567 -0.213546 0.066070 0.421246 -0.108623 0.472631 0.444641 0.355798 -0.006103 0.196608 0.426818
lvhsystems -0.398941 -0.337996 -0.191168 0.044954 0.095790 0.454983 -0.501391 0.065718 0.366213 -0.091462 -0.143412 0.159958 0.376999 -0.127535 -0.310012 0.044928 0.696875 -0.023934 0.032600 0.396219 -0.104194 -0.202741 0.071934 -0.276314 0.618229 0.310962 -0.802767 -0.638255 -0.127729 0.276821 -0.033528 0.107503 -0.145543 -0.264403 -0.242517 -0.103862 -0.056217 -0.667537 -0.291113 0.214020 0.144877 0.131246 -0.038724 0.194210 -0.025404 0.091629 0.263269 0.453629 -0.001212 -0.109277 -0.097461 -0.314933 -0.103781 0.219520 0.037834 0.639388 0.062371 -0.138203 0.205020 -0.232947 0.196629 -0.187718 -0.121272 0.170727 -0.142315 0.200602 -0.156433 0.228827 -0.378769 -0.133232 -0.382337 0.208224 0.036146 -0.159431 -0.239973 -0.095547 0.253903 -0.229471 0.001881 -0.208187 -0.269204 0.071127 0.111836 0.146299 0.010469 0.156534 -0.502564 0.750192 0.413321 -0.291370 -0.005836 -0.127991 -0.020779 -0.166465 0.603414 0.098106 0.037146 -0.345519 0.014949 0.324230
dastarrniceshow 0.067179 0.023500 -0.396099 -0.250237 0.014955 0.080233 -0.378558 0.165004 0.676186 -0.028637 -0.303008 -0.293479 -0.303211 -0.022863 -0.609306 -0.200866 0.032064 0.475622 -0.169968 0.014379 0.059961 -0.393702 0.020315 -0.521857 0.341180 0.258265 -0.261243 0.292810 -0.351188 -0.135879 0.517074 -0.427041 -0.439401 0.353459 0.394489 -0.118431 0.178973 -0.167863 0.336828 -0.374189 0.048657 -0.102273 -0.373705 0.060118 -0.172572 0.289764 0.134129 -0.335065 0.167614 -0.069411 -0.530533 -0.074591 0.012808 -0.219799 0.389751 0.432662 0.400189 -0.072295 -0.198790 0.366695 -0.298459 0.055948 0.193989 0.263106 0.119245 -0.419871 -0.525948 -0.162425 0.239741 0.099914 0.089736 -0.552595 -0.378602 0.074402 -0.529007 0.075827 -0.265286 0.008078 0.124050 -0.239518 -0.380768 -0.411035 0.164036 0.114018 0.312381 0.029091 0.171842 -0.103150 0.500333 0.029457 -0.530093 -0.361718 0.575462 0.191912 0.133083 -0.064427 0.208571 -0.083322 0.004821 0.204455
zephyrarchangel -0.266315 0.458638 -0.668890 -0.307125 0.097160 0.260583 0.030764 -0.180737 -0.480063 -0.180115 -0.545524 -0.213972 0.012729 -0.179117 0.007800 -0.745786 -0.142379 -0.107603 0.001725 0.342157 -0.102190 0.240497 -0.072432 0.075238 -0.200032 0.426469 0.549581 -0.212601 0.236526 -0.368828 0.102054 0.422519 0.096922 -0.295319 -0.385334 -0.132813 0.129411 -0.222627 -0.063444 -0.023974 0.423534 -0.504606 0.239479 -0.366204 0.172000 -0.142772 0.168530 0.102675 0.298646 -0.607824 -0.127823 0.300876 0.186464 -0.202659 -0.417766 0.085560 0.029176 -0.008030 0.203961 0.143677 -0.174185 0.097283 -0.274086 -0.160893 -0.296179 0.324939 0.323771 -0.519520 -0.406684 -0.174452 0.343401 -0.202607 0.342851 0.669781 -0.122022 -0.125799 0.113275 0.257167 0.043942 -0.156271 -0.144554 -0.351264 -0.194512 -0.321626 -0.043270 0.093623 0.029242 -0.436718 0.114270 -0.005222 0.072948 0.419397 0.503878 0.038836 -0.096104 0.704639 0.143544 -0.256003 -0.166342 0.107680
orlandopersonalinjury 0.102592 -0.375834 0.815031 0.275725 -0.243956 0.690045 0.328650 0.632463 0.283786 0.344441 -0.120429 0.447603 -0.483429 0.203780 0.035006 0.313050 -0.415772 0.093284 0.443939 0.199980 -0.183010 0.032782 0.142780 -0.257449 0.158572 0.156457 -0.088723 0.276912 0.027850 0.456877 0.113574 -0.116744 -0.127007 -0.196405 -0.035669 -0.099526 -0.026825 -0.344992 -0.079551 0.044449 0.423668 -0.014791 0.290759 0.028841 -0.067975 0.168670 -0.035337 -0.978099 0.484783 -0.028809 -0.158924 0.061160 -0.009731 0.212726 -0.059799 -0.011587 -0.131137 0.326265 -0.198337 -0.518614 -0.311148 0.343725 -0.214158 -0.260389 -0.143976 -0.231575 0.390522 0.016227 0.178809 -0.403333 -0.433860 -0.200281 0.438285 -0.330887 -0.393580 0.157527 0.180769 0.010626 0.440723 -0.477172 0.179386 -0.091639 -0.072439 -0.234118 0.013114 0.205967 0.013799 0.068148 0.138150 -0.153767 0.240032 -0.124352 -0.109253 -0.013158 0.515706 0.442336 -0.089492 -0.350634 0.053838 -0.113656
qpido -0.185998 0.719380 0.417154 0.091096 -0.279864 0.529043 -0.018819 -0.050613 -0.227063 -0.326588 -0.251904 -0.215333 -0.753650 0.174457 -0.335101 -0.409619 -0.187284 0.261974 -0.011055 -0.735196 0.086283 0.014523 -0.061243 -0.001593 0.436173 0.676760 0.182363 -0.103670 0.026132 -0.006654 0.228472 -0.080322 0.559254 0.407352 -0.217622 0.571278 0.142407 -0.187127 0.057534 0.341199 -0.172649 -0.359697 0.038970 0.018824 -0.209004 0.156985 -0.108628 0.374328 -0.155083 -0.215923 -0.252713 0.123847 -0.116454 -0.281027 0.082971 -0.014254 0.229555 0.305249 0.368699 0.080058 -0.195607 0.077467 -0.005724 -0.232711 -0.364319 0.146812 0.158525 0.233611 -0.015738 0.597035 0.458185 0.422588 -0.048958 -0.202084 0.181615 0.439368 -0.017370 -0.158522 -0.122649 -0.289956 -0.294666 -0.263212 -0.049370 -0.436840 0.191223 0.165967 -0.136409 0.424292 0.539641 0.075583 0.137026 -0.306896 -0.694543 0.031838 -0.136066 -0.412579 0.022119 -0.335478 0.229972 -0.163389
wyattkaldenberg -0.433504 0.006230 0.013676 0.397140 -0.463338 -0.249482 0.398145 0.191898 0.210136 0.008503 -0.570238 -0.025873 -0.338942 0.202697 -0.416469 -0.056026 -0.236092 -0.162794 -0.043755 -0.414467 -0.459959 -0.201569 0.385159 0.142867 -0.112330 -0.168208 0.109651 -0.109999 0.206652 0.234674 -0.192308 0.176894 0.129827 -0.353468 0.233425 -0.166089 -0.215964 -0.119950 -0.381702 0.457091 0.853789 -0.165502 -0.330776 0.402118 0.149617 0.256744 0.029467 0.261928 -0.265837 -0.108806 -0.429077 0.008326 0.133336 0.124618 0.136004 0.597129 0.120190 0.626990 0.259435 0.372033 0.374133 -0.167599 0.251615 -0.066965 0.034503 -0.127608 -0.148313 -0.107614 -0.300411 0.144575 0.164393 0.084742 0.331040 -0.237867 -0.309029 0.419359 0.228011 -0.267692 -0.518893 0.108435 0.353755 -0.134503 -0.329195 0.267292 0.012748 -0.065457 0.322612 -0.182570 0.323914 0.292625 -0.371694 0.174959 0.259056 -0.479055 0.312355 0.050348 0.645884 -0.098775 0.178799 0.444337
tecnicle -0.437413 -0.198482 -0.015187 -0.413251 0.148899 -0.056120 0.071690 0.303775 0.098116 -0.039417 0.058035 0.368309 -0.085206 -0.087447 -0.048436 0.115640 -0.036412 -0.142397 -0.124250 -0.525917 -0.181290 0.150332 0.319851 -0.408867 -0.207777 0.678541 -0.029535 0.129012 0.100648 0.388983 -0.055524 0.453988 -0.092325 0.094418 -0.087921 -0.411828 -0.188692 0.304238 -0.322030 0.427584 -0.102504 -0.389517 -0.130395 -0.167924 0.291122 -0.189519 -0.153361 0.467450 0.518466 0.191665 0.020102 -0.527436 -0.602063 -0.091499 -0.025969 0.176203 0.224806 0.156142 0.102194 0.660636 -0.141842 -0.294688 0.007136 0.577280 -0.080659 -0.139340 0.286486 0.236906 0.216802 -0.040683 -0.398917 0.565911 0.019313 -0.038107 -0.105563 -0.089790 -0.249474 0.306501 -0.411287 -0.062673 -0.038240 0.044275 -0.377099 -0.031221 -0.236664 -0.651160 -0.220894 -0.192728 0.645003 -0.207203 0.342799 -0.397793 0.020126 0.286709 0.034508 -0.204483 -0.052355 -0.630927 -0.625559 -0.174341
aungtun79 -0.101139 0.558929 0.128922 -0.456549 -0.257109 0.246363 0.558286 -0.244979 -0.126546 -0.395386 0.587013 0.128091 -0.585070 -0.285206 0.217261 0.228417 0.192414 -0.154982 -0.059201 -0.426157 -0.100914 -0.450253 -0.017241 0.166496 0.419618 0.329403 0.276856 0.181001 0.122843 0.229005 -0.248701 0.263907 -0.846941 -0.029047 -0.433708 0.259437 0.180260 0.033115 0.008229 -0.004729 -0.101835 -0.124155 -0.252895 -0.276541 0.296224 -0.009613 0.086539 0.160767 0.706251 0.001171 0.251742 0.267762 -0.108999 -0.179925 -0.150504 0.017167 0.409018 0.390216 0.185532 -0.082453 0.130982 -0.149282 -0.055390 0.282715 -0.009830 0.299325 -0.196397 0.077390 -0.354987 -0.166214 0.323010 0.014711 0.243457 -0.336097 -0.448076 0.018514 -0.048472 0.117603 -0.071496 -0.859650 0.142237 -0.231541 -0.306605 -0.497179 0.032007 0.001646 0.276092 0.126514 0.590631 0.133940 -0.100028 0.125231 -0.332356 -0.317247 0.223421 0.422395 0.040847 -0.058739 0.097312 0.406071
cdrelease -0.188569 -0.110221 -0.043789 0.245301 -0.185099 0.234057 0.121020 0.292869 0.740216 -0.152920 0.112759 -0.016379 -0.606132 0.222347 0.409792 -0.624166 0.065168 -0.047033 -0.507020 0.224233 -0.022277 0.243611 0.184668 -0.278384 0.119557 0.051829 0.060412 0.265622 -0.032361 -0.444883 -0.039993 -0.085618 0.465457 -0.469835 0.144266 -0.266256 0.727479 0.352722 -0.243857 0.335353 -0.303819 -0.037782 -0.049672 -0.334923 0.340799 0.130548 -0.022545 -0.181021 0.324933 0.196746 -0.127874 -0.451900 -0.317722 -0.141011 -0.045433 0.108206 -0.126334 0.201308 -0.010848 0.161990 0.028476 -0.286238 0.379871 -0.286989 0.141814 0.529476 0.129744 0.330095 -0.123852 0.291625 -0.350785 0.081560 -0.001567 -0.031086 -0.679746 -0.081937 -0.181057 -0.413945 -0.246412 -0.664710 -0.215863 0.625024 -0.537464 0.275825 0.230699 -0.192064 -0.147022 0.148194 -0.010675 0.111152 -0.491645 0.171332 0.267129 0.097328 -0.162304 0.076002 -0.117700 -0.466975 0.240141 -0.213115
davedwilliamson -0.418310 -0.236432 0.039861 0.404248 0.359350 0.350489 0.391646 0.502925 0.111610 -0.106081 -0.094040 -0.076696 -0.539456 -0.069713 0.211129 -0.295808 0.046305 0.160945 -0.016624 0.124570 0.089166 -0.172670 -0.268117 0.090074 0.339544 -0.177091 0.377100 0.094862 0.323376 0.132507 -0.593787 -0.096688 -0.032596 -0.568382 -0.051612 0.273701 -0.120645 -0.257304 0.057109 -0.522249 0.096079 -0.265328 0.078232 0.029309 -0.276574 0.210510 0.090845 -0.114069 -0.027316 -0.212784 -0.526716 0.230568 -0.706450 0.163611 0.236107 0.251059 -0.050364 0.172451 0.610773 0.059420 -0.219948 0.163872 -0.159606 0.167182 -0.169420 0.354123 0.458894 0.096959 0.114995 -0.353646 -0.150729 0.058037 0.595456 -0.053598 0.052747 0.586985 -0.116485 0.025366 0.999294 -0.357026 -0.411379 -0.302876 -0.105048 0.352843 0.101218 -0.172184 -0.149109 0.707589 0.046666 -0.192022 0.138383 -0.062685 -0.046871 0.223462 -0.030233 -0.085660 -0.153612 -0.085275 -0.170858 -0.259350
481722619 -0.187475 0.430784 0.268684 0.320722 0.094848 0.346098 0.227450 0.101367 -0.011935 -1.002492 -0.517884 -0.039499 -0.205545 0.223210 0.139269 -0.734661 0.175777 -0.144801 -0.335092 0.017429 0.519295 0.271221 -0.365571 -0.223309 0.008545 0.333316 0.566830 -0.368426 0.601567 0.133267 0.197575 -0.159762 0.149908 -0.370175 0.097354 -0.142683 -0.016068 0.083678 0.131964 0.264376 0.295120 -0.071196 -0.076977 0.190878 -0.579510 -0.108275 0.404166 0.039514 0.317313 -0.108270 0.022843 -0.249442 -0.009919 0.094375 -0.320557 0.378826 0.219924 0.078761 -0.156498 -0.482827 0.312632 -0.284008 0.055869 0.105590 0.244759 0.396550 0.299049 -0.120442 -0.388809 -0.217014 -0.321869 -0.061837 0.234953 -0.058518 -0.075081 -0.352528 0.233704 0.018864 0.292864 0.083214 0.095399 -0.007986 0.047174 -0.664865 -0.024616 -0.094839 -0.090073 0.382971 -0.122632 -0.089627 0.041297 0.139096 0.252023 -0.312471 -0.192375 0.239490 0.448252 -0.061541 0.175561 -0.049640
djnitrogen -0.418295 0.146030 0.005017 0.097721 -0.527402 0.298795 0.129794 -0.341058 -0.097526 -0.326479 -0.537267 -0.224774 -0.082423 -0.250009 -0.177122 0.177879 -0.102480 -0.029295 -0.161347 -0.252946 -0.140812 0.121841 -0.556109 -0.248249 -0.352760 -0.207205 0.027014 0.115584 0.107978 -0.379255 -0.071638 -0.192003 -0.130549 0.111976 -0.192884 -0.289969 0.111924 -0.560820 -0.179345 -0.031759 -0.216089 0.167210 0.349312 -0.368252 0.262863 0.204928 0.093969 -0.318834 0.392474 0.105787 -0.144280 -0.046963 -0.321098 0.027778 -0.136408 0.064514 0.184725 -0.362261 0.094259 -0.608922 -0.430018 -0.240147 0.359030 -0.360284 -0.446258 -0.204472 0.732457 0.114539 0.236255 -0.224008 -0.750693 0.142659 0.012063 0.348101 -0.233568 0.016086 -0.266536 -0.146366 -0.460946 -0.660140 0.144824 -0.171651 0.276215 -0.056485 -0.440615 -0.079337 0.396458 -0.467939 0.666865 -0.429394 -0.045762 0.038434 0.285222 -0.142881 0.056670 -0.173591 0.165037 -0.044005 -0.106572 0.300756
janetdmorris -0.484566 -0.338640 -0.166317 0.242975 -0.023735 -0.168578 -0.434388 0.589339 0.381147 0.324801 0.027018 -0.521887 -0.010652 -0.153634 -0.444628 -0.103856 -0.213556 -0.515296 -0.276294 -0.309829 -0.222330 -0.257844 -0.377914 -0.419225 0.105823 0.118245 -0.230758 -0.556218 0.283373 -0.098764 -0.278267 0.070056 -0.029710 -0.729795 0.246633 -0.315167 -0.072180 0.196699 0.067881 0.544007 -0.082798 -0.161468 0.137675 0.132697 0.037411 0.231155 0.040908 0.187446 -0.401272 -0.021406 -0.300236 -0.149108 0.177399 -0.128404 0.206215 0.274504 0.167053 0.378102 0.063440 -0.282230 0.350620 -0.488361 -0.130705 0.261327 0.389311 0.259723 0.110175 -0.207882 0.058535 -0.321532 -0.153903 -0.082819 0.047302 -0.174980 -0.190708 -0.397166 -0.248694 -0.581185 0.644902 0.003658 -0.195446 -0.247976 0.228303 0.263041 -0.330802 -0.347441 0.194526 -0.297821 0.141510 0.310285 -0.138778 0.137784 0.450184 0.135889 -0.123844 -0.105199 0.137858 -0.396975 -0.197374 -0.411318
entropyworks -0.321605 0.310027 -0.099988 -0.157650 -0.305874 -0.347842 0.031788 -0.106689 -0.268314 -0.488043 -0.130910 -0.227737 -0.345041 -0.062181 -0.171802 -0.073745 -0.177265 -0.292284 -0.466516 0.389942 -0.250395 -0.247667 0.084783 -0.231562 0.258176 0.013945 0.240900 -0.458633 -0.086387 -0.055776 0.459112 -0.341412 -0.264518 0.226053 -0.322514 0.030860 0.353480 -0.126168 0.044513 0.528814 0.358649 0.406967 0.122252 -0.254901 0.344846 0.144733 0.021407 -0.464451 0.407187 -0.210266 -0.317776 -0.149564 0.203948 -0.318074 -0.401793 0.181129 -0.003940 0.357227 -0.136600 -0.271156 -0.527810 -0.088792 -0.022656 -0.055029 0.254128 0.069100 0.055962 -0.123603 -0.932150 0.230486 0.290866 -0.021183 -0.208149 -0.098293 -0.120648 0.390791 0.361745 0.245542 -0.255030 -0.397868 -0.068301 -0.256838 0.135548 -0.247968 0.549121 -0.690145 -0.031814 -0.187537 0.329690 0.306787 0.038430 -0.406055 0.119456 -0.100162 -0.111719 -0.363609 -0.179091 0.117776 0.536457 -0.270694
cx11een -0.250353 -0.097762 0.228554 0.018239 0.465407 0.287275 0.180060 -0.145587 0.116576 -0.070290 -0.030128 0.053564 -0.696766 -0.292981 -0.405822 0.224160 0.136899 -0.107943 -0.355292 0.046777 0.751172 -0.273991 0.403573 0.009386 0.423811 0.372210 0.276974 -0.122717 0.051218 0.463737 0.139694 0.153920 -0.192794 -0.712703 -0.501478 -0.315161 0.258886 0.059632 0.334395 -0.444637 -0.012635 0.439797 -0.362028 -0.101636 -0.116722 0.126516 0.256184 -0.153703 -0.116148 -0.515391 -0.359560 0.061335 -0.366825 0.121843 0.193748 0.409876 0.313492 0.295537 -0.116032 0.371329 0.161068 -0.333116 0.235035 0.254957 0.203711 0.161128 0.091128 0.296522 -0.077997 -0.306747 0.133300 0.226792 0.458549 -0.313238 0.054305 0.316575 -0.028441 -0.053392 -0.224540 0.479080 -0.322469 0.352259 0.732078 -0.146570 0.163307 -0.197551 0.238573 -0.222093 0.455538 0.517222 -0.130816 0.093706 0.174021 -0.018991 0.454579 -0.083971 -0.178356 -0.091459 0.259679 -0.175194
hbrew220 0.091982 0.174927 0.096215 0.075270 0.333619 0.528340 -0.080610 -0.007027 0.381100 -0.778478 -0.051612 -0.344546 -0.521464 0.073664 0.162894 -0.076490 0.609740 0.205921 -0.334020 -0.540749 0.191689 -0.168469 -0.170741 0.111729 0.077467 0.443829 0.441713 0.072955 -0.173678 0.610898 -0.009864 0.052909 0.025888 0.128600 0.006684 -0.345834 -0.121127 -0.173608 -0.639376 -0.201217 -0.098339 -0.120389 -0.551863 -0.338971 -0.152512 0.417359 0.204609 -0.035140 0.295026 -0.624215 -0.172004 -0.111430 0.018736 0.495798 -0.261516 0.126968 -0.029108 -0.112475 0.108168 -0.285473 -0.230471 0.384779 0.179454 0.090270 0.042227 -0.264096 -0.088330 0.171360 0.354683 -0.243212 -0.047089 0.057104 0.615047 -0.453644 -0.286516 0.089465 -0.298137 -0.196092 0.002882 -0.107844 -0.555392 0.304510 0.291142 0.175770 -0.071165 -0.136565 -0.600084 -0.005622 0.130149 0.190922 -0.125586 0.164012 -0.684642 -0.006433 0.340772 -0.121751 -0.263342 0.179528 0.049496 -0.380792
grayenot 0.063284 -0.278246 0.044404 -0.036817 -0.204705 0.118365 0.413798 -0.106607 -0.056330 -0.286440 -0.295417 -0.075492 -0.019207 0.060697 -0.244449 -0.200838 -0.107905 -0.166039 0.134835 0.182643 -0.202155 0.246670 0.060181 0.051539 0.517880 0.381131 -0.239805 -0.047420 0.132549 0.011598 -0.151701 -0.754698 -0.402761 -0.216407 0.026472 0.067784 0.488385 -0.041971 -0.169093 0.182397 0.093180 -0.363973 -0.131907 0.889733 -0.102329 0.001849 -0.595609 0.690354 0.175360 -0.028107 0.137701 -0.150266 -0.196150 -0.540807 0.015521 -0.021311 0.415253 0.084525 0.142123 -0.246773 -0.413935 0.424677 0.012613 0.039985 0.083302 0.068813 0.477026 0.096360 0.221927 -0.516380 -0.399460 0.463920 0.048609 -0.283942 0.210793 0.271284 0.181474 0.340042 0.209277 -0.012450 -0.577275 -0.156755 0.151516 0.044864 -0.262276 -0.427962 0.433263 -0.235554 0.162602 -0.427379 -0.267470 -0.263885 -0.292205 0.056692 0.277919 0.562727 0.163702 -0.138725 -0.313379 0.012604
ramasethu -0.682334 0.384858 -0.421559 0.172174 0.272833 0.232621 0.176487 -0.299279 0.020938 -0.341029 -0.263774 -0.306143 0.024599 -0.473409 -0.494749 -0.197089 0.452667 -0.019305 -0.003932 0.096542 -0.256532 0.303422 -0.677482 -0.027234 -0.034642 0.345584 0.077447 0.132166 -0.128472 0.357987 -0.024799 -0.025976 0.086965 -0.497046 -0.385672 0.026990 0.258882 0.079472 0.046409 0.089244 -0.151726 -0.478046 0.465595 0.386302 0.007353 0.001520 -0.121295 0.288558 -0.131220 0.111567 -0.022462 0.001647 0.115655 0.149753 0.639082 -0.236988 0.096790 0.534191 -0.352493 -0.328850 -0.767083 0.352429 -0.016885 0.072912 0.026411 -0.149703 0.296675 0.382231 -0.236052 0.154554 0.005096 0.003192 0.107890 0.233674 -0.075438 0.239822 0.262765 -0.195092 -0.343477 0.247956 0.096818 -0.140863 -0.347056 0.539411 0.151578 -0.219713 -0.005789 -0.461902 0.331337 -0.197246 0.265209 -0.021745 0.405431 -0.161095 0.188630 -0.203608 -0.345026 -0.227530 0.294347 0.203416
jcterminal -0.060064 0.352071 -0.337566 0.544671 -0.439264 0.253280 0.280700 -0.014291 -0.646210 -0.346364 -0.165620 -0.266629 -0.430808 0.004727 -0.046712 0.086742 0.027401 -0.080065 0.210478 -0.273086 -0.272360 -0.441168 0.142296 -0.314496 -0.148349 0.874150 0.072754 -0.298164 0.233904 0.153345 -0.116348 -0.322041 0.038452 0.470007 -0.140993 -0.456599 -0.378781 0.384264 -0.042111 0.068708 0.372709 -0.228457 0.119635 0.258246 -0.215679 0.212550 0.244364 0.087028 0.074929 -0.043489 0.169212 -0.160030 -0.170279 -0.473096 0.541564 0.475555 0.025052 0.592759 -0.188432 0.172173 -0.015075 0.023094 -0.076191 -0.244243 -0.101668 0.011885 -0.225567 0.654533 -0.430652 0.546126 -0.436609 -0.194836 0.269516 0.240997 -0.565285 -0.156996 -0.227171 0.377527 0.381279 0.065369 0.111316 0.101584 -0.424910 0.092210 -0.136192 0.116350 -0.060810 -0.306297 -0.234518 0.005836 -0.271897 -0.291705 0.211857 0.298145 0.211218 0.115200 -0.122816 0.097696 -0.021150 -0.202513
shushantmojumdar 0.081314 -0.238922 -0.034982 0.016401 -0.116144 0.259837 0.164781 0.296535 0.059316 0.148156 -0.032884 0.086512 -0.025925 -0.010740 -0.343983 0.149828 0.474659 -0.567329 -0.099514 -0.110211 -0.196850 -0.116654 -0.736938 0.056184 -0.149236 -0.374596 0.643674 -0.363163 -0.337142 -0.142089 0.399176 -0.182828 0.109715 -0.240306 -0.132482 0.042156 0.240836 0.028305 0.469166 -0.279726 -0.061362 0.309802 -0.133808 0.031072 -0.407126 0.366989 -0.221861 -0.547091 0.366403 -0.195356 -0.570902 0.005122 0.031434 -0.141037 0.440254 -0.084612 0.677382 0.360820 -0.108280 0.379162 -0.062263 0.336770 -0.240745 0.232703 0.277884 0.114557 -0.116512 0.292589 -0.058155 0.702377 -0.326451 -0.318898 0.001834 -0.142753 -0.388763 -0.047071 -0.033699 -0.328307 0.412994 0.392400 0.270092 0.013377 0.075648 -0.324388 -0.384284 -0.280129 0.617505 -0.254550 0.288303 -0.286416 -0.431909 0.073226 0.385339 -0.087718 0.071433 -0.100758 -0.307309 -0.218757 0.060629 -0.124670
singswithmicoff -0.255596 -0.043942 -0.073488 0.174471 -0.033158 0.348514 -0.144119 0.049500 0.263258 -0.382743 -0.084577 -0.007081 -0.242140 0.135361 -0.343882 -0.221391 -0.114438 0.372167 -0.073639 -0.001415 0.136301 -0.194698 -0.422016 0.374965 -0.087296 0.000548 -0.254870 -0.316262 0.292096 -0.341214 0.805052 0.093293 0.478861 0.036820 -0.386022 -0.103333 -0.145226 -0.010331 -0.128328 0.387193 -0.038065 -0.218265 -0.314844 -0.455224 0.673628 0.360594 0.386490 -0.153569 -0.209968 -0.487394 -0.196529 -0.421521 0.146885 -0.262000 -0.392813 0.309956 0.438878 -0.016111 0.104525 -0.097147 0.104635 -0.378365 0.491549 0.072268 -0.377880 -0.235502 0.570809 0.177870 0.584356 0.052252 -0.464864 -0.417472 -0.269201 0.258923 0.290845 -0.273144 0.396379 0.159463 0.487942 -0.059160 0.043435 -0.160603 -0.429879 0.174443 0.035790 -0.653257 0.035628 -0.167176 0.214390 0.281206 0.201534 -0.083444 0.056136 0.010165 0.288112 0.236366 0.058863 -0.514828 -0.125131 -0.158122
